CODE_GENDER_DemographicParityRatio,CODE_GENDER_AverageOddsDifference,NAME_FAMILY_STATUS_DemographicParityRatio,NAME_FAMILY_STATUS_AverageOddsDifference,AGE_DemographicParityRatio,AGE_AverageOddsDifference,CNT_CHILDREN_DemographicParityRatio,CNT_CHILDREN_AverageOddsDifference,AMT_INCOME_TOTAL_DemographicParityRatio,AMT_INCOME_TOTAL_AverageOddsDifference,AMT_CREDIT_DemographicParityRatio,AMT_CREDIT_AverageOddsDifference,AMT_ANNUITY_DemographicParityRatio,AMT_ANNUITY_AverageOddsDifference,AMT_GOODS_PRICE_DemographicParityRatio,AMT_GOODS_PRICE_AverageOddsDifference,REGION_POPULATION_RELATIVE_DemographicParityRatio,REGION_POPULATION_RELATIVE_AverageOddsDifference,YEARS_EMPLOYED_DemographicParityRatio,YEARS_EMPLOYED_AverageOddsDifference,YEARS_REGISTRATION_DemographicParityRatio,YEARS_REGISTRATION_AverageOddsDifference,YEARS_ID_PUBLISH_DemographicParityRatio,YEARS_ID_PUBLISH_AverageOddsDifference,FLAG_MOBIL_DemographicParityRatio,FLAG_MOBIL_AverageOddsDifference,FLAG_EMP_PHONE_DemographicParityRatio,FLAG_EMP_PHONE_AverageOddsDifference,FLAG_WORK_PHONE_DemographicParityRatio,FLAG_WORK_PHONE_AverageOddsDifference,FLAG_CONT_MOBILE_DemographicParityRatio,FLAG_CONT_MOBILE_AverageOddsDifference,FLAG_PHONE_DemographicParityRatio,FLAG_PHONE_AverageOddsDifference,FLAG_EMAIL_DemographicParityRatio,FLAG_EMAIL_AverageOddsDifference,CNT_FAM_MEMBERS_DemographicParityRatio,CNT_FAM_MEMBERS_AverageOddsDifference,REGION_RATING_CLIENT_DemographicParityRatio,REGION_RATING_CLIENT_AverageOddsDifference,REGION_RATING_CLIENT_W_CITY_DemographicParityRatio,REGION_RATING_CLIENT_W_CITY_AverageOddsDifference,HOUR_APPR_PROCESS_START_DemographicParityRatio,HOUR_APPR_PROCESS_START_AverageOddsDifference,REG_REGION_NOT_LIVE_REGION_DemographicParityRatio,REG_REGION_NOT_LIVE_REGION_AverageOddsDifference,REG_REGION_NOT_WORK_REGION_DemographicParityRatio,REG_REGION_NOT_WORK_REGION_AverageOddsDifference,LIVE_REGION_NOT_WORK_REGION_DemographicParityRatio,LIVE_REGION_NOT_WORK_REGION_AverageOddsDifference,REG_CITY_NOT_LIVE_CITY_DemographicParityRatio,REG_CITY_NOT_LIVE_CITY_AverageOddsDifference,REG_CITY_NOT_WORK_CITY_DemographicParityRatio,REG_CITY_NOT_WORK_CITY_AverageOddsDifference,LIVE_CITY_NOT_WORK_CITY_DemographicParityRatio,LIVE_CITY_NOT_WORK_CITY_AverageOddsDifference,OBS_30_CNT_SOCIAL_CIRCLE_DemographicParityRatio,OBS_30_CNT_SOCIAL_CIRCLE_AverageOddsDifference,DEF_30_CNT_SOCIAL_CIRCLE_DemographicParityRatio,DEF_30_CNT_SOCIAL_CIRCLE_AverageOddsDifference,OBS_60_CNT_SOCIAL_CIRCLE_DemographicParityRatio,OBS_60_CNT_SOCIAL_CIRCLE_AverageOddsDifference,DEF_60_CNT_SOCIAL_CIRCLE_DemographicParityRatio,DEF_60_CNT_SOCIAL_CIRCLE_AverageOddsDifference,YEARS_LAST_PHONE_CHANGE_DemographicParityRatio,YEARS_LAST_PHONE_CHANGE_AverageOddsDifference,AMT_REQ_CREDIT_BUREAU_HOUR_DemographicParityRatio,AMT_REQ_CREDIT_BUREAU_HOUR_AverageOddsDifference,AMT_REQ_CREDIT_BUREAU_DAY_DemographicParityRatio,AMT_REQ_CREDIT_BUREAU_DAY_AverageOddsDifference,AMT_REQ_CREDIT_BUREAU_WEEK_DemographicParityRatio,AMT_REQ_CREDIT_BUREAU_WEEK_AverageOddsDifference,AMT_REQ_CREDIT_BUREAU_MON_DemographicParityRatio,AMT_REQ_CREDIT_BUREAU_MON_AverageOddsDifference,AMT_REQ_CREDIT_BUREAU_QRT_DemographicParityRatio,AMT_REQ_CREDIT_BUREAU_QRT_AverageOddsDifference,AMT_REQ_CREDIT_BUREAU_YEAR_DemographicParityRatio,AMT_REQ_CREDIT_BUREAU_YEAR_AverageOddsDifference,NAME_CONTRACT_TYPE_DemographicParityRatio,NAME_CONTRACT_TYPE_AverageOddsDifference,FLAG_OWN_CAR_DemographicParityRatio,FLAG_OWN_CAR_AverageOddsDifference,FLAG_OWN_REALTY_DemographicParityRatio,FLAG_OWN_REALTY_AverageOddsDifference,NAME_TYPE_SUITE_DemographicParityRatio,NAME_TYPE_SUITE_AverageOddsDifference,NAME_INCOME_TYPE_DemographicParityRatio,NAME_INCOME_TYPE_AverageOddsDifference,NAME_EDUCATION_TYPE_DemographicParityRatio,NAME_EDUCATION_TYPE_AverageOddsDifference,NAME_HOUSING_TYPE_DemographicParityRatio,NAME_HOUSING_TYPE_AverageOddsDifference,OCCUPATION_TYPE_DemographicParityRatio,OCCUPATION_TYPE_AverageOddsDifference,WEEKDAY_APPR_PROCESS_START_DemographicParityRatio,WEEKDAY_APPR_PROCESS_START_AverageOddsDifference,ORGANIZATION_TYPE_DemographicParityRatio,ORGANIZATION_TYPE_AverageOddsDifference,consistency,counterfactual_CODE_GENDER,counterfactual_AGE,counterfactual_NAME_FAMILY_STATUS,participant_id
-0.7018765477659729,-4.2284569355545605,-2.2767986433032825,2.450976574966128,-12.717323250260035,2.3211192560933243,2.936181680593248,25.16209914398878,-3.47904675044118,41.25999983860173,-6.259561261038864,38.85912061201661,-0.708409359094927,9.10678553709939,-8.165085442881626,105.66074634590514,0.5558598480633855,-11.676719558445148,-0.7843137254901865,0.9788894465318567,-2.86036749778568,32.97836332681921,3.804852812907099,-13.120243352439584,,,0.6549196528421617,-9.504913155922761,8.460258414044002,-37.97233486281706,-0.09389671361503733,1.354632341606304,-6.99731574377474,191.5139007802417,3.10174634733456,5.186746642411605,2.1923566604314915,28.364750745552364,-5.570727633364654,8.405865681412415,-5.565064390536081,4.9608397939148245,0.4409983692761516,24.05239558551518,3.744758957933394,143.39863719691505,-1.996964709467295,46.44778758783424,-1.8415080295242567,11.23747161841358,-5.415459827301749,13.924811176983368,-3.844442230799847,9.065708930886379,-2.2019718054336512,5.143561760006014,-1.707847726555024,30.856422782345927,46.015411986960075,-54.560433094033186,-3.247199207754535,20.069465950961536,13.69590252555117,-27.662307911824186,-0.49478910259091335,3.0212977937515664,10.597627528012593,-6.470954874096245,-20.833333333333325,112.79391424619645,inf,-13.446358829208357,-3.818609635635089,-11.269741608203306,-0.5055787639058164,-4.656035758509247,5.974332072849619,13.313391240648857,7.062583008561207,-34.286393714232794,-3.8720217486473216,40.83378567208975,0.9145284302393544,15.224933594376278,-1.1921132589449344,-0.533661597599208,1.5362039609290357,-8.683445580866561,-5.326741996233523,0.6087815390140696,16.329297211650122,-21.559160868371396,-42.59259259259262,9.04761904761904,-4.928091750752968,63.03916738699341,inf,0.0,0.3018510203063247,-0.8125472411186808,2.749188223607929,1.5007254261878953,60c442aafa8afba1988e2ba0
-0.28108733371889905,6.339645652319184,2.20984584275614,-17.61401698972758,-5.050435566867509,-12.020669288147909,-1.2543526432415246,9.802606362591042,-5.621741134445295,47.94817203975494,-6.365957773901215,48.38479562951852,-5.617087020883306,42.63686944829501,-7.298703175233888,81.04733625832714,1.5267757118351304,-11.516414677212886,2.588235294117638,-3.0628162174626707,-0.677475313869252,23.942533725832448,2.7721624952443014,-14.58084897242542,,,5.845134917553976,-29.45332131246157,10.950563550001332,-47.427913271729075,1.6431924882629039,-1.0580134628230966,-7.396078463991134,249.28887080443224,6.867747487495378,-6.432475396805979,-1.9681597153319366,12.782369636164049,0.40270601778914444,-19.861817197093796,0.9960681520314596,-20.683262737613187,3.931275556651223,12.082336658579429,10.6826707397321,293.44138909065805,4.714608603605971,-47.492797170278614,3.986401012017719,-47.60871138123148,-10.77101242460308,29.831047970152408,-3.7583570609015156,10.472808765005544,-1.1714859896385927,-3.2044385932349893,0.9365098569353503,-4.605208458145976,48.62014588098819,-53.459370464085374,-2.360501480901504,-11.75506449488903,15.189040076673885,-28.931577321965406,2.27361001469713,-5.742345620651137,28.860489882854072,15.199451508352018,-34.397435897435884,220.3746392773595,inf,-25.43888840130283,-2.8310502283105183,-27.94993668498536,3.402610410837972,-22.24753103198334,6.3960811649432525,-3.694724493581531,5.362487797018211,-14.013962207730954,-2.876102791835854,19.522577691547138,2.039579127754479,-9.233290902764614,16.666666666666664,-8.624361812548816,4.183570393505811,-21.14752493251091,-5.555555555555573,0.5267726197958783,38.468615674498,-26.308194729247365,-59.25925925925925,9.523809523809527,-0.9846708942684607,42.814472054671576,inf,0.0,0.6037020406126827,-1.8140589569161012,2.489169358675886,1.4417845484221963,60a3a03bc01ba594c9cca88d
3.235055201131353,-19.893440749307718,-1.23175530589658,3.8906673299347103,-6.370607653967288,-5.041094556645849,1.118629313073757,15.995113070141803,-1.3485829165758454,17.43672315249174,-8.647062738461484,56.62084434981638,-6.073704070270937,5.2370657429798655,-9.271817450711199,93.13999989977994,-1.182839363259825,-9.034572301455,-0.4313725490196121,-1.272104137559951,-7.963551462917592,85.89906536402486,1.5207767098604523,-11.250212821881357,,,-0.227786515911615,-5.605666804346432,4.623865463294012,-17.96876158658673,0.5164319248826118,-2.1842402754226353,-5.252288131393587,170.1863471587539,7.022268849726193,-9.221998246433536,-0.8278317127403545,21.527043057292204,-5.703932579389301,5.383284099183563,-4.958771575900884,3.227990883653538,6.625686255845004,29.98121195759289,2.2832849509026434,176.76240877174817,5.417825095124809,-17.899640680783097,6.947501581277675,-43.43933145213807,-4.641451286356067,17.79417898669848,-4.871145914427895,22.72937448092521,-3.4363215831767753,27.002123972175458,0.5888795246802117,8.688961381835474,43.492014977216556,-52.806065948112426,-3.741650859563154,-1.1255829214907134,9.184805873018348,-24.43597907797678,12.292761854908086,-33.924552906571805,14.024227902023437,-1.8212415856395203,-16.145212554628518,130.9128630705395,inf,-11.409239512023877,-4.9245954089398305,-12.44023528176856,3.6263140196560566,-28.402947660898164,3.429624662701329,24.695231549806145,5.931475306302071,-42.89089682728145,8.471072544133316,-7.085619502273315,3.339661528546055,-47.4128151115685,10.832372919831672,-4.299939380972777,-1.309716025392696,0.9689357760275635,-6.944444444444457,9.676453862500358,23.19722797663974,-22.90626040626041,-44.44444444444445,6.336996336996339,0.46391892481447367,44.312790534911926,inf,-10.277777777777775,1.3969964576161045,11.054421768707487,0.8000901510029798,0.42618788538265157,5fad5482f2e5c201d4a5cd76
1.0949746426924876,-5.454365256475125,-0.3267395521996696,10.025662025802955,-1.8991024709979032,-12.972624987626672,1.4601139601139566,42.0467612111921,-3.9225786790024024,40.32393852522015,-3.544501329032869,32.43920988658399,5.422806775926188,-11.26947347829461,-7.284592529711374,97.46364293813696,5.18826745527847,-28.403092183494593,0.5882352941176529,-1.2173948428576868,-6.358606401941824,87.92230471087535,1.4103580339950712,-3.4129950663216406,,,3.499361550526856,-14.274892638807016,1.935961993169273,2.472273501337968,0.5633802816901461,-0.7615230460921957,-1.5073821207595495,78.90499804366945,4.2570592286501,46.38265444086613,-2.6274467901064935,74.05963267788094,-0.7419354838709606,-13.942694546234492,1.1728395061728287,-17.08974513799137,9.226610965642205,24.068123982465423,-7.297267639635681,268.347826086957,-3.336198161684883,-30.295926369605414,-0.9688581314878857,-22.86375804934524,-10.199177725504578,26.917576453536107,-2.961462148845377,14.886422481985287,0.4120017913121406,2.060510768244275,0.8819335927672882,18.19864611107759,55.30172413793103,-63.683781775920934,-5.009231808380723,15.481845075810977,5.723758801766336,-17.458525372644228,4.484190294232559,-19.764050552496318,1.8370607028754007,-3.3246073298429697,-12.500000000000005,41.286307053941904,inf,5.854552469135803,-2.2303567254673062,-3.018686485423078,6.164164236381859,-38.86663042493431,5.303069763445121,-21.398227940283974,1.2624754755608707,-9.647440385946346,-1.0323348786353288,6.600023351622468,1.1517056083966013,44.92063863935267,13.930143014301418,-4.334513448816067,-2.893847194050039,5.047104654458797,-7.833333333333324,-1.3333931938583183,18.181818181818173,-25.582750582750585,-100.0,14.285714285714285,-3.514396875301588,49.86182028947529,inf,0.0,-0.7783265978146958,-1.4172335600907104,2.7458492975735167,1.8634385201305708,5f047d44d191116edb3cb798
-4.14937759336099,21.372736645886107,-4.895532826296006,-1.1147606153165022,-16.40211640211643,8.297122406440117,8.433048433048414,-3.5358374856266486,-4.5112781954887184,41.04773137029934,-6.309599491417658,45.34340384632924,-4.398119510082895,31.535651769181754,-11.35962024877863,129.4213150875565,1.7045454545454597,-16.271610510293343,-3.0588235294117605,7.5675162432348255,-2.087344028520493,44.182330887392865,0.07645909438449786,-1.7503024087873404,,,-1.9064124783362273,6.566805331238276,14.939692982456144,-56.86101559969251,-1.5492957746478822,7.909665484815793,-5.42018348623854,250.3922740788071,4.715151515151472,48.29518916394191,4.4270427867075695,6.740431217336898,0.6318589956767552,-31.79027117413768,1.9682539682539624,-33.49314346940193,-0.7287717712147113,15.709139138685416,7.53469070159513,429.333194977691,-1.6320474777448104,-40.010976577304255,-4.653979238754306,-0.6615192202342248,-3.9829302987197703,11.309721231742481,-0.8885850991113979,-4.973547416095496,1.8581081081081217,-32.587710703283214,-1.982473722537181,-35.99433317963436,43.07017543859647,-53.73790014122631,-0.9036144578313378,-49.67847876633979,9.43994749507768,-24.00584034056929,1.9083323937309864,-2.5937530669159066,0.15974440894568637,6.054599850411341,-24.999999999999993,60.99585062240666,inf,-49.0996723421684,-0.5870841487279889,-46.13486356250068,-9.09138191085452,55.13019842348468,7.203485986898897,33.466844681797916,9.987145811211084,-43.781242959869004,-5.4343236374355826,19.107847229183307,1.6128123767860183,-29.270700376264013,-16.666666666666664,-2.802738553701328,-4.8557353976073205,13.652428366756023,1.9999999999999927,3.3222591362126166,11.519607843137242,-32.68398268398268,-100.0,14.285714285714285,-8.888142662731315,88.9319376275898,inf,-25.0,-1.0327795240233524,-2.4943310657596394,1.545088022437671,1.4417845484221963,60ddc4cc0a3f074060092937
-1.9261087393622078,7.435438670151549,-2.372905232394642,3.4638611611865384,-13.592665166941606,4.702300546357313,1.9745359834117244,33.44451160185158,-2.2809036635991813,30.11237009028487,-5.564723798541527,33.75236500586144,-0.9691526343400184,-0.6719559783955846,-7.168734371383338,81.67723478882587,-1.190247515584994,1.783712284340884,-0.29520986113278974,0.10842486867608765,-1.3682597341695826,20.539623083864036,1.94047173918078,-11.310249304111359,,,1.78160119640915,-14.073313305866048,7.18090419025153,-39.43567787555259,2.2104991012104604,1.662081559568845,-5.443496324995432,159.6633276074445,7.833985197535047,-32.08487841959667,0.14400721316646894,47.67431841643241,-3.696084373318626,-5.957332973037637,-2.6251388779259717,-8.577301959525805,1.4396496700438737,30.444523621926063,2.897616382388209,95.88681444113665,2.193674899552654,-11.145474170922832,3.3185910604964795,-18.284367394417377,-3.9017663859455634,13.204247692745586,-4.071667672792833,16.98471433767271,-3.5315480318095593,23.495082809767453,-2.1379446452782145,-5.844310173777234,40.309382789087486,-48.816008402664,-4.386994350191458,-6.346543756562468,11.420820645959578,-23.1913248299274,0.1832010120421701,3.971600262281617,5.985357941959856,-1.9400494793165037,-10.669753369395801,104.08849641214783,inf,-19.840774552958592,-2.927033752965975,-8.909732235266157,2.1676777488195715,-10.618437284379082,4.769018246501057,1.2510199485614513,5.884934024974208,-44.579120573567636,-3.096697369493887,22.100010133648055,3.2856453575096,-27.158004687764674,9.561285798909562,-2.3898571475593386,-2.477160177265949,2.2089679504691087,-2.7692307692307785,-6.39487225533739,5.702385849444644,-8.147141320218232,-61.538461538461576,10.32967032967033,-5.591532927914484,55.1893958035642,inf,-1.2820512820512775,0.11859118280313707,-1.1337868480725635,2.0971666002092313,1.7096342177952542,5f1c55c8ea92af4d99d03137
-1.1999824259084177,12.559044758219805,-3.8906011817234005,11.107030994888147,-9.819120864600974,-1.9224576895167291,-0.5854022520689269,47.88609483655482,-3.678279532025254,45.90036604094952,-6.716290115739867,38.43647723677736,-2.952303656049784,16.130892902255,-9.240393623839207,96.80359704604454,-0.7466585634566849,-2.6978251774845927,-0.6050420168067139,-6.2468498017783745,-2.081341598463381,33.57136767197221,1.8781642930183213,-13.400055424728482,,,2.703652219026299,-15.133488658583152,7.733809300808171,-30.32297572631586,-0.3722334004024093,1.6662445770662306,-4.6192975721186125,125.27495155900145,4.561677826698511,-23.906596243059923,-1.6086211621312592,57.60871373865363,-3.0196900789698633,-4.396858322639905,-1.3413783715379526,-8.17787200728766,2.765932413775675,20.85078634194715,1.750871940041586,307.3954253694843,1.6271175216711076,-8.133568308860019,0.8870033192003867,-17.6456929635323,-0.18556951718686934,3.5158791908882443,-1.8516752155081564,7.397796199692657,-1.5614814283760108,13.412581844406771,1.836693682008666,-23.676195413744825,64.12281878559568,-75.48638927884915,-1.4242389341122559,-24.142360548123285,14.80799861479162,-40.35338500175079,0.7349606576878785,-8.515444997955516,11.835041533546315,4.925739929479633,-30.35714285714285,112.1221102548904,inf,-18.279782017686834,-3.5240833082635863,-0.4977427919336824,0.22968600581185417,-4.936253381483083,5.539774345730478,16.697297299884237,5.791626285629056,-41.887348045521925,-2.979252202760216,10.463934352297155,1.0074754379308115,16.26864611529724,9.849921286830043,4.049758542698201,-0.47026668743472544,-3.8472190070619456,-4.380952380952384,2.316884516220045,8.167736791686364,-16.251292226896993,-32.01058201058201,2.85714285714286,-3.703681268256339,56.32579870787369,inf,-1.1904761904761973,0.017106079072853376,-0.5264010366051214,1.7207393813208967,0.9734960360640454,5b222aff59f9620001c109cb
-1.1614376827162776,1.9951931334529869,2.5148931143035713,-3.620566526468033,-9.851281855939096,-5.546659215030153,-0.7415300957586133,45.0638814360547,-2.5039502943088223,32.9476948973657,-5.849878120210772,34.91590873836728,-1.4858920969592713,6.338934706317822,-7.945073995490135,87.90299927407347,-0.7074972760155027,-13.205441778153054,1.3307833478218793,-6.7651850229878585,-5.533876379688165,49.72329429869443,2.2754260819438947,-18.14148501576285,,,4.301996124074474,-25.908563909738152,9.665809184504678,-47.69082487607375,2.477556340283132,2.507579261086268,-5.43692148217307,149.23103528622158,5.459501231424542,4.866556863901781,-2.1090583727087853,56.16166682366311,-1.1445309412302738,-15.690781609394291,0.07592926195839436,-18.30551574372658,4.2899968965311,10.609346599600954,2.118844051586328,139.09850230016298,-0.1434016901848627,3.798297618200424,-0.3206114395473484,-3.5633835329950547,-0.7454927352752394,5.569853103667385,-1.9597384322379199,8.797334250198402,-1.6299614940067133,12.274921592526738,1.6030623901909273,-7.072229321806612,54.472090643324,-60.811156388529284,-1.0530641724051089,-13.666699778587333,16.504951623186003,-39.25439726043465,-0.42472815540030756,10.469422655601807,9.584490865896605,-1.7828471702817312,-17.34803337306317,53.4275907996517,inf,-13.159240730989023,-2.860701498715949,13.11805415742462,1.2742762735438555,-11.65857872006284,4.288743718436418,8.475777650133299,6.26560043552452,-46.57399570945239,-2.258020566873725,12.671200928256104,2.942226569820533,-27.044891657432906,5.5938302163549745,-0.4961845671088436,-0.24787726492589585,-8.114714812953052,-3.2444444444444445,-5.611158001855687,19.374133491780547,-21.102661957925108,-34.074074074074076,3.809523809523796,-4.423400746224557,58.48810172573536,inf,-4.444444444444439,0.06585840443047387,-0.4535147392290253,1.6028514428334653,1.2259702575263065,60f06a479c4f3ec0a536d40a
-1.4758808999448618,0.5602814760275538,1.9999104177589928,-11.05043985202122,-2.089371409806152,-18.223994380161535,2.65199754872118,39.8723968314808,1.019242418909082,17.06690202319169,-5.603206409719194,33.808582638855185,-2.0065243197206426,5.494182549559904,-6.50408274230358,82.14353784667186,0.2312832298312855,-15.423782394301972,-0.23529411764706115,-2.386636463518834,-3.356988702447159,66.7877511627481,4.932052489588843,-20.837798862395225,,,5.101913486055751,-28.0485637816936,11.871196625676838,-53.552608469965634,-0.37558685446010254,-1.4954267509377726,-7.092618967341519,252.7241884040142,9.791270149413807,-2.1516015634603254,0.4114525898747399,47.90865620736503,-9.680220553634873,14.330150683669343,-9.545139936396252,11.81154411758408,0.2911603232373198,32.865757423408894,4.424469955078402,126.64058662792739,5.366613294537703,-6.719965753873404,5.197659709044935,-19.247711384676954,-6.918203277263957,19.309146563611506,-3.3665445756079686,9.714234962971183,-2.966455757479997,15.197181566838658,-0.5318014192359355,13.664915263184222,60.23632112261228,-69.74976053639848,-6.186362863885597,12.364108600541803,9.326065735184914,-30.897698264707397,13.070079452171163,-34.18264651260802,7.0371697966180795,-8.913612565445032,-29.16666666666668,142.80774550484094,inf,-10.632880609677608,-1.050332602985832,-6.816149802770366,0.8161535293101435,10.155748844794791,2.8365832764077106,39.02928067164028,3.7080142419510276,-29.9227133147017,12.35624369840376,0.38145156109161527,0.44989942078508555,-21.21708244478366,8.996018649483998,-11.962691468141301,0.12911821585857866,-7.986730115777039,-8.94444444444445,6.9617790548023,9.713982508100141,-13.8281857031857,-38.88888888888891,11.9047619047619,0.7700394468055326,46.056111771874306,inf,-11.111111111111105,0.26443147233446834,7.350718065003763,0.8480872127480755,0.217627856365615,63ced242b56ce9d796f4398b
-0.8456692984394211,-6.7481805048007,-11.35368854121183,22.51457641986141,-20.366716311466952,10.36184375558135,-5.041152263374483,55.98728759422511,-2.325492567196702,43.00968311629125,-4.235991241529208,19.599388082308508,-3.0410628887850177,-4.060069255669234,-8.667878021458714,91.31684946088768,2.699099328302067,-14.766948677605901,-2.823529411764699,-14.16508542235925,-4.195484254307789,40.425749097919045,-0.2678598488563798,0.6704058015268634,,,0.32559768952970464,-8.999455768196697,8.84679905505726,-52.918416986592,-2.20657276995305,5.308822773752643,-8.330968361383713,324.06688250072386,4.938973063973062,-18.08181125396406,-6.829557037918987,68.20061018976637,-2.403416075769229,-17.810140610667393,-0.9432525255428474,-20.42323691966155,1.8070374320655749,9.727247837196822,1.1422243947208304,300.92380062951884,1.4867162961806297,-0.433466695653363,1.1857858854260097,6.694953504156864,-6.923957254479958,15.318937306934696,-4.059956028006893,8.20428816879248,-3.534916315473012,10.708169212365968,0.2962421119859247,20.55469795891992,37.202416282002574,-48.96237887881998,-3.914788529253657,1.660266733546285,3.2916216466237285,-3.3372073477270185,-4.616264710755344,23.36576926685667,9.4540409985172,3.1762652705061027,-41.66666666666668,177.17842323651453,inf,4.1023662551440365,-0.014858302529550357,-16.092923937664334,-1.2275903805026016,0.05182567726735561,6.143542626283118,17.770495340588816,5.025450046942546,-54.80183447632928,-5.622494738570297,46.523800743969,-1.605824944599246,43.39892283623617,17.768892273842763,-3.2050145264215226,-1.8004355290098601,-1.8134263103739723,5.666666666666665,11.450719822812815,5.7932263814616665,-22.901221585432108,-39.5061728395062,8.571428571428566,-8.526243618385307,61.976902324728385,inf,-4.1666666666666625,-0.613680586738511,-1.2093726379440717,1.4457549729129757,0.9430540442509902,6116920ff5bcc6aa24f00927
-2.4950331332702897,6.26008908630671,-5.364982098749547,3.2753940158182617,-9.020033376395128,-4.06432246164222,8.070531720103462,-8.077807589114625,-1.8809543268108064,21.48010507568003,-2.14295542102365,17.380207846193272,1.0818561001042721,16.413125535065873,-5.47510276114734,102.77826769277685,2.485686356654094,-17.74965909742635,1.0588235294117752,-2.887158688604628,-4.3465909090908985,12.204681726119011,6.6439396056296145,-43.9408091604879,,,5.035377656330983,-35.03133783586404,8.220707175309677,-32.50435493040569,15.136791034040819,4.484353322028687,-5.530079633204656,153.06639880094016,6.070855614973242,-44.20954300744865,3.7786323372889528,9.071147840688187,-3.961673586713522,-4.169298382627454,-4.2592592592592595,-5.0051388649789015,6.247121426450872,-12.648152204339732,-3.281027104136929,502.95216353637136,-1.9197365564159938,24.884587214568082,-0.8845155709342382,-33.453233692000836,0.7266820615717055,4.119580953270955,-4.409697474419739,13.4989288420662,-3.923895577039591,14.473761479389946,2.498305507095018,-9.405586847083729,75.70822510822511,-81.5272424581225,-0.4137415402065652,-23.587086670431358,18.3227126900295,-46.09766151825404,-0.8006049848753666,5.046823572587036,1.7571884984025503,-2.346671652954401,-12.500000000000005,137.7593360995851,inf,4.121046896027152,-1.0980647966949446,-6.975554649279997,-6.90427895296049,19.511008426202807,2.3405349794238606,58.744993324432556,7.128931482394958,-42.09841063016657,-2.3285149499787168,1.3372649468708278,2.383350862012355,26.852085649009833,11.111111111111109,-1.6688061617458516,0.7955346481953014,-23.05695976514902,1.9999999999999927,-11.96462242973871,14.665032679738538,-22.45955798587378,-50.00000000000002,5.71428571428572,-6.399339307332504,53.0668672565905,inf,-6.25,-0.3816793893129683,-0.5668934240362817,2.426564495529984,1.183351468988027,5d9b4e21b56c51035c35cb3d
-1.5835843373493887,10.440852714281446,-6.726936417140972,7.699250794914311,-11.579161579161589,-6.323486029752626,0.7122507122507086,1.0564392487542913,-0.5342127746291749,17.083970206014843,-2.762891054824308,28.558958432169952,2.980293901826752,-1.8730627704532914,-4.955293316057541,90.40943740040628,3.4592822636300964,-17.49804510395202,0.23529411764707842,-0.25500861332281977,-0.8967853670393701,15.288794443592735,2.7525588001838184,-12.231866798665624,,,2.7238159290203887,-22.188491421218362,5.5126794947483875,-24.568325247928602,0.7042253521126709,0.40504085093263376,-6.292686122692087,162.38139103938957,3.037710437710416,-25.322033481649093,-0.29155409015279016,15.94413889787562,-6.989247311827953,16.10261802420708,-8.232415902140696,15.750043037994214,5.174917111350844,26.369068460662394,5.343016469977954,221.9887931929029,0.741839762611283,34.96701124806948,-0.8088235294117575,-5.2546848997902735,-17.149527583299367,44.03996791935002,-5.3940816724271565,21.596750813789768,-0.2934438546144197,2.9737365282594417,-1.4302838484933884,-3.771479998365209,60.12117684194127,-69.33384576909498,-3.9117685733070187,3.9650619772339954,9.268614243943203,-33.754025495783935,3.8763098791946,-7.255204678146352,1.9968051118210723,-1.561331338818263,-12.500000000000005,35.477178423236545,inf,-15.547839506172838,-0.758317025440317,-29.83431001738564,6.767053252736533,-49.35625622904774,8.276726793581425,20.654780265471377,6.540827222949702,-57.69254187546048,-1.9082122353608024,46.76310196885546,-0.0036271638299393938,-7.687351785858514,9.199669966996709,-14.87793805536685,1.7383622561276655,-13.698244183746274,4.1666666666666705,-0.9966777408637865,-1.960784313725511,-16.666666666666664,-33.333333333333336,7.142857142857142,-6.545096852300254,69.35137326441671,inf,0.0,0.2993563837748842,-2.040816326530614,3.3506122755616747,1.2921653971708345,5fdb9ccbe6b281016f79a732
-1.5230646871686195,2.6014870599347253,6.699903094943406,-19.174593116537974,-20.689187355854035,17.75186758540459,-3.852089268755928,67.07790341126871,-4.645038130621284,38.35400317821729,-5.660648507220044,49.79747470363197,0.012805736970162174,1.3358831405800564,-7.472700262386163,101.80558508467878,2.7016884199435043,-28.850747966987882,2.4259634888438306,-2.5323556711318878,-1.5123598454679923,47.113246819276974,-2.6973406040112318,15.712212134760684,,,4.280811306316245,-24.710532681633502,10.057111859226206,-47.16499559628397,0.4225352112676057,1.5611993217203581,-3.953706917927116,148.30521305487486,3.617252845194004,-26.27830084318698,-3.8207959986363513,74.01056831661822,0.9644163618224255,-27.508186590976475,-0.4871794871794885,-23.151948529128376,4.627519751901363,-19.28715643698455,9.713396446634698,200.22932447857264,-0.7759796284515996,37.34493349819213,-1.1180795847750808,-8.955058037975384,-4.60321132447898,19.879746768402637,-0.06105006105005318,11.908625738779795,2.183529279616592,4.527817978952264,-2.2558318379902698,32.216970964538895,65.80476535042379,-78.74311031344398,-3.662277420320207,26.32750265060005,21.235251885936826,-41.42501377992002,-1.5906972608703507,20.168259190425083,16.67906897553256,-13.00673148840692,-12.500000000000005,70.95435684647306,inf,-22.9573039172664,2.5538600562732237,-49.16323300059255,-8.396141295867881,25.42756183745587,5.684879966475542,25.026291247494903,9.613388450822217,-59.935235868490864,-4.3492347504865005,26.792922259433595,4.363928212526667,-5.1776140137147655,13.888888888888895,17.37804878048779,1.9733755571193903,-15.700010019533849,-9.000000000000005,-4.997036904013679,6.372549019607848,-7.142857142857147,33.33333333333333,-4.285714285714283,-3.479678715268382,23.336837075967452,inf,-11.363636363636365,-0.291872474180513,0.7936507936507943,2.601858112338138,0.9521218715995564,60febbf6684ed23d1eec2db6
-1.1394204905235783,-0.8062576135604886,-1.358304649173656,-1.1461778419093194,-10.348797841185007,-5.048317270772711,-2.3490846909335468,50.682466675184216,-4.281179982951489,42.111533006365484,-4.258462364299477,34.38080129618819,-5.349345685385142,9.681386793732564,-8.410237590439458,96.87954122122427,0.4472482865436329,-11.965130705376192,-0.08274574197494851,0.09591889330914098,-3.309470098419119,43.774405188389814,2.882460770730804,-19.208237950465975,,,4.352145037813967,-27.680512499163495,10.913567635997692,-49.027289740808854,2.7447226071060693,4.117294417895632,-6.102694332636782,177.4781408246136,6.493369912743281,-37.578220812813676,-3.4847619314731673,55.356898784448205,-1.1999535079784058,-15.17031911882657,-0.15283958662432914,-17.33848475998218,5.244430369512004,15.709317493248259,3.747613726135183,132.28658065557545,1.6199089922344811,12.767611372779317,0.9670966346690645,-11.994170361871696,-7.083225839549224,18.928261255833203,-1.1789028105080241,2.5199251149674193,-0.4881369427645904,-0.7232618654452218,0.9494827039332869,9.19977142498365,47.13512271787299,-57.06193553062303,-3.3247345506916286,6.111939749887331,13.038171313021332,-30.159711553371615,0.024843223978039165,1.2772640175610293,14.545366962077075,-0.08061165129228559,-24.70545586369402,130.82720033695912,inf,-17.812646275817677,-1.818312899191537,-22.27121256936728,-2.474448306576509,11.208098013751762,4.6387600429390226,0.4431137117606599,5.984390093896441,-46.82427088766711,-4.581151277318163,36.184178416491235,1.719116331982011,-20.666521471400692,1.6318298496516375,1.3645224171539931,0.900765600796242,-13.383363745970867,-9.444444444444448,6.367683297915816,14.58846101002964,-26.61281213912792,-27.160493827160504,6.666666666666655,-4.552009796429197,46.33315814276963,inf,-5.925925925925924,-1.0843353456734766,-0.49130763416477324,2.1313477853182548,1.2997219199613204,654ce65838678c566569c723
-1.2446898844207803,4.471086986539269,-1.147264775278627,-3.891736492230882,-7.033989072457783,-4.238604199550584,-5.282526115859455,69.39919509390575,-4.129838573204232,52.90178196717735,-4.158926164686337,34.29062204676946,-1.8813047092760697,-1.175152491980851,-6.575654932926492,87.62420888794395,1.4079285517519788,-7.440221909919815,-0.5411764705882233,0.35457048682230285,-2.99001479200196,31.200969728884015,3.86352593655098,-16.996359176275824,,,3.3378340625616696,-17.655402299862715,7.378385215610119,-37.20171361145045,-0.22535211267604907,1.0024664714043328,-5.182584410611215,173.56286650338544,7.68683766886902,-18.760048182108815,-6.658652745340482,77.25297044780574,-2.6732826325747663,-7.172081084602159,-1.3558071288204432,-10.446212784982183,2.8700568645653464,46.61367824359713,4.762468032109314,263.82102313998195,2.3998891071405444,23.055171798103938,0.875283306903875,-4.629187468345341,-8.891922219331963,22.259483958585722,-4.940559313444203,17.125943545508296,-3.2593549716169448,18.20940062705011,0.17647008768384576,6.460279340800043,44.29884078765332,-52.4183596661567,-4.012263721681503,3.5155752631503336,15.073672584998821,-33.89307016618,1.5452555803584611,-2.482221031408653,5.5670926517571875,-4.247569184741991,-7.500000000000007,78.83817427385893,inf,-20.965968931016327,-4.423415028111717,1.9754886861813716,-1.1028111881935898,2.377312675545904,3.6994470862894766,14.202236836917468,4.543312694191076,-47.85040317752193,-3.7534141180712064,35.29770944531831,1.2032191270501214,-1.9487923484988252,7.346220336319339,4.507648694907998,-1.2045637496906998,-2.12891929667597,-4.966666666666679,3.0523121127772104,8.07911043205159,-19.409264934150524,-86.66666666666669,12.857142857142861,-2.4762241262421254,65.41939947642005,inf,-4.852941176470582,-0.13171680886094775,-0.9637188208616851,1.1148674028999102,1.2214363438520053,64f9f86e6bf2358fd13945f1
-2.5265775550004848,7.753126943013869,3.086973856983726,-6.239361348641284,-3.8306378478925893,-11.126572793048464,-2.2049921703932265,56.722722626804654,-2.665147232334311,38.92157754287488,-5.739792533682288,36.91001424780071,-2.667167860539704,23.88831551953447,-6.926350966856573,93.7753760310138,-0.011888406738454968,-10.0533427355979,1.9695740365111625,-2.6905482821546833,-1.0754667144741274,13.543559048768769,4.566458030026982,-22.55025960035553,,,5.269272464196174,-29.155835524288033,8.602450077186791,-32.787281218140336,0.9624413145539924,-1.2363187914290148,-5.503967288749454,206.59308039139762,6.868021936821471,1.2262674434801615,-3.7964380263354,74.17558187713395,3.3071778632155304,-25.027209016827477,5.307566289028384,-26.95869953989894,3.6602384574201348,3.7393461810281527,2.8379476729400057,123.31673065615203,4.437466119799671,-34.16033366594652,3.92742749376791,-44.48889026705394,-2.071723772583578,9.197101553141472,-1.8104481049063998,5.512688134567975,-2.0763328431231445,11.88387696559828,-2.5667304028061126,-15.925219852706896,70.05380865092994,-76.39377725635191,-5.060188702016839,-22.72779344416766,17.545306389605823,-44.29476617137141,-0.06257843372994566,5.898682020530936,2.10330138445154,-4.248005484916499,-2.841969459469679,91.88950361149536,inf,-21.845021075907407,-3.2324153493925936,-22.48443270874888,3.1757948620085776,-14.889779831475908,4.988061595249806,0.7746501436602168,5.322052123160901,-40.69806302951088,-1.9809599761080285,15.405043289799686,3.0392928974692106,-32.52616431225697,15.969766619519099,-0.9373975346159018,0.5032037391717158,-8.86154260285795,-1.472222222222217,-13.262039448085975,16.898767082590595,-18.801011313883173,-24.074074074074097,1.1904761904761862,-3.645363778576823,71.34181705723202,inf,-2.083333333333337,0.33303397694956327,-0.9259259259259247,2.878780290319647,0.9725244831338336,6507355f07adea6bb9abb279
-2.791268636728866,12.405786805567526,-0.5139341600789299,-6.6032978877067325,-1.0596261965589138,-4.780109257548736,-12.476714880561033,147.13491759294752,-0.5207679278176776,49.731290893005976,-1.0840502208788494,7.099192251275939,-5.047575599582908,30.189920166749285,-2.2395447629161973,40.28093202503206,0.16615737203971376,-1.4000084253465688,-1.0588235294117578,1.5341209663198878,-6.3882575757575815,88.60098538501802,7.708482274275615,-31.551401635112324,,,0.7654966070858708,-4.479721989370459,6.423580136782634,-30.162618760480846,-0.4929577464788681,0.8601819022660502,-6.7447272727272995,208.6903859216617,4.884014794729064,-20.835074608520486,-13.465051279311485,148.67994848524378,-5.23581390397103,5.0111994460594325,-4.881599956699417,0.7461712722229299,-0.08580593424217182,33.03679227990102,-5.160439626224248,289.03787485732124,2.3317828213970775,15.382203894564755,-0.4254974048442843,-16.700776251460052,-13.320959591312858,36.96647720823222,-3.5473173553244983,16.71831671768195,-1.5717562242733556,10.434307700870066,1.5118112304059899,22.868582264549246,41.519104084321455,-53.000967253148175,-1.7023969393036564,7.379838724627952,8.207904001753466,-16.395876578826993,4.627623960673878,-9.610616396337091,0.0,-0.2860882572924549,0.0,0.8298755186721913,inf,-43.107849160376816,-7.806355418879872,-7.40350459074493,-3.0130285233697403,11.837274621726964,6.144920550255434,-6.030262572318645,3.785907015123176,-40.491789304480726,-4.216674684988042,36.54425715773163,3.0498319268372582,-18.74637192606151,0.0,6.758130081300797,-0.800895702973355,10.81163362075978,0.9999999999999963,7.491424979797036,-17.320261437908506,4.362304362304373,-100.0,14.285714285714285,-2.5874444150416096,70.34970826275165,inf,0.0,-1.1824577159107945,-2.1541950113378703,1.1919965942954538,1.7954298150163175,5eceef5fa487421604c337ba
-1.590718603671783,9.589246070675387,-1.1960802225516107,3.038425739556656,-9.77613503544852,-1.084128370785242,6.014957264957255,-11.994538137217294,-5.219644292478742,39.63211341173129,-5.0646795568553875,26.607350567873123,-1.9406165956748198,12.130981498925658,-8.627755092457576,94.1373012958453,1.8596217085648803,-15.36789328439528,-0.5882352941176356,0.7824898606947824,-5.008279647531461,53.10473184223464,2.6672372943909646,-15.927408793719131,,,2.178250890933694,-10.814657708569063,6.856393494075458,-36.46513323680293,-0.3345070422535276,1.469862802528139,-5.368471200380836,131.89990129891277,11.509722669416051,-26.915914845497742,4.370659125948307,6.179807791246029,-0.08567980092033774,-16.215894275540155,2.6089788245767473,-20.832579436266588,4.656745879567095,57.126590218490215,2.5057504366975047,197.05868008716462,2.199546542091061,30.673260539685877,1.739567958269264,11.472836367019063,0.07282990042129875,1.529180590455518,-3.621330190562749,10.397536920949351,-4.311938603173542,23.696614601462937,0.5151824294873433,9.915261112144476,42.36511693577716,-54.2626411037229,-1.8994513020630872,-6.41912076374288,14.031369948655382,-34.42370175562049,3.793005483260182,-12.00122770077955,10.473242811501592,2.435489902767384,-31.25,138.22614107883822,inf,-29.57017079530163,-1.8676447964714813,23.540116533851357,1.5507773978359667,-10.413857932409154,5.429608486256574,-10.322590578855838,3.276401084857871,-34.88629744414067,-1.7394946295749507,17.685637141592,1.155613051679268,5.6082719941181365,6.8452380952380905,1.3506567249795118,-2.2443350329578258,7.424763577538772,-4.666666666666669,4.303268384663727,22.6659982174688,-20.57386263621961,-83.33333333333334,10.000000000000002,-4.023153020294981,58.864288270916866,inf,-4.374999999999996,-0.39477623110313875,-0.6660997732426263,3.0882978989808407,1.32276931447225,5f600669b846780f0fe45709
-6.524390243902451,23.646044874030895,5.998540754638318,-17.610738513162065,-24.97625830959166,24.67102201182859,-0.2849002849002755,5.088156381755436,-1.2599065230644237,17.098175791442237,-1.685556043082678,38.49253370835925,-2.804456396465617,-1.4027312617836023,-5.931663837011877,86.07246822666339,4.413383226942555,-39.67799360945943,3.2048681541582336,-4.439397668105111,-5.797872340425521,133.12734988905163,-2.2099678322262615,16.59499243259866,,,4.356569251326274,-28.982586432771402,9.913175796634437,-41.468876720669066,-0.2816901408450652,1.9315554185293669,-3.661467889908275,107.47421079244344,3.9215686274509687,-46.0901202094448,-0.010685228434910968,23.7679283942629,5.154639175257737,-36.81090215754411,4.358974358974348,-32.57467413172452,0.9584287085579426,-15.46996172632758,8.935287251977728,475.8509909722952,2.4793065750429553,75.20248163703896,-0.29411764705881976,-8.656599171033767,-13.54215183977642,39.03979363331614,-1.5037593984962359,11.688123734049704,1.413636363636371,-3.756842430408146,-3.306844398872107,-20.959962229486155,61.85238784370474,-71.72261778666983,-6.097560975609775,-30.585792194714585,20.85960716097705,-36.31007751937984,-4.440738038152809,27.90800785315349,26.59744408945688,-19.644727000747956,0.0,-4.979253112033219,inf,2.488425925925917,3.150772950119847,-62.41340192348397,-13.608580325221991,46.79623085983514,5.190401669274925,50.84759477282843,8.739278495074034,-46.674419690244385,-4.966553073330809,27.740122454587883,5.76970015583634,-15.154567880666825,11.111111111111109,16.142490372272135,0.21111893033074297,-14.391904216682342,-20.00000000000001,15.299991020921219,0.0,0.0,33.33333333333333,0.0,-3.1734583483591825,29.71845545758586,inf,0.0,-0.41909893728484127,-0.4535147392290253,2.774647534620472,1.30576713819369,605b98c83da1ded576bcf096
-2.9397262707047545,15.110898966128786,0.3582142141839187,2.9637648926157683,-17.269887408776302,11.051620127658824,-3.881766381766385,43.62183786891528,-1.35181050693118,30.980973675670693,-3.9929757300752695,36.65727746148378,-4.414971010460967,17.661248202873722,-6.982376368168183,101.91723201515322,-0.6064771279930677,-15.407716446574424,0.9006085192697797,-0.8747996845333986,-0.6359999564877779,30.616636444276978,0.4333607162606828,9.177484206673359,,,0.6951531250540024,-7.439359693959088,8.781157006192842,-44.43691627995925,-0.03521126760563121,1.0168413750578134,-3.9519824515925577,117.8523174184171,7.24076852694656,-12.990425035030464,-5.780943423476737,61.53201633069722,0.45003746733920924,-20.177928078882047,2.3791960160317416,-22.968643437877976,1.4444177804031753,-7.159352920658149,9.207625470107676,341.0389125246453,-0.6132557909211714,25.55638113546032,-2.150059472318337,-0.2515581878508116,-8.988687960053788,30.759726156074198,-4.284892090722598,19.761453232016986,-2.8747852107504706,15.573392417456915,-1.1345488500195586,-44.98000201720418,48.38982422273199,-58.969771193754674,-4.3181006273244265,-48.20449054815817,17.890191218123263,-42.87325698671264,1.189766081373183,-2.0470820805453793,13.757987220447282,0.4908376963350646,-18.75,75.51867219917015,inf,-10.143907977883092,-3.9200001345469824,2.3178554507602436,-1.5982600957245425,0.5076560659599785,4.003233860142469,5.8343763504785136,8.369247446546522,-41.506481487119245,-2.6122619279660433,15.949364117351383,4.031325782815257,-22.563604637340138,12.698412698412692,7.714216944801025,-0.5139998258655287,-1.7493067942611322,-13.750000000000007,13.838556164137545,5.913918597742124,-11.701839826839826,-33.333333333333336,7.142857142857142,-3.5192844450814436,64.26649379862148,inf,-5.000000000000004,-0.0972908247268432,-1.077097505668929,2.5016903313049803,1.5982045701849796,60a2541c0e5a829853aad745
-1.3251145471258112,4.129713978166642,0.2988906245942113,-8.496189905779822,-5.7712228550839795,-6.856582600619488,1.2979034261085456,36.8129551552319,-2.8834634094770726,35.61465302791973,-4.732627128099281,33.54020192955322,-2.098056569570288,8.592225391246416,-8.841305344331179,104.82446681141302,0.41355568874106485,-12.654998022700434,-0.14117647058823668,-0.38820992092020695,-2.95267755150785,31.021364126909308,3.9943410195264777,-22.09913529413379,,,1.597690346448133,-11.657810217711209,8.898035655450723,-43.19089491055325,6.033646241434201,0.937721597040216,-5.165810008710209,178.1526521957184,8.306894134118336,-17.403820152904593,-0.44422682587265366,47.50970784769303,-3.444144137916099,-10.251866446698866,-2.304586596452627,-12.993717737563282,-0.5662137778029582,39.75168117558837,3.8764754432376196,70.0530455535957,1.1203611171842047,-43.5575719645977,2.2701529107719702,-35.13959089170731,-0.2631715825975787,6.2197855064785745,-1.189532943344036,5.964400407603535,-1.8787382564135886,11.344154414242338,0.6496815582660129,-8.112639865826484,47.28469766606879,-56.19748146404615,-2.7408313907113206,-12.655148734810062,12.905322299789642,-26.619880613118525,2.63007894241903,-8.935949149813824,4.161341853035144,-0.7516828721017335,-16.343861740166858,94.06639004149378,inf,-24.678732593177696,-2.3937864339038555,-6.059051169583128,2.5686847186290467,-19.53440246443777,5.038970417821761,-2.0465684284959464,5.011671784491294,-41.32566555242324,-1.8349560122552628,18.341991430924708,1.2992073290002992,-6.8024705176963005,13.780514956257523,5.227680762331729,0.39099654535326384,-2.6914792543537214,-4.914689265536735,-6.2467450839544,18.032283620518896,-21.51265401265401,-43.33333333333334,7.142857142857142,-4.265006471004005,52.88751666096792,inf,-2.0000000000000018,1.1001347103726937,-0.680272108843538,1.170961360278492,1.9804134929270938,61684bae4ac887b438246ff6
-2.131530843858816,8.290189652403056,-0.44812866602837004,2.877429608345047,-9.052444861178008,-1.7480915077237738,-3.6082418058211925,63.27547500410666,-1.8185776091687786,31.41471780085901,-4.978559623785207,28.429703131225224,-1.7732796143184362,1.414358003011043,-8.220884531226622,95.95847234465141,1.1168522137367212,-10.639572753990786,0.15126050420168707,-0.63335535915326,-2.7159162593756063,29.563197380169832,3.9852929032838253,-20.123537929947496,,,2.1197133527003325,-10.521258809264083,8.398917585612194,-32.90225608905043,0.4728370221327864,-0.5006716730163517,-6.198491099174106,215.5758402919666,5.73602813288625,-6.25261191278063,-4.986930192366592,72.8887505899301,-0.9988944336180422,-12.255630835230535,0.11247042116536975,-14.921509343374186,4.011403613071696,16.109722339189286,3.2769655451538497,71.36604456039983,2.843024568120214,-25.24542463478526,2.882628383421687,-16.888083646742917,-4.82175545459564,14.689017963341684,-4.3952978344027995,17.783980765655855,-4.236722981394847,28.11759416569523,-0.7617037722024638,12.684712317419491,52.54048056685776,-60.492590697276924,-3.5060940165628813,1.1502558164613441,13.640219723804181,-35.86440391165442,3.5645930061197326,-4.9609739249462566,6.483911455956169,1.2942087829895963,-19.76168579784399,93.48174493402713,inf,-19.34451977649055,-2.9310773713180938,3.4547542923744614,2.608435993265176,-19.54844095833495,4.958950444259493,1.7713289689513005,5.470076159608831,-38.51172391117716,-1.9947263608893255,13.004507833581444,0.2671829621474584,12.64710059226353,12.377975042402198,-4.404607361577541,-1.3344206565734127,2.0689638801626664,7.779862792574649,-7.277532760432928,11.101258685292297,-20.08717316518068,-30.15873015873018,4.285714285714283,-1.2648822000888678,50.99344405382483,inf,-9.166666666666679,0.6468236149421625,-0.5587949465500446,2.0376988598760417,1.406808642934864,5c8bafb53b6f3d00013d7c30
-2.081032637968814,16.42713077063556,-0.6412572073462782,-0.9640483343401902,-12.632821826124744,1.8948699887635214,3.8509021842355273,19.87032068480899,-0.6211975664500826,28.416888597279705,-4.387354763835359,37.17927987700676,-0.4716641791154759,5.17238743129403,-7.896742058134902,108.37174132702805,3.2058403064322514,-21.571165330310237,0.5882352941176529,-11.204553983605287,-5.099933846443151,47.46160222328677,2.949272555452409,-13.754565245524066,,,2.738771235305468,-14.745415351684398,10.74341711280001,-53.40587864650897,0.44600938967134945,-0.15055752530702485,-3.796952323994203,140.2312803589497,2.4966179492917284,0.63628243893235,2.5710949306223396,25.99571687999333,-1.0118833344232157,-11.594625714827291,0.6945418014600317,-15.129662128192415,2.4539438583837345,13.010445800454448,0.7855987709808184,301.58659333817644,1.0100702287672803,26.292739899850876,2.7413352378427938,-28.4806419492767,0.4540289492433797,6.676648799092845,-0.37315008012220646,6.170077034464845,-0.32012024723063487,7.096539420759646,-1.7355537494225453,16.10845699068687,57.14151120158966,-63.73281869091054,-3.918820519551472,14.386813961605574,15.593476836607307,-35.13513899150536,2.8554553375389564,-16.255744016113542,15.170311234082886,-0.7915731737721291,-22.14666666666667,92.19131533562151,inf,-12.477037744036828,-0.6996986209549899,8.365636131870293,1.2008311105033456,-8.99311407085255,5.605682868132712,8.5533590563652,4.1197309756692055,-32.338192841916126,-3.541284526086605,33.94841424897703,0.5467634302775508,20.04617807206337,6.481481481481477,2.9279256553438797,0.7103632778894381,-4.83327871012962,-2.166666666666659,2.6932447397563606,13.43582887700534,-15.30808372913636,-61.11111111111113,9.523809523809527,-4.106172824367644,49.52667162711378,inf,-4.444444444444439,0.20705483211095524,-1.0959939531368155,1.5404969991402842,1.0110627493652433,60513ec07ee46769ed029be4
-2.17391304347825,7.745703946900435,-0.14030946761080793,-15.982890018982406,-16.754478398314017,7.686055779106472,-0.7122507122507086,4.556343426600253,-2.9856900315304387,28.078656949081005,-3.9813603662524373,47.32510171015502,-2.804456396465617,9.34463882789811,-6.409168081494054,101.48324785994384,-0.6388772517804713,1.2826268951873951,-0.7058823529411662,0.37844363360146144,-1.454028925619835,22.1216013804162,1.3677682439894676,0.39213540303421646,,,1.9012001407331134,-24.41991519580826,7.232366630862865,-47.62632550551669,-0.7042253521126709,1.7273007553568631,-7.953571428571436,195.85932688244844,-0.7575757575757639,6.7270581872709565,-2.2576361221779444,31.00399007872323,-8.424678985280293,8.40790557608055,-5.333333333333325,0.6710586832686258,1.0260723296888272,-25.61426851689412,-8.482387797651695,72.79111756770801,-0.7418397626112708,-41.39319101525098,2.518382352941178,-46.55183106452916,-7.621021349808396,18.52577528926032,-3.759398496240597,9.196132701468468,-1.3272727272727112,7.550237020396958,-5.499713853762183,-10.469242378255714,62.55813953488371,-71.47179396649797,-8.7920792079208,-11.85180483158561,8.443529156730985,-11.406830149292235,2.0285730230481844,-2.319092983266196,1.4376996805111775,-1.5818997756170599,-24.999999999999993,77.59336099585066,inf,6.905864197530867,-4.442270058708424,-26.086426572459914,0.6814504182145623,-10.692579505300353,0.7071286971248799,-7.367398956184043,0.3975091700076751,-27.647850362585746,-1.1990407673860928,-2.4623702846782924,2.361337873769638,-17.194243210169073,16.955445544554454,20.731707317073145,1.247248716067499,-15.667810492079044,-9.333333333333337,-7.317949178414311,-16.66666666666668,3.0303030303030276,-100.0,14.285714285714285,-5.2680733310273276,47.8449087144739,inf,0.0,0.08980691513245531,-0.22675736961451265,3.8163924573661174,3.0739934711643087,6511fd9e06231927b6398700
-0.14852114564197044,-0.88109924112807,-4.225816001213869,3.3932960045440037,-10.266616051349901,3.245338371735839,-4.590364526261958,69.58536385040792,-4.634896933073798,50.67849297328018,-4.849867860945196,39.56573898566203,-0.976482292846176,7.84640343407699,-9.00429735655375,109.47887540213289,0.03539585686133561,-8.099816854873392,0.7232686177919541,0.054700067295475385,-2.6965226634877735,43.719014751976644,2.2617434357294153,-12.514176225391587,,,1.8120791050314309,-11.846768123332447,7.1847579314608945,-35.54143591064561,0.060362173038229376,1.8015151181483886,-4.5197037720745525,146.47054422308884,7.2345754877076205,-31.634258462597447,-5.377242660866778,84.76989153332062,-2.591652644161716,-10.221768027820815,-2.3676039018718207,-10.920099091999244,3.814382161952136,-8.410464642214201,5.74839369872534,240.32090603181246,1.9809083491296668,-7.54703621198164,-0.6700213173504717,-19.22503318670645,-4.378188248641037,12.996914675728624,-3.442978284831656,12.288065102055334,-2.642488783689415,14.004470085304124,0.0257968621836285,0.10595760545753666,49.52829022672122,-60.868935884934174,-3.2091729553433326,-7.604132821708657,12.677074013235334,-25.200687571936207,1.5048019850425154,0.7683219600402352,11.85531720675491,-7.570787477294583,-5.5982612511622065,36.27009740426063,inf,-16.787004647391694,-1.1878035685324224,-28.389585516568527,-3.505829423090941,19.684929911078346,5.556699139561298,17.78234068251325,6.698951126566611,-53.52879998909821,-3.766753520403701,14.374548598341402,4.401792323492382,-39.36949389615886,12.392739273927386,-9.639892311910957,-0.038269228851259614,-3.1340134384449962,-2.721953188054884,-5.786682743493396,9.850606909430418,-17.367001528492207,-4.761904761904764,2.0408163265306176,-3.7704563840108465,43.34824548940857,inf,-3.5714285714285587,0.7612205187418423,-0.9556203433754481,1.7482855211050474,2.0169438831027553,6505e1d7baa4d89f7a2f3b53
-2.17391304347825,12.715729573110007,-0.14030946761080793,22.02584582250899,2.4175824175823983,-6.406009043179589,-0.7122507122507086,11.699885013415111,-3.5172677456352797,56.480292459754665,-5.0850228907782675,40.51370222385503,1.459854014598531,-3.4567426549699207,-9.245253897206366,101.64545670278875,-0.8222755505364179,-8.161904388369615,-0.9411764705882273,3.3395276914938417,1.4566115702479212,-13.204674336356081,3.304731968396902,8.500075897785935,,,2.8517409799905478,-10.8191642592912,4.0208388992786555,-22.009655651522323,-0.7042253521126709,4.441190072452604,-3.61013824884793,78.60803078782693,7.999381570810127,-2.6795152289880675,-1.9157088122605286,15.894153616573577,-2.387096774193547,-3.347110091262664,-2.2222222222222197,-4.8082047118252955,-3.630590778194699,57.20511257468299,5.754230210083292,396.4872885752835,4.93624187986207,46.772584869353196,5.981973434535099,-45.39675648857337,-2.0511412659816397,0.7961265830449349,-6.498665187840954,20.717845029424794,-6.673178061607819,34.63653413953292,-7.949353870251942,24.89992849648813,72.96943231441048,-89.42347299046726,-8.247011952191235,33.03336735747832,11.02185555073094,-42.10348426743599,4.913044877797552,-26.42024996979659,25.000000000000018,-13.152580403889322,-24.999999999999993,60.99585062240666,inf,-48.754095722895094,-10.054980896468171,88.57831741328283,0.40567951318459206,1.3262661955241435,5.643066993272379,6.182727326843067,1.6310907272664572,-53.92471448780321,-4.572236250734527,23.901361383084982,1.6926428691134472,-38.631977145918114,-16.666666666666664,3.0808729139922897,1.247248716067499,-4.1617889235338605,-20.666666666666668,2.1819161354044945,12.74509803921567,-16.666666666666664,-100.0,14.285714285714285,-7.255456407998781,76.07522911870733,inf,0.0,-0.942972608890897,-1.4739229024943323,2.296346380186844,1.9586507072905348,60b7bb77c573c1a28d072811
-0.05490138560555899,3.554514199228356,0.8136824569699661,-2.643190475868501,-1.879900942857007,-13.18378448219571,8.34163057129493,49.63779225756992,-0.8321162980926895,9.740964038408531,-3.327356348196558,14.944880313743708,-2.788096337761296,7.146495376479496,-8.307251564968174,76.17138577262016,-1.4962504596072324,-3.8525157228909217,0.6588235294117711,-10.94598851255524,-4.337178417466276,36.92650557287413,4.89491056259959,-15.236307719463971,,,2.3239893172841235,-14.665536726841028,3.8566944859928696,-21.906152062851575,7.125668431392135,-1.1083705873284766,-2.8343427267517938,99.51399897390361,6.7793510574229705,19.506870867032013,7.02889342334325,56.29461146108875,-1.2628653988100913,-13.307784730691875,-1.3394320955597638,-13.056350223926014,7.476032565330862,-1.717964096073447,6.069251718324494,69.5490297810524,3.071403515620547,-7.334322501192769,4.929629998551159,-28.233433594840246,-1.0334284360793307,4.736370212383296,-2.018058883165734,11.80195477048858,-2.033869130828099,21.154208994888315,0.3989166857849314,-3.1099474112729966,56.469736620409996,-67.92839874857795,-1.730120915568711,-10.905808888839829,12.661863614206064,-33.08846591375532,2.8794321198664483,-3.613526316300317,6.14217252396165,-5.202692595362775,0.5184743742550735,34.402950668510826,inf,-21.751963752852372,-3.150405367626502,-5.770288384930875,-1.2157237333430073,10.3330977620731,5.022349279051286,-15.158813050354292,3.287557129422817,-31.80878851903042,-1.3261444939482077,17.550760615619637,-0.28709450266283953,8.918084128219606,8.888888888888891,-13.01240907145916,-0.09963883920173261,-6.4692610331683245,2.130508474576257,-15.183778501972759,8.022875816993444,-12.565504670767824,-80.00000000000001,14.285714285714285,-1.8243686294697425,40.20088041921769,inf,0.0,0.18859452177816613,0.06802721088435883,2.386497383116739,1.4907508161044543,5d4dbe7df20feb00010b596d
1.1322104353928768,-7.363240823810847,-7.214151133143636,16.96656252605962,-14.258580925247607,9.673659990544586,8.309492875137188,-13.625910310463778,-3.705692803437154,22.769825122748998,-12.160224605206981,81.06335176341022,-3.8069468915177493,20.753840854878074,-8.791766579735002,116.03613935169076,3.7935878632888844,-20.099900232265114,-2.7058823529411855,-12.660303508478417,2.7620829611875517,27.7139743460319,2.9796859367523645,-8.163168506496087,,,0.6848300837172475,-6.007201803054195,1.406669458879751,-8.099520079514116,-2.0422535211267503,4.892862648373679,-1.5702695417789876,54.40127031878493,6.616762114258979,-35.181543302441185,7.605542663763239,-7.835291459595006,-4.869870012369231,3.0937822892764086,-4.163522012578626,-0.2012379525733998,10.838543255139028,53.797573105220174,2.476980936324719,-28.43934834492055,-2.1513353115726903,-32.80440892139716,-3.648356401384075,-19.326180656764585,-14.7143210557595,32.638263852678385,-4.481736138592093,11.178274716389396,-0.28349356271433096,-4.23191310577977,2.4981920725360554,3.1471569000887936,59.43135794019674,-72.40441479345652,-1.6184818125548877,3.655070922497039,4.729856280315004,-7.818157829926441,-1.3767468313292044,4.791283326253865,-0.6389776357827455,2.95998504113687,4.886769964243149,164.10788381742742,inf,-1.4539816277573023,-3.3757338551859113,-11.794531831210183,1.6704084631817058,-16.868986137537377,5.055823219528632,-11.164110211672632,5.345936327596139,-49.990663898309556,-2.89813566081952,27.30765804181044,2.0176419647093184,-44.03334227065169,2.7777777777777866,5.434317501069728,-2.190104309886528,5.472918131677957,-15.000000000000002,-0.7362844572147189,12.307422969187645,-23.830172020961506,11.111111111111102,7.142857142857142,2.042323190343675,40.50508911378467,inf,0.0,-0.1721299206705726,0.0,1.8994315478426276,1.2649619151251357,5f913cbf314c3d000982e130
-0.4650033064537714,-2.642192342466564,-1.3346561848548164,-2.4134681206114688,-5.661563529907627,-7.329325682684633,-1.85719373219374,41.55746933691069,-2.7094367394269723,41.62329048345053,-7.708221804242002,48.744241801862685,-3.3906180116475544,9.372818245287403,-8.900834133164883,106.891664743134,-0.7183120543360701,-9.462564148363725,0.6683569979716079,-4.144016458863918,-4.173617369292535,31.20558669505848,4.466222514170877,-18.233816777065183,,,0.6288434303303854,-8.116035832518003,8.572244777987091,-40.77513533133247,3.4899588137846167,2.496627871126852,-6.150362196132031,191.01632394198705,7.190100088022475,-10.087053516556608,-3.047158428864359,55.66456943341116,-3.251160504714168,-15.385261016890487,-1.711377410588308,-18.135870305325643,5.297541109705853,1.2862816403986783,2.629671339323421,285.50404690256363,5.709889704953419,10.750762704803725,8.761977972572534,-15.738020300371097,-0.8544373881605258,5.153764322912621,-4.584518916868938,14.170716888660994,-3.7665722073648316,17.65603868372637,-0.41239489957314396,7.767222423476363,46.194498999685116,-55.20266344003768,-3.883218570082956,10.596814134381654,13.968016559451016,-32.799808547068686,1.7929103884774966,-5.413708409255439,7.068690095846633,-0.19820493642486642,-11.149873140336814,91.09100455919267,inf,-24.14745196667837,-0.4660056888303954,-12.648693909139602,1.503463770388991,-9.953293467427727,8.084785677682051,-24.76871948417871,4.569574968501189,-33.891748915692986,-1.9938286625646426,1.9719200737546954,2.999443277360685,-43.5745852462521,15.495357450802993,-0.38162607251568004,-0.11293147666707903,-1.6900778988417064,1.454802259886997,-4.698707012660512,11.903966131907293,-18.80365058282679,-83.33333333333334,11.428571428571425,-3.1272453555838693,43.29235558592997,inf,-2.083333333333315,-0.11412962131417441,-0.6944444444444497,1.7632659705006315,1.1187431991294785,61183bece4c3e63512e3eb5d
-1.1547800558806454,4.836594344945724,-3.083188678095661,7.541146669501445,-11.786560270065669,0.21515400986174796,-3.081671415004748,57.02855500191647,-3.394564259960363,50.827580778666395,-3.8898042081463156,33.312574615967264,-1.9479702276077773,-6.6566158391598105,-6.907652247476793,76.60689972124506,1.9771723523127196,-8.384770610992453,-2.164705882352928,4.356306715678958,-2.7063002740798634,14.81875093520775,0.6971865887476406,-7.037725932694694,,,2.4687115676070235,-12.87067440523582,5.576231132038365,-19.073931692314925,-1.4084507042253573,5.393093880067841,-4.941540370282071,119.90610436806823,6.9694194487612116,-31.842228176700655,-3.838337581983689,63.110330447626225,-1.7589413714248296,-7.209636880533861,-1.2091276605471764,-9.958827413789113,1.5592289159936772,14.89859003615092,4.11681087824805,250.22998858566004,0.2627615330692912,23.987871443628574,-1.9669534227352965,-18.984051185049758,2.6163264691885644,-1.4442805671598171,-1.8051523909563834,9.109616541320413,-2.4424571700560858,16.571125892050837,1.5850719412092953,5.797257939011033,54.0221739513694,-62.47225736534463,-1.3041963129649838,-10.31021789171182,17.659416845001115,-45.70236545520649,-1.120310926120233,-6.934149452548992,11.212907755234925,-0.13388182498132298,-23.259833134684136,95.95358844321501,inf,-25.772354601837232,-2.041313328984576,-18.496339621624223,-2.4201591675894396,0.27492978164354376,2.430432392875389,2.5327832078233548,5.05886146362506,-47.5972730464715,-1.924500078572913,11.998810636405935,4.076433664508615,-47.32248649496032,0.15873015873015447,-7.199318790481647,-1.1192060573228297,-0.01130408942564505,-9.866666666666676,10.609679446888718,6.127450980392149,-18.20040466779598,-28.888888888888893,3.4285714285714315,-6.287933559245023,66.34459412169366,inf,-3.3333333333333437,-1.1375542583445504,-1.020408163265307,-0.28948488718608734,0.7399347116430812,608ab7f46594ee2bcc835f69
-2.7297677087656504,7.350697801517839,0.515951436568402,-6.990001741452222,-11.217920735144697,0.4222390408342064,1.5486478266131798,49.30049827520125,-0.6133365399856976,19.468274699105244,-5.867017084706319,40.53998327711367,-2.741089201175042,11.365360613905388,-7.819629230741651,86.84859077215579,2.266738700705334,-14.65759937867179,0.06291252133038493,0.4413560929166765,-4.660939711363772,53.37300942441009,2.6251474599563505,-11.511823761825575,,,2.3230739969338656,-15.4464568635021,9.835267513451837,-45.28844303884018,2.9235511489032477,3.4184608533306,-6.433907669750294,209.03399516684212,6.861012104919667,-31.12635239039538,1.1447268300959597,52.35528966594162,-1.6938553381311512,-10.020817252157926,-0.942517714116909,-12.190976978175367,-1.2740858558435204,38.73700090823184,4.1604628360252685,248.80679787393544,2.1792329577742855,-2.392570929423387,0.8557347670251044,-22.14768646285905,-8.791351715355171,27.135458202281793,-1.9362278797356463,9.636728536312402,0.26541215186710765,0.21235246789050682,-2.7689868867940874,8.838173526550351,56.31260589933675,-64.89526940881099,-5.20329805939628,-1.74498009573749,18.14889952841746,-45.37513177252125,2.2137076067655856,-2.240993613610703,14.896166134185297,-0.024931438544016735,-19.444444444444446,94.79022591055785,inf,-17.049574093577515,0.9203198887569751,-27.34654720781396,0.7829524456927586,-10.40266578075764,4.71231556408584,16.690473312891303,2.8851567760635333,-34.56869803551733,-2.741030445966177,25.90597396517731,3.1161786227458474,-21.817648693465934,8.425445719175103,3.3371861905216487,1.1778165450278302,-8.707935917992458,-3.9259259259259367,-1.3502140013768074,13.779131181091946,-18.633863699653176,-11.111111111111112,2.857142857142847,-4.571915776247345,50.0979858756052,inf,-2.777777777777779,0.13969964576161376,-0.6424792139077775,1.255714432786081,1.8709950429210567,611e2078cadc8161a119af67
3.271604938271598,-17.589721987950494,0.6308078337975996,-10.273183371578197,-10.58814346485579,-3.7241026073256593,-6.896961063627736,33.83480260636258,-1.7987113646669388,26.041634767236342,-3.299942057407733,34.758601618105324,-5.3223844282238515,19.849035221742177,-7.383666539620933,74.72684218777515,1.6281608062430029,19.69463220735428,1.882352941176472,-2.426651112949797,-5.01934235976789,38.528996318366445,3.1190535285844234,-2.293862670321799,,,2.079722703639513,-18.715668458503142,11.589802264859465,-68.7703549902494,1.6901408450704227,-1.5091721905349127,-4.1022421524663795,159.86091334093905,8.409090909090892,16.330293271712538,-10.917759358479232,61.24237286317368,-6.4516129032258025,16.61471541720306,-5.333333333333325,11.482691018034828,3.4482758620689737,-8.080664706502613,1.7118402282453815,544.6815398983098,4.6111197875995735,-31.06877917837945,5.096507352941193,-57.226580669168094,-9.89702517162471,35.77410907345861,-3.825219614693291,10.61887062328853,-0.8987266804856351,-11.152426552099401,0.5123450053800372,26.232433190994524,38.415841584158414,-47.92806774940176,-3.507301587301577,2.9233173738920084,8.22574955908291,-16.599819395090844,6.052235057759932,-17.744222797101273,1.4376996805111775,-1.0097232610321674,-24.999999999999993,75.93360995850628,inf,-44.52160493827161,-3.6986301369863077,-28.609515090923033,-4.9526850119766275,25.8619189997282,3.145655826780996,17.961386590471648,4.444980861409011,-36.04668862680149,-1.6975892969834692,-8.378210189999939,2.7842650707925727,-20.54478305021712,16.666666666666664,34.14634146341462,1.055594651653744,-10.627299889785144,-9.333333333333337,-9.778216754960942,33.24420677361853,-28.030303030303028,-100.0,14.285714285714285,-0.4642230942640044,31.747962182744732,inf,0.0,2.4846579853315296,-2.040816326530614,3.698695314652202,2.3122959738846562,6234857563ccaf842e470196
-1.610487433356592,11.220288183828348,-1.9966136435597872,3.162126004546964,-7.556918794348684,-5.004740774609979,0.01959005546282856,65.8974942506708,-1.3564403849033995,25.159488626790555,-3.8158906376169437,36.30407774853524,0.442166302725184,-9.962818807140023,-7.313656093805239,91.42079812656499,-0.15195480577000892,-9.2728028289736,0.5294117647058876,-4.069267543522512,-5.198934883721122,50.41851788646958,1.718459745338816,-3.7890900067184297,,,1.4836021767082173,-7.894785328980734,6.816450218891794,-30.865131805757805,0.4401408450704213,-0.11031678742098845,-6.131661244635418,234.71089200850335,10.95649126365349,-14.758997271319462,-1.9618186835552425,73.54484314458051,-3.9463696497587484,-2.1077985287008754,-3.3454865068185535,-4.442221413478474,3.129702782240672,7.562220365630343,3.642717164862111,309.67915326346446,4.253939939328599,-6.535849561068723,5.292355651938217,-25.305500428953888,-4.979738234499848,14.890717492029982,-3.4039647135608058,11.324013159612134,-1.298026627140154,5.26419205343508,-0.2653933028643169,27.88403065963651,55.43830833867462,-65.36577860813621,-2.457667820256878,9.065459828941515,17.967303665749633,-43.652851563874336,3.1066328983654876,-3.6976121147537824,10.598043130990408,-3.3068436798803558,-12.500000000000005,70.53941908713695,inf,-6.728950452723652,-2.8439691815788875,0.9492618657576248,0.0007874390731633243,-9.870299900335224,6.442168473677744,3.5084706649978066,4.756539596484282,-44.600079965740576,-1.0402285991444655,13.962887347105793,2.2271241274427958,-19.868482590885147,7.853754125412542,-8.972869130764948,1.0386616685251635,-4.155893283213291,-2.8350988700564983,-6.143306096794482,10.729538027332147,-17.127528268832613,-70.83333333333334,9.28571428571429,-4.385799274827079,65.49124409459398,inf,0.0,0.21142044604100096,-0.3117913832199581,1.4402248766684884,1.6356093579978173,6107aa76ee9845023fb0cb80
-2.5941596808309555,9.851271053336152,-3.355942685407688,-0.8190454334312907,-11.535582110748285,-0.7524617487110655,-0.38983855650523397,13.257953238788792,-2.6355025645156487,24.256731411469975,-6.485860581769122,48.64578630245562,-3.5692557686733752,5.23961105321201,-9.286330788164847,112.87362394285738,-3.6613376231663333,3.424878897747946,-1.7882352941176474,3.2524449629016976,-4.584395013844551,2.643737893191109,0.7260389896706027,-6.553869417725283,,,0.4895085716334877,-10.315914788958484,8.921153784580744,-35.51404310568013,6.499996632112129,2.1600123323570446,-5.5207973711921206,169.7948753605633,5.3886317254174285,-31.537648418102847,-1.0858125607404332,18.557274611382084,-2.4555563855790425,-10.25664710699882,-1.419502937245714,-12.596221392581002,2.4365401299016867,12.914399632693282,4.84243288808198,-49.47547992113726,0.15111975073463896,-5.727600499343786,4.515226450073414,-12.561836542735197,-2.6469730737186805,13.651993310120705,-3.6105956118694,16.46110372831902,-3.5124635008000213,22.436130188209717,3.4131037633015886,12.172107600585457,58.41004708245509,-67.53935212427919,-0.568091472620404,8.617099816970773,19.285357303450844,-48.54170214263099,2.0861423552962592,-7.746148498703151,20.223642172523963,5.211667913238589,-29.56980519480518,137.72194047436102,inf,-26.969494178222458,-1.181875520403804,-25.00495440229122,-2.133148245552318,7.556691129836015,4.956514707961536,-17.3378285504007,6.068997453114151,-52.030175904333376,-2.716277890034632,19.399214984928236,3.805217315967793,-27.84285244487722,10.376787678767874,-0.7317073170731813,-1.1518408967361886,-5.424867187915019,-3.1999999999999957,-6.326658884798425,0.2941176470588197,-14.365459102301203,-62.222222222222236,9.142857142857139,-4.623819673917659,74.911298330154,inf,-6.000000000000005,0.4909444693908022,-1.8367346938775626,2.3714722159618136,1.1969532100108824,611c3819eac3c026d338c054
9.349823363263859,-45.631118711687876,0.6218997282468577,29.54348569831805,-7.847458240576708,5.176017781798927,2.217965970149953,28.713906988629162,-3.592605323897016,42.197476527090124,-4.357097455869408,31.11541527454368,-5.378461658102522,24.443859832553645,-7.336650936346785,73.51209682903746,-2.660843498953778,8.865758081904975,-2.117647058823533,3.841406345373932,-6.924510103744678,29.971998730708222,1.0646988523303593,-7.508688191621143,,,0.55434681170272,5.9319474575854185,0.9628632772321755,1.9332812085999036,4.864732728582499,3.996325985303938,-6.351836939394596,199.35624180490927,11.048587497290757,-14.053319894786112,0.1303660010457914,40.4267493105041,-7.412498938374807,4.641993202044866,-7.770496026878844,2.8090465633214703,6.040582271892882,10.956753161354525,1.7679344301248618,429.23745287261,-0.3500898960272934,-7.274358545042306,-2.0541949978916145,-12.56498909526914,2.3603302391994747,-2.7352045743673483,-2.401096637510384,10.178390064616078,-4.028879379494391,26.327010820428843,0.6504218218423398,34.185858467182776,52.65663891948981,-59.03125122592287,-3.448127456000588,18.075330586375046,10.951701159497103,-27.370836216366275,1.7597858103793391,-7.63993117381348,15.748577822094461,-8.796434804288241,-17.15832340087406,140.52558782849246,inf,-14.111532873052097,-2.523711158740525,-13.594741268827947,1.9061429298401151,-9.728609827549722,2.2332826340260814,10.349689268077237,5.425238686074153,-39.92015603467347,-2.5446154078956287,36.73544856846389,2.9257763522319205,-9.01897844814416,-2.6455026455026363,-4.672525692395144,-0.2870544735682528,9.807317214506641,-12.499999999999993,16.329951213672125,20.92947448339602,-18.853457755059587,-33.95061728395063,2.85714285714286,-6.722089271120793,69.34527360614317,inf,0.0,-1.0602205258693804,12.603930461073315,0.09390729471863683,8.813928182807395,62fb804a737937835d963c8b
-2.212075742869164,10.537029830748708,-1.8304998638460726,1.1394055702803279,-4.753408081507074,-5.81196898232405,-0.34623298512186895,38.0310144372046,-1.974865482299233,28.340041637950904,-3.3322731687427574,28.20140206257364,-2.301691288474966,7.160369488973796,-8.503689174861508,99.72454696956031,-1.1432148610273294,-10.100855632814195,0.0,-0.2577214709113721,-4.1097770218897125,29.80750204103669,4.860241963589398,-23.72222975636501,,,-0.5238822334730706,-4.4806392519068154,5.4149241631367175,-23.740149097552617,6.565146434160522,-0.4361286675915943,-4.747279480043151,148.38681939346762,7.4077624192644995,-45.23156911428512,-1.3781230972236942,51.171409272618554,-3.0459452817457473,-3.6129001213890857,-2.249937520965554,-5.60806476340236,3.7434788043104463,43.657097987759386,-0.1375213630597013,112.0175019888627,0.874770307555713,-4.024657150042095,1.3705215542099347,-15.025185966145383,1.529644907554895,1.5681592487550422,-0.14860882034363954,0.1463084337572422,-0.17204059934955043,3.4024791617145818,-1.7998590353170536,-2.5354270813114796,48.10497595190118,-57.41480040341037,-4.05466212257578,-4.465894280321386,16.925757114923268,-40.07479076022161,3.5406517021117265,-12.316603244579406,9.57135250266241,-1.169284467713802,-10.394318633293597,44.82181582227684,inf,-4.738940329218108,1.2231504064928858,-28.711205811176967,0.17446387177629624,-3.2767660294162106,6.020807231677724,15.069259173074895,6.227191305981019,-44.34022513535656,-2.231590602137019,13.441934810294134,2.9670000795991553,-28.987005602165596,3.703703703703709,-6.775513478819005,-2.857981365157144,4.218641823402811,4.611111111111095,-5.7361348059022665,12.37745098039214,-12.821025592764723,20.37037037037038,-0.952380952380949,-3.6922807459284677,62.04023184260329,inf,-5.555555555555558,0.6585840443047387,-0.39682539682540346,0.1757109825624827,2.0221254987304866,611d0c64d70a6d9fcd11440b
0.4158004158004109,-8.864617199562764,2.0077021822849694,-5.9344603801342775,7.496704511629853,-36.04777561185878,15.800003112247063,-39.814105021080834,-6.397349305467055,65.3190033171165,-4.734249136939001,35.18946127306427,-7.664233576642348,40.5007875396721,-5.182736127245111,85.83844992504966,0.7613143259361216,-29.685643104692065,0.9411764705882446,-32.592421783040706,1.6886892177589823,18.767423386632093,5.533211972397447,-34.883737796158336,,,6.339929869815804,-37.678024705916044,10.995546788606942,-63.30870634824613,-0.2816901408450652,5.033143209495905,-4.295890410958913,78.82238371148166,3.9215686274509687,-45.711546498193336,15.818114875655287,-40.351091952515404,-7.697221335036732,0.5467517984088187,-4.4648318042813555,-6.930504559457959,0.3195962994112705,79.18260444538593,5.3016443461314395,392.48894884300176,4.90644271945092,44.65546233703455,10.161764705882346,-58.901051195386,-19.020897832817337,38.56827478837584,-5.165310536615522,8.456096538848652,0.33277870216306993,-23.116794726761754,1.234567901234565,-45.94267690436575,82.61248185776485,-66.86661468753678,-1.693227091633473,-53.29674627246026,13.091630591630624,-27.99157958929977,2.603381885149841,-14.342195169937783,26.99680511182106,9.727000747943139,-50.0,226.14107883817437,inf,-48.40303376045873,-8.717215957920473,61.97760810921646,0.6814504182145623,-0.38633686690215674,4.371249677155665,-10.106404498927818,0.8888509767124566,-22.578753062139885,-4.966553073330809,54.678356173773516,3.066867772750111,-40.35954050036834,15.099009900990096,-21.052631578947377,-4.551724137931045,-5.919574829218324,-20.666666666666668,12.247463410254094,-9.722222222222257,-35.59072506440928,0.0,0.0,-7.8995157384988035,56.907266646397034,inf,0.0,-1.1076186199670652,-0.9070294784580506,2.3238925199710208,2.5299238302502713,611d06c0bcc92ba3d7669ef6
-1.7133745478558833,8.054395358686818,-0.5261445650253844,-1.193455353951854,-13.71923053176225,2.725382421181364,4.781394598091835,12.130286188833505,-0.9883283466354411,18.788342627388293,-5.073614733187018,39.832548324722396,-4.016366142097031,10.935026941915755,-7.001524079565777,80.69789711480774,-0.0014929160824726027,-4.506616222726246,0.651791751183242,-4.561612620156079,-3.4637777251512474,39.70690926902593,4.202682801821004,-13.507663723856126,,,2.936546193685161,-17.791791528697086,7.627435597616787,-37.14690805361825,0.09389671361502175,1.6177226247366776,-4.799008161357701,157.09059723003352,9.56372962747535,-23.024369658382433,3.276335707377387,22.10251177291108,-3.194572998162353,-9.099614090429059,-1.787375943339256,-12.697694276931687,3.148422305131838,17.650976222056507,7.778930532140224,122.70506035764974,-0.6800430229877215,3.8440711756203045,-1.2664434053191214,-6.257472238588001,-1.4998585318052673,10.695002996542806,0.8411154367005539,-4.389602688248613,1.9070541777516603,-15.017042459587474,-0.7103862434617716,-18.875577621509308,37.3028469597094,-46.50979757561494,-3.663709045629911,-25.78578840569073,11.826902693462028,-21.643858455788973,-0.5789662885015582,16.08001982558953,14.090788072417457,2.4233358264771705,-16.666666666666675,72.61410788381744,inf,-21.34951936204241,2.147201903884952,-24.781475726440156,-1.9875944314660856,3.6949050164597876,6.270595197746891,46.93960258577205,4.9903392197690435,-45.78779446775088,-2.8304342871721144,35.55153058943841,3.529175657225552,-16.522040226801625,5.630823985825373,13.847881899871611,1.9831057264400938,-11.793023320142971,-1.9999999999999927,-1.2233695489509457,8.986928104575146,-11.197136197136198,-22.839506172839517,2.3809523809523854,-9.404799235025717,82.2731797514406,inf,0.0,-0.40912039115902954,-0.7558578987150465,2.2349936143039955,1.8044976423648718,57fe6296035f6e0001d71d05
-2.651821862348172,17.06160134786593,-5.873048270231655,-3.2713964763381758,-19.617419617419625,10.198815470845474,11.723646723646716,-44.90226140283634,-3.4188034188034275,34.21967211278953,-4.435610419499941,32.83767035165152,-2.0165780032166296,35.77251402225347,-8.319185059422738,81.86439367582821,10.025806116309425,-31.554462329688587,2.117647058823533,-3.068241932639735,-4.139264990328812,13.797252867250966,1.4952275613452854,-4.673300084927788,,,0.8184796771622548,-8.394936685275441,14.110402268296983,-53.3093438137872,1.4084507042253573,-2.679204562972116,-6.3176991150442685,230.57409143777323,12.926136363636328,-96.60021141129339,10.606157744500926,-15.766202954815059,-1.290322580645151,-20.51736613768227,2.8037383177570043,-25.23519300292146,6.6607103300598185,9.344190397466233,1.4265335235378012,-2.643976341185023,-3.7490048490989207,-31.24334090890606,-4.6050420168067125,-21.509710895428405,-4.192880159582618,20.92457088261828,-0.7876227070222316,7.678498761167093,-1.631321370309943,14.99798070366637,-1.2252202643171792,-0.042737373864608214,59.0896159317212,-71.371574771488,-4.360465116279066,29.02976117084865,11.072137188208654,-32.57035968523142,-1.9047619047618913,-3.1323100445703562,28.79392971246004,-23.31712789827975,-24.999999999999993,84.23236514522826,inf,2.724021414779699,3.4137856055664217,-8.955752527103751,3.651115618661264,47.998187913382296,5.753650335131243,-11.466565856708195,1.6207455429497566,-4.537751339020269,0.6584698796146939,-20.273585629275185,6.499842037672958,-84.07552120617355,11.111111111111109,20.731707317073145,-4.800540906017598,14.681528689693318,-20.666666666666668,6.20454341384572,26.38888888888888,-39.23620239409713,-100.0,14.285714285714285,-3.817705396530577,109.29447364229969,inf,0.0,2.245172878311632,-1.8140589569161012,1.9733052863548053,1.2241566920565814,65046ab60ee62c5c2a6d8463
-2.808857975780278,16.509435533327466,-0.8125743952650641,-4.556532781277086,-14.277864192577397,5.272677306312488,-1.4458689458689489,20.931391337677255,-0.5780384961608199,23.830052088192183,-3.793598204755068,27.678834275656385,-1.6558786661962959,-1.1505025454884716,-6.113614678689932,76.25074740367272,1.5205510204087807,-15.206514801118272,-0.09330628803245171,-7.411492482908451,-4.93821526793709,48.55848419860557,2.8484584834468167,-13.431380239658877,,,1.6752004924143964,-14.690019500842027,8.643260138534872,-43.73908665498419,-0.6197183098591467,3.1638661939263173,-4.409548310935161,139.2923103254337,10.121317451639399,-24.37523046289257,-2.4279383106145005,32.276655183625486,-1.2396411980050486,-13.271149422998556,-0.05518586294375707,-15.761219412340544,3.1634268974253934,11.628726936365965,1.8429329057099462,274.00585244370706,1.3768472085299281,-8.64310228467063,1.1294569868522244,-2.849907490671627,-2.927527177586636,12.355231597216518,-2.393664513232422,8.89424267627699,-0.7847018416247671,2.4533723591261314,-0.14454355219498954,7.777903658769805,47.959291166874664,-50.379165685928385,-2.5052866029749343,0.9692596803708239,15.080258613773182,-33.34998416775149,1.2872517199674343,-0.8254659992477813,11.40544861354303,3.2890800299177076,-30.84126984126985,128.9544593002408,inf,-21.334858258732677,-0.9295721629447226,-10.395385680501171,-1.787227440473827,6.96779922080278,5.738878960326468,4.182626310729222,4.336218562739912,-47.780382414843594,-4.214970728851662,20.754043717499798,2.42525570400831,-2.8943027633667664,16.87086367366895,1.0496897732135186,0.45393412409299577,-6.497268731896543,-5.066666666666682,3.8873305198886423,8.925282234105742,-17.171578421578428,-74.44444444444443,12.857142857142861,-4.564187112288155,47.16443259051949,inf,0.0,-0.1945816494536698,-1.2358276643990953,2.061452933663944,1.5995647442872616,55c333b0fdf99b1dbd2131bd
-2.332036518312465,8.24897840396099,-1.2740260046256933,0.6779969030512077,-9.602483532169618,-2.6528261327384306,-0.5110938444271687,15.670406634377484,-2.7099590418163864,24.212156201598685,-5.7671926031312575,41.69506255594161,-4.614369268784853,20.221928116473883,-7.6659634397743135,97.53236023790019,0.41150102617223194,-11.057336029059128,-0.9869076157108618,-3.3118608502138644,-5.316541486802369,23.630238039412916,0.985313933510995,-1.8679737755760841,,,1.2379106817194359,-13.287493526011767,7.44379139878715,-38.558698690380886,4.928904987544522,3.746654147455751,-3.865506299799691,110.22555081613635,5.343250382755676,-15.827465142836802,-1.8835236090353493,30.77465997224597,-4.2368437301509045,-3.856154745805488,-3.1958369276328003,-6.806351917415626,2.760315332721418,19.727891251664406,-1.3998507163771854,175.10322903204545,-0.9154975964459829,0.29422077964491045,0.3448658582089226,-13.91783818525743,-4.544497493766136,12.304104324778852,-2.3114464903527097,5.898812393959071,-1.4206557766682728,4.801110443341549,0.14770348030153274,-2.6179036197764805,53.31064744601714,-64.1827295997518,-3.201129593478597,-1.5699215975120349,15.84163621582459,-40.632478605141614,2.1561424842531354,-7.344247442047304,7.242956723787386,6.422791867818038,-28.085182534001436,95.55490357703366,inf,-14.136818088733577,-2.3666135777296926,-5.478678562550974,2.3596848198847837,-19.22918777335735,4.138534147080587,-13.422305290327802,3.2020916949990186,-35.497187084222894,-2.5708617897383617,11.368386319440226,2.852136408481469,-24.90623638383552,18.64197358796819,-3.161590228342489,-0.5624575939871623,-1.6574213822198973,-4.727272727272731,-1.5515848073987795,10.54731810079404,-16.304150395059494,-34.34343434343434,4.675324675324661,-3.9499124473779985,43.0554226601657,inf,-1.515151515151525,-0.04490345756624427,-0.8348794063079762,1.2826029053210168,1.9240280937778163,6509ee73a973beda35b3a29e
-2.380847556565759,13.375218777201919,0.5335401494579854,-6.993871481303423,-2.3704422545996846,-16.362981432342778,-3.8902455569122236,33.01483874500358,-2.690808412881299,42.70259005231656,-5.612653942905434,39.72249003156863,-5.207078266596553,29.845754007201304,-7.827766878649019,89.41384383588368,0.2604463053831033,-14.613802917112185,1.7267233394758317e-14,-0.49703426532909867,-5.697653948749067,44.067057328989904,4.166011199005324,-18.50094057826624,,,3.007034059565633,-23.916015141354098,7.141174065923904,-31.361550197251965,-0.2816901408450652,1.599242440925817,-3.481448663185753,103.86882047763379,7.235051011746671,-53.983979097674236,-4.372657154632688,36.66738563610251,-5.665252249006593,1.3719878819523033,-4.886587639776375,-1.6367064720700812,0.016926129041340467,39.988386256912186,-2.957743583335798,239.28644065284152,2.466227537320282,6.416594130437065,3.1448652990608212,-28.974689506799123,1.1444642995983598,-1.1908179120153624,-2.264607467661558,7.6030777562212455,-2.125660181788401,17.793346786395464,-0.32369631537677784,0.48996345521604145,54.32708675700635,-67.72990957592879,-3.1578207475234947,-3.198308862250723,16.708667999142467,-39.71066188851081,3.246155653107821,-10.635924448940289,8.35342058311622,2.850197670691308,-25.85161882803494,153.93202924323265,inf,-17.063674908264165,-3.8586077198210758,-11.889082353330672,3.0121397930017135,-19.960315303071464,5.759838488469562,36.53993966937767,2.5418186131275804,-35.577911943164594,-2.848658907113639,30.338311979714184,1.7453071205366932,26.82944898809767,20.297802063478628,-7.281269922230154,0.3435607398047232,-11.942795244284492,-3.638418079096042,-2.048723952183003,14.706488656068467,-21.324258448318602,-57.14285714285716,7.346938775510216,-4.781702936279157,66.73036529984992,inf,0.0,-0.3421215814570011,-1.9112406867508962,2.3253234882714664,0.6917456863049758,610658bb4a9082015088fa3c
0.2846662915955015,-6.970506392956327,1.3316473344592563,-8.306858735242505,-0.0009886313213581664,-9.556306359455924,-1.7529281418170364,38.638686597674706,-3.54333344484682,41.36576111352353,-2.126824590238968,34.87279995986885,0.04359785696306115,-8.685491114708174,-6.66170048261897,91.13499032876466,-2.3285410169787206,6.537214347880305,0.7058823529411834,-20.99706559237506,-2.6033441422990853,25.831943365025804,5.399652346705557,-21.462008700117646,,,1.1466316661828024,-3.601483257656229,7.0337419815605955,-27.95840602391929,1.1267605633802922,-1.2645804429371508,-7.098767230907921,239.90663099329322,4.78051632463398,-18.337881134410186,-3.8648301642302445,48.73621158765838,-7.655337320229274,1.4788536025174543,-6.617474617474622,-1.7675297390398705,-1.5967697595896537,43.76927333372565,1.5927961719687915,178.9093424648063,-1.2350981310843758,6.913127385177509,0.47688699135568674,-28.31612349736947,7.089846951796554,-7.43547541636648,1.0871542053950138,-1.5840747093936398,-0.2653179576133451,4.694557440526178,0.23834868014664537,11.782258830279495,66.48856904746552,-77.10366322100612,-5.761791181657851,14.444244857426503,10.61125294934399,-27.067234282095498,1.9939994525629987,1.5565755883483932,2.023429179978704,-2.6502119172276313,9.674215335717134,72.47579529737209,inf,-43.160538928870956,0.9950403296782727,-22.15170862588927,0.016138575791627707,-4.081241883361997,7.092863962778262,13.239888274116495,5.934171514127922,-41.60356341411768,-3.910491499925622,21.244424352734743,2.983596801943661,-22.352261647654053,14.351851851851837,-0.978262396629782,-0.6978036223563995,2.0915705462244247,4.000000000000004,-19.41983179192481,24.166666666666643,-25.0,-44.44444444444445,5.71428571428572,-0.4060923912369692,27.98706607402255,inf,0.0,-0.07483909594374599,-1.1337868480725635,1.7946727435120962,1.8044976423648718,5b3f242f9c2ec600014ef9fc
5.883174761020082,-34.731902144297074,3.8739942640065776,2.0798128277008225,-8.396567372533923,-3.9060932503361228,4.931232358402536,4.278801401741225,-2.8487660985785324,45.98264939281508,-6.885987233716709,45.16922314788481,-4.41814960080288,15.587560980428005,-8.8069151674921,104.58956962074278,-0.9746886611581361,-0.8973526425131069,-0.08461315560706639,-2.907351330405961,-5.20653789417171,41.45899451411761,2.0083351939719805,-10.22836853613525,,,1.5192061102716052,-9.703626480959677,7.748867972876604,-37.23805881149293,4.198074696390558,3.027868924662504,-6.5138924372730695,192.79628708057248,7.295452852737805,3.509093846245574,2.757237176959409,16.512393867017412,-2.72593295026827,-7.394966951636469,-1.4210035496286477,-10.66182936147873,5.235876584999695,17.295333541042808,2.817464230451493,187.52803925347277,1.4756898028553973,-4.278302975897405,0.7547947291443702,-12.610690032470567,-2.569700863062097,9.25956504881184,-1.379273453068527,4.43403103509883,-0.9729031379704071,4.595866865370478,0.0679795690175586,-6.064627612166627,44.144573927014896,-47.575452925962665,-2.1836676258764363,-9.335116216385796,10.794413227141117,-25.596602684278196,1.509571028010826,-4.491854403223794,13.030579643998152,-0.8777647184528342,-11.904052443384982,68.11657043330625,inf,-23.196118780143262,-0.24048857213817032,-20.074125724682542,0.5576714612428049,-3.631318034144873,5.661088099732384,-11.369555046474565,6.530410984316373,-47.666003571493846,-3.5843918540259776,29.671549523808327,2.5749562009730442,4.780198786946045,10.40912056058213,-6.144861203764762,-0.6354704778593311,2.12914735378572,-7.663841807909597,-0.7646514631361904,14.299886621315192,-20.23299178210913,-63.75661375661378,8.163265306122446,-4.73530467593356,65.62095169054884,inf,-2.9761904761904767,0.5441871405050421,6.940395205701309,2.3326572008113735,5.710788123736976,5e692a511f156a1e4aa18f70
-0.05379282738655081,1.163914060509912,-2.139416636317444,1.3364259795079203,-3.3189189869823554,-10.94016829938517,4.691905501670488,12.185840223402538,-3.464698545861663,46.329176309811416,-4.480257936306598,40.43477424627452,-0.9905616308408098,5.136524014510109,-5.963534793800986,90.08947784533426,2.3475155561693724,-16.44961296220442,2.1141698058533964,-3.523780549752268,1.7224594563339888,-1.8645925449725018,5.104037373343563,-21.795330260065626,,,4.047876270115007,-23.248724763509678,5.827009738386267,-27.510652458061628,0.9859154929577517,-1.1665088418595437,-3.6052801936825793,96.02251604957955,6.542721306161681,-24.63679048157537,3.7039816825271736,24.259706671064805,0.13742096841264612,-16.05188043099963,0.9554501695832938,-16.93103149561296,5.005768234730739,12.625426662245598,2.3580072557723675,82.41183533701984,-1.49064473730753,4.6295514850279735,0.551323583403327,-10.745995815300356,-3.372330148019765,10.28545165469081,-4.28022733322851,14.335120410935156,-3.238456226846581,18.783282272421545,0.4853309887185001,-2.7053867717905358,68.61851586275071,-76.36425951456258,-3.4172726319509863,1.5329699453679135,26.579458826037968,-61.72466463276724,3.670216456501437,-13.079975176241451,5.214513920584212,-0.7436691954268801,-10.821315908066703,105.66386382430647,inf,-22.975816950441757,-2.3202913653874417,-20.15077300147587,2.1250921384275716,-11.305427199420102,5.500940954282156,-0.49638155052588867,6.065377842193769,-44.69612293732316,-2.536953418230596,30.6117467392785,2.8842632899201437,-31.877000850883952,8.003263610740257,6.033376123234894,-1.8184635246413117,-3.260508001374646,-2.4761904761904865,-0.5673238497159138,7.282913165266095,-18.203258003846436,-40.21164021164023,12.24489795918368,-5.7808683155632545,73.3692950636235,inf,-2.3809523809523614,0.38488677913913455,-0.8260447035957176,1.9564914088241263,-3.24887299860097,654d4401d386722f1c6bddf1
-2.0658206342327,7.189240622575957,-0.8368678201238272,-0.8694335932968916,-8.538326726726563,-1.9983081541077017,0.4946185501741098,33.30032792470509,-3.4693329687710293,39.47803079258012,-5.8824806917096515,40.708689111267496,-0.237254099908493,11.525829268355354,-8.354102288586922,103.09987489196514,1.6366072820797575,-2.578417470404367,0.5751633986928103,-1.4824259578271037,-0.2687892249609156,23.79024033310923,2.961147792478366,-8.539878481062225,,,4.778469199024593,-25.186278384879746,7.681922253897196,-32.95040590365374,7.470974578222554,0.8600106195296624,-5.884208831325161,190.65499880937904,5.514779726964593,-28.820221189748572,-0.27498633251865146,39.94013967183839,-4.6646685124848535,2.2611425707279866,-4.46465020061682,-0.25097074586914647,1.6417013796579134,25.423139321725813,5.449646248505037,319.78850034012504,0.7749658393020709,-2.567664922462806,0.7907739313309268,-12.537397082654314,1.0843719694938418,4.702096129281621,-1.516586301064941,7.594829291054482,-1.9696715442575206,10.799342377784633,0.15933758611015883,20.508462164067513,50.730391389891714,-59.42321282239048,-2.9969887457040847,16.706925185149633,16.848227537271743,-37.78436086580902,2.442219081902754,-9.090620155513285,8.896876109336157,4.961356270256787,-27.777777777777786,151.313969571231,inf,-11.340906357472095,-2.43966942143185,4.4706808685536075,-2.6442932111533612,16.17114151389771,4.227028039870062,0.4954027217257277,5.412904033458958,-37.69899821824782,-2.331643697699679,12.778098435313867,2.713494668586218,-14.011439574425625,-3.703703703703691,1.144629867351293,2.207823966317028,-8.228358972587715,-5.92592592592593,-2.8646852832899667,17.242688321119694,-19.11249082301715,-46.913580246913575,8.571428571428566,-5.036473878153299,62.424601771008604,inf,0.0,0.39914184503318456,-1.058201058201055,2.4861086764776195,-0.12392697376374323,611513d0ab9d61f4053c4c8e
-4.084507042253527,25.41189228539326,-5.396082653526035,4.637944459322048,-3.589743589743616,4.953663961492954,11.880341880341883,3.6364507474128205,-4.957308525551174,46.06462049356141,-8.111163864903776,57.03814573951862,-5.88728012444657,32.66606631522497,-9.923599320882854,128.80835760090363,10.759311490418161,-56.99817655267301,0.9411764705882446,0.9128765785440317,-0.797979797979808,3.804501681284031,7.670383100008372,-50.19227670137967,,,-1.678633325080487,15.60458831630224,4.39177413733008,-11.87933948162346,1.5492957746478822,0.23200246647139722,-4.293273542600901,112.5990147994028,10.621521335807046,-5.73145849209677,8.752423257162931,10.897380346431047,8.558262014483224,-65.67781694550331,13.142857142857128,-68.47398835019308,5.2649285113540865,-17.456202832341678,-6.37550751673433,30.29324478572186,-6.040695209834667,-4.620992354558407,-4.466386554621838,-12.35955636867307,-4.33233739370258,7.801444786146898,-1.8612521150592218,4.9775738140627075,-0.7370606554945831,7.870186843500941,0.8763707938888363,-1.1614308721424162,28.52899575671853,-35.08456415989958,-2.745219638242885,0.1325718348264438,5.873015873015897,-1.7669141188474786,-0.5524861878453086,0.1676352150734889,1.277955271565491,3.234854151084506,0.0,-14.937759336099552,inf,-48.67364402317009,-10.999285558972451,57.737155980931476,3.986037077220649,-32.21110809096675,9.629629629629642,-23.95112675486507,1.782820097244741,-27.793168814984853,-1.3731588986236785,-13.606441847594558,3.6510524483851317,-25.692504771631203,16.666666666666664,-4.878048780487806,-1.4778325123152878,18.50522257495167,0.0,-14.626919278082088,37.878787878787875,-33.33333333333333,-100.0,14.285714285714285,-5.75426166371451,66.92437996785823,inf,-16.666666666666664,3.397694955844941,-1.020408163265307,2.1410863195853325,2.5299238302502713,6162d95040a3fa68f76451be
0.9181449283710499,-8.191629846112486,2.080320995284347,-4.006821727328214,-6.223056007308696,-5.211211419003542,-2.0061815360960717,46.61565277701731,-2.5831850094667765,28.324415645848312,-4.922145072785825,40.289858524712436,-3.039755601784158,10.760555665375941,-7.7764798671919975,92.37435639294522,-1.0189345923755988,1.6751001677978241,0.34502076692746864,-1.31057678479398,-0.9267128025854299,27.003122008309166,4.6228461581319085,-24.819681252618476,,,3.8403955936162526,-16.709044727593017,8.830858425417757,-46.07569584257862,1.5742457240320935,2.022726772225761,-5.6794379816971405,152.76589817979465,9.399963242306407,-16.970614298473986,-3.3420555028376717,59.07387848287035,-3.626214668543535,-8.83723926121153,-3.074201587659819,-10.710920262354131,4.804915207135886,15.923938956221354,3.508793876542608,114.92651832965232,2.73172769518806,-39.53384270855816,2.8255872841147966,-34.70175277983277,-3.65906203536146,12.087039804694296,-2.0788332085575876,6.897977554095867,-1.3758312924705858,7.273610436692625,-0.9533709951951769,9.856543845670402,39.244597024387,-46.92069481572395,-4.123943966659689,7.706069574000515,12.895132351185664,-28.47478986669081,1.1679076270626263,-4.23420255147124,14.020468468665396,0.7755458204224053,-24.28571428571428,107.16371380271801,inf,-21.55358936477288,-0.8345922901546883,-6.116390412390691,-0.3893900330787717,-4.949947578922831,6.117762225984892,-14.86091466532483,4.5287170930662795,-40.63486071377106,-3.663312925793026,21.98574619940194,3.698348508890909,-30.8467342489892,6.629326953859409,-2.4900013174758735,1.5847933409905666,-5.215487566501745,-7.562550443906386,2.8901174549014903,15.407514758725815,-18.572754522002644,-52.028218694885375,7.755102040816324,-3.3565588863957543,61.84259560797999,inf,-0.9523809523809601,0.07840286241722526,-0.7018680488068243,2.1750718167216188,1.5674387273952035,65296d538ca4cc9d14c129aa
0.3816623043930511,-4.398059512031436,-1.4486725984895088,0.4533953629649796,-10.422911688504005,0.21090250824376083,1.3349613349613323,41.94614794940594,-3.8672987701074955,42.67840840470102,-3.326997527825817,28.811775885275114,0.10830194786790986,-6.497570066786913,-7.849828761657649,100.31597887586226,0.8654915250127525,-10.787142064041646,-0.9075630252100708,2.1985772999703643,-4.3540271741034084,68.41061224614235,3.961902069729142,-19.053190758200497,,,3.57777921029704,-12.947466758793105,10.790975273472613,-50.33892165734355,9.177430278553055,3.902640445726634,-5.400006730780222,168.84672660986135,4.254494851553659,-2.411739296864387,-0.05679162568846188,45.92070451845753,0.36743148862470887,-21.35674501780306,1.1809306960766686,-22.17851168926605,6.151548759885232,2.900508624804149,1.3613739481208105,188.95097763085772,0.24778819894389123,-2.049499180358473,-0.9240570635274954,-16.35008246841179,-0.9877363152909772,6.638659666563959,-1.0063964974687654,3.435751149480479,0.3940569205064621,-5.417398933167822,0.4711303447084664,-17.821753536428986,44.42202703926304,-44.84039710093759,-2.1306076262524583,-29.49805989587932,10.41374924079216,-22.430462921544102,2.247002479939441,-5.410269817379292,7.821770880876317,0.5657655732449615,-21.42857142857142,97.80675755779492,inf,-21.383839761110686,-1.034231044015781,-22.987785436872006,-0.4941804884514887,2.327573486584077,5.960179246997843,-2.838140489191166,6.875741604503641,-47.02771285514517,-5.264312561038256,31.82516800551605,1.1094895971102907,-3.884692315984746,6.372780135156372,-9.228149213785326,-0.6654223908453865,3.8500700939181334,-7.285714285714297,3.1901384060852496,2.3883795942619415,-19.558010911394376,-36.50793650793653,5.306122448979611,-6.344574829844868,71.36623211157364,inf,-13.095238095238104,-0.5024910727649807,-1.0528020732102428,2.6290465100472553,2.075237058914964,615a10906193d263fd02c670
-1.6582991903393303,11.923235814741377,-6.732093516889819,8.365988116182093,-15.564734172613925,3.594248054612987,6.920362484959903,22.240321962437744,-3.6847850232308805,42.09260861120803,-6.859436925113033,40.863863583352064,-1.670880802339523,8.695083740306297,-8.830030931629382,99.21988083119649,4.820270008827865,-18.953527279870247,-1.0882352941176405,2.7740664378823614,-2.6609025963666135,25.712461291245514,1.7902890081450455,-19.051010708892527,,,2.5698054991022707,-12.261438758352604,7.2950828894216695,-33.063646380952086,-0.316901408450712,3.0453214120548955,-5.120597204819043,156.90679782651878,4.590101836189013,-16.166203692322895,5.794682397490059,25.803666012531167,-2.907856689849942,-7.964641691207833,-2.703058524340089,-9.410019758935825,3.7601958356744714,15.341499296152634,0.3122129690527123,235.01411227560496,-0.48197222353688524,-8.178741952219449,-1.612475932023653,-11.706564544637134,-4.531752008500535,14.529308262487659,-2.3666592171906546,9.586841854107913,-1.6214723645685043,8.821864386060447,-0.7660365390937528,-5.539738842009916,45.19192713495011,-53.26274009699502,-2.40347424529498,-21.003509162956952,15.154632129036969,-36.401552733115246,2.0982927016529778,-10.511152823532292,7.794876024447831,-1.5393605086013573,-19.999999999999996,133.246887966805,inf,-25.49990903472589,-2.258668657581418,-20.589370247430498,3.5766486428273563,-28.47626166530758,7.709594951708645,18.387657840899045,4.685289495137361,-46.65397159795501,-1.1976137879525934,11.305176596388343,2.0605374500323697,-4.319306082322274,12.432470925664001,-1.086762597482778,-0.7812356924732133,-0.4929393408400035,-7.083333333333326,11.76483792762862,25.496694890077247,-23.908314821143772,-74.53703703703705,11.428571428571425,-5.4816354256118105,64.4561652249399,inf,-4.1666666666666625,0.6398742703188023,-1.3747165532879877,2.301354769238508,1.353373231773666,602bfa74abe14141ae89b2fe
