CODE_GENDER_DemographicParityRatio,CODE_GENDER_AverageOddsDifference,NAME_FAMILY_STATUS_DemographicParityRatio,NAME_FAMILY_STATUS_AverageOddsDifference,AGE_DemographicParityRatio,AGE_AverageOddsDifference,CNT_CHILDREN_DemographicParityRatio,CNT_CHILDREN_AverageOddsDifference,AMT_INCOME_TOTAL_DemographicParityRatio,AMT_INCOME_TOTAL_AverageOddsDifference,AMT_CREDIT_DemographicParityRatio,AMT_CREDIT_AverageOddsDifference,AMT_ANNUITY_DemographicParityRatio,AMT_ANNUITY_AverageOddsDifference,AMT_GOODS_PRICE_DemographicParityRatio,AMT_GOODS_PRICE_AverageOddsDifference,REGION_POPULATION_RELATIVE_DemographicParityRatio,REGION_POPULATION_RELATIVE_AverageOddsDifference,YEARS_EMPLOYED_DemographicParityRatio,YEARS_EMPLOYED_AverageOddsDifference,YEARS_REGISTRATION_DemographicParityRatio,YEARS_REGISTRATION_AverageOddsDifference,YEARS_ID_PUBLISH_DemographicParityRatio,YEARS_ID_PUBLISH_AverageOddsDifference,FLAG_MOBIL_DemographicParityRatio,FLAG_MOBIL_AverageOddsDifference,FLAG_EMP_PHONE_DemographicParityRatio,FLAG_EMP_PHONE_AverageOddsDifference,FLAG_WORK_PHONE_DemographicParityRatio,FLAG_WORK_PHONE_AverageOddsDifference,FLAG_CONT_MOBILE_DemographicParityRatio,FLAG_CONT_MOBILE_AverageOddsDifference,FLAG_PHONE_DemographicParityRatio,FLAG_PHONE_AverageOddsDifference,FLAG_EMAIL_DemographicParityRatio,FLAG_EMAIL_AverageOddsDifference,CNT_FAM_MEMBERS_DemographicParityRatio,CNT_FAM_MEMBERS_AverageOddsDifference,REGION_RATING_CLIENT_DemographicParityRatio,REGION_RATING_CLIENT_AverageOddsDifference,REGION_RATING_CLIENT_W_CITY_DemographicParityRatio,REGION_RATING_CLIENT_W_CITY_AverageOddsDifference,HOUR_APPR_PROCESS_START_DemographicParityRatio,HOUR_APPR_PROCESS_START_AverageOddsDifference,REG_REGION_NOT_LIVE_REGION_DemographicParityRatio,REG_REGION_NOT_LIVE_REGION_AverageOddsDifference,REG_REGION_NOT_WORK_REGION_DemographicParityRatio,REG_REGION_NOT_WORK_REGION_AverageOddsDifference,LIVE_REGION_NOT_WORK_REGION_DemographicParityRatio,LIVE_REGION_NOT_WORK_REGION_AverageOddsDifference,REG_CITY_NOT_LIVE_CITY_DemographicParityRatio,REG_CITY_NOT_LIVE_CITY_AverageOddsDifference,REG_CITY_NOT_WORK_CITY_DemographicParityRatio,REG_CITY_NOT_WORK_CITY_AverageOddsDifference,LIVE_CITY_NOT_WORK_CITY_DemographicParityRatio,LIVE_CITY_NOT_WORK_CITY_AverageOddsDifference,OBS_30_CNT_SOCIAL_CIRCLE_DemographicParityRatio,OBS_30_CNT_SOCIAL_CIRCLE_AverageOddsDifference,DEF_30_CNT_SOCIAL_CIRCLE_DemographicParityRatio,DEF_30_CNT_SOCIAL_CIRCLE_AverageOddsDifference,OBS_60_CNT_SOCIAL_CIRCLE_DemographicParityRatio,OBS_60_CNT_SOCIAL_CIRCLE_AverageOddsDifference,DEF_60_CNT_SOCIAL_CIRCLE_DemographicParityRatio,DEF_60_CNT_SOCIAL_CIRCLE_AverageOddsDifference,YEARS_LAST_PHONE_CHANGE_DemographicParityRatio,YEARS_LAST_PHONE_CHANGE_AverageOddsDifference,AMT_REQ_CREDIT_BUREAU_HOUR_DemographicParityRatio,AMT_REQ_CREDIT_BUREAU_HOUR_AverageOddsDifference,AMT_REQ_CREDIT_BUREAU_DAY_DemographicParityRatio,AMT_REQ_CREDIT_BUREAU_DAY_AverageOddsDifference,AMT_REQ_CREDIT_BUREAU_WEEK_DemographicParityRatio,AMT_REQ_CREDIT_BUREAU_WEEK_AverageOddsDifference,AMT_REQ_CREDIT_BUREAU_MON_DemographicParityRatio,AMT_REQ_CREDIT_BUREAU_MON_AverageOddsDifference,AMT_REQ_CREDIT_BUREAU_QRT_DemographicParityRatio,AMT_REQ_CREDIT_BUREAU_QRT_AverageOddsDifference,AMT_REQ_CREDIT_BUREAU_YEAR_DemographicParityRatio,AMT_REQ_CREDIT_BUREAU_YEAR_AverageOddsDifference,NAME_CONTRACT_TYPE_DemographicParityRatio,NAME_CONTRACT_TYPE_AverageOddsDifference,FLAG_OWN_CAR_DemographicParityRatio,FLAG_OWN_CAR_AverageOddsDifference,FLAG_OWN_REALTY_DemographicParityRatio,FLAG_OWN_REALTY_AverageOddsDifference,NAME_TYPE_SUITE_DemographicParityRatio,NAME_TYPE_SUITE_AverageOddsDifference,NAME_INCOME_TYPE_DemographicParityRatio,NAME_INCOME_TYPE_AverageOddsDifference,NAME_EDUCATION_TYPE_DemographicParityRatio,NAME_EDUCATION_TYPE_AverageOddsDifference,NAME_HOUSING_TYPE_DemographicParityRatio,NAME_HOUSING_TYPE_AverageOddsDifference,OCCUPATION_TYPE_DemographicParityRatio,OCCUPATION_TYPE_AverageOddsDifference,WEEKDAY_APPR_PROCESS_START_DemographicParityRatio,WEEKDAY_APPR_PROCESS_START_AverageOddsDifference,ORGANIZATION_TYPE_DemographicParityRatio,ORGANIZATION_TYPE_AverageOddsDifference,consistency,counterfactual_CODE_GENDER,counterfactual_AGE,counterfactual_NAME_FAMILY_STATUS,participant_id
0.6790123456790216,-6.8186910726326975,0.0,-14.101309902791204,-12.472301361190272,-0.6848855135761446,0.854700854700853,0.04311996933694876,-3.216737495913697,51.54459585660859,-6.771799628942478,38.761939804219146,-0.7603802853091516,24.865912468446965,-11.01567961649855,120.91260560688255,0.7771483835313705,-9.72860723661292,0.7058823529411834,-0.37844363360144806,-10.016233766233764,72.13158744171402,0.9029810745062455,-12.768239160965496,,,1.9628987739906245,-12.779298466126482,11.644625898642051,-52.07658953333626,0.8450704225352114,0.020810852474193973,-7.071681415929233,215.22769752457336,5.1812240047534175,-24.82730647262731,-2.2576361221779444,15.573107309799422,-7.196029776674941,26.263257814659536,-8.33333333333332,21.777276452949828,3.8519764507990004,23.113587963313872,0.8559201141226782,-23.909100342430133,-6.7295464179737055,-5.307446733287882,-7.928921568627444,0.22998129140944273,-14.550406628816928,30.225596743735885,-8.230171388066116,19.33372764159023,-5.2083642295714085,20.064604057778745,-0.23398922839013586,51.881477917443355,49.57203994293865,-54.52341022321606,-3.0592974946493734,37.1041233421426,11.570218520891194,-17.431469819043258,-2.055886102847426,-0.9649647854503217,1.9169329073482364,-1.7277486910994966,-24.999999999999993,75.93360995850628,inf,2.8742283950617233,1.1741682974559529,-60.16323572515534,9.680099709181567,-57.78798586572438,8.485481351835759,14.730752113929599,8.741220961642366,-44.434364160735186,-6.347953894948569,46.413252180078246,0.09122755802071165,19.9091343730124,-5.5555555555555545,-10.590500641848548,4.305975667137182,-14.478545926487216,1.9999999999999927,-17.949178414294707,-3.1531531531531765,-9.090909090909083,-100.0,14.285714285714285,-3.782082324455206,100.3920716964195,inf,0.0,0.2095494686424123,0.22675736961451265,3.3130493576740925,0.4896626768226277,60c442aafa8afba1988e2ba0
-2.2857142857142847,25.353526721794605,5.323390813525979,-23.779372154101868,-8.069499618795401,-7.808037552232425,0.7122507122507218,4.62821004216173,-4.783510500388894,60.445540838658275,-2.110389610389599,38.60046415101298,-8.84886921143952,46.3066581673092,-2.7110501029512775,41.829586892934884,1.1547911547911507,-9.377951356415414,0.9411764705882446,0.5262943721769535,2.2882231404958704,33.9489557379099,7.178659417211784,-41.83460483320962,,,7.618932462751726,-34.35169893931271,12.911508890669984,-56.3396988820936,0.7042253521126709,1.76198550948052,-9.033187772925775,326.29517919863275,9.638218923933199,49.322746380196065,0.19157088122606084,6.216536821519026,-0.09581603321623487,-28.68624283858287,-1.7737003058103995,-23.483482403241602,9.395600338522895,-33.317949199726435,10.024640124497482,450.6145065891884,9.619188921859545,-42.639991757825904,7.547438330170786,-48.394265455259635,-11.703601108033242,26.698231470032802,-0.854700854700848,-8.242240420957755,2.387678437265207,-35.24730559435032,2.072533293421105,3.526392814899479,60.22922636103151,-66.48118453571851,-0.9702832244008759,-4.643436111025553,24.744641058840493,-61.17571450351241,1.5773480662983397,-5.828620008409071,27.5958466453674,13.212415856394891,-50.0,232.78008298755188,inf,14.236111111111107,-4.256360078277894,-8.81558094274468,7.099391480730244,-16.881580139530698,10.526224035284988,-37.678520856090984,2.0353151923569124,-0.1629758621179516,-5.509358746768819,19.056395201127895,1.6034436867272932,-19.228972645154116,16.666666666666664,-26.540436456996176,12.82657324948297,-40.525674413107964,-9.333333333333337,-2.6667863877166367,32.761437908496724,-26.623376623376622,-100.0,14.285714285714285,3.9862010179374483,2.44746557790033,inf,0.0,-1.0627151624008375,-3.174603174603177,1.3923321563619784,0.6800870511425439,60a3a03bc01ba594c9cca88d
3.894736842105268,-23.662847584898273,0.23510290281171387,17.983466424098953,-12.472301361190272,0.20585003095854507,-8.855650522317191,33.21674971253358,-4.544878603628082,0.46648603323370824,-7.090268886043524,56.455322451255995,-7.2489302793858625,5.88985237425506,-9.245253897206366,69.67816745482574,-1.3583713583713537,-6.059592975874441,-2.823529411764699,1.1271923280387408,-8.141571969696967,30.41237623108632,1.6000334210636222,-9.524546419784128,,,-5.719237435008668,16.396018385067883,0.5033557046979861,19.185475152503823,-0.4225352112676057,-1.7550485586557567,-4.490410958904115,149.1717789770385,1.6142191142190965,19.684603849652024,-11.947611851444803,44.59860101640584,-3.2258064516129012,-4.57645349274057,-2.2222222222222197,-6.0120352217805895,-1.0933557611438158,87.86790911848404,8.779665413046313,412.15232956314287,5.249017563557637,9.29443803373725,10.00000000000001,-72.51646045872235,3.243391638559899,-1.3283863644917673,-6.818327870959445,34.18430185999649,-6.980679946083565,55.454562610518025,-0.0565927965372291,-30.575793644688325,31.125541125541105,-37.6031614099094,-6.58031746031746,-23.644025861937504,5.55315781901888,-12.90294245270852,2.543624528198669,18.240124511585236,25.199680511182105,20.28795811518325,-24.999999999999993,160.16597510373447,inf,3.6458333333333206,-10.409095144907278,32.04553289292921,2.9482522760507757,-40.42873969375738,4.652849811187726,-36.899872157923284,3.2258064516129026,-38.66039118266082,10.304849645463468,6.127862728797049,5.989595582355744,-91.10615364725011,-4.761904761904764,20.17276422764225,-5.002428363283165,8.242834649557237,1.9999999999999927,-2.864326120140078,21.657754010695168,-29.304029304029307,-100.0,14.285714285714285,-0.776009208907251,52.45181695774571,inf,0.0,0.628648405927237,11.678004535147391,-1.2345679012345174,-1.060935799782376,5fad5482f2e5c201d4a5cd76
1.1111111111111156,-4.937513166950183,-10.349643373734347,56.04362302585297,-0.7038712921065939,-12.187076656912069,11.253561253561246,-45.43407435799153,-0.13190871916633573,19.710212574914255,-3.7626217604823355,30.386298388490335,3.284671532846727,-7.693604908041696,-8.319185059422752,108.90733922197731,6.071251153218362,-20.331917990783648,1.1764705882353057,-2.8213718920824924,-3.6439393939393945,75.38250023801454,2.870033838826912,-9.491166781307143,,,3.0756098191882755,-5.994790842127387,4.038590653005227,-2.108527857894733,0.9859154929577517,-2.8834592261445877,0.060465116279055056,32.19975882210378,-2.9063360881542817,42.33511148258304,8.752423257162931,-27.88735861531228,-0.19354838709675487,-13.437325390294678,3.2098765432098677,-18.69855674977069,7.896551724137926,-4.016712998690554,-6.902227586963685,88.75210127633105,-4.172396323369759,-31.978088560510948,-2.084775086505175,-35.187137585661624,-11.961025011508356,34.81091956091033,-3.912323180833424,19.890420686813236,-0.08508732646663263,6.0264766591091705,4.436142580823431,-41.498098808497645,70.0,-81.08155819701072,-0.9442755825734476,-35.793948959746935,3.982426303854905,-17.448158181754202,3.4909543928068576,-11.02077591412005,2.076677316293923,-5.400149588631295,-24.999999999999993,85.89211618257264,inf,5.189043209876546,4.354867575996724,-71.09611741202102,5.438935798858452,-29.319742683700305,8.780007839647427,-18.157543391188334,2.3628763968267568,-21.389008972805534,1.0973039750018085,-5.228231657594768,1.1929247223364583,93.38838027160777,16.749174917491747,-32.224867719198244,-3.718728870858708,14.219945038147017,-20.666666666666668,9.2933465026488,-1.515151515151525,-17.832167832167833,-100.0,14.285714285714285,-3.1734583483591825,40.65036412862491,inf,0.0,-1.047747343212095,-2.8344671201814085,2.459119024365838,0.9249183895538576,5f047d44d191116edb3cb798
-4.14937759336099,21.372736645886107,-4.895532826296006,-1.1147606153165022,-16.40211640211643,8.297122406440117,8.433048433048414,-3.5358374856266486,-4.5112781954887184,41.04773137029934,-6.309599491417658,45.34340384632924,-4.398119510082895,31.535651769181754,-11.35962024877863,129.4213150875565,1.7045454545454597,-16.271610510293343,-3.0588235294117605,7.5675162432348255,-2.087344028520493,44.182330887392865,0.07645909438449786,-1.7503024087873404,,,-1.9064124783362273,6.566805331238276,14.939692982456144,-56.86101559969251,-1.5492957746478822,7.909665484815793,-5.42018348623854,250.3922740788071,4.715151515151472,48.29518916394191,4.4270427867075695,6.740431217336898,0.6318589956767552,-31.79027117413768,1.9682539682539624,-33.49314346940193,-0.7287717712147113,15.709139138685416,7.53469070159513,429.333194977691,-1.6320474777448104,-40.010976577304255,-4.653979238754306,-0.6615192202342248,-3.9829302987197703,11.309721231742481,-0.8885850991113979,-4.973547416095496,1.8581081081081217,-32.587710703283214,-1.982473722537181,-35.99433317963436,43.07017543859647,-53.73790014122631,-0.9036144578313378,-49.67847876633979,9.43994749507768,-24.00584034056929,1.9083323937309864,-2.5937530669159066,0.15974440894568637,6.054599850411341,-24.999999999999993,60.99585062240666,inf,-49.0996723421684,-0.5870841487279889,-46.13486356250068,-9.09138191085452,55.13019842348468,7.203485986898897,33.466844681797916,9.987145811211084,-43.781242959869004,-5.4343236374355826,19.107847229183307,1.6128123767860183,-29.270700376264013,-16.666666666666664,-2.802738553701328,-4.8557353976073205,13.652428366756023,1.9999999999999927,3.3222591362126166,11.519607843137242,-32.68398268398268,-100.0,14.285714285714285,-8.888142662731315,88.9319376275898,inf,-25.0,-1.0327795240233524,-2.4943310657596394,1.545088022437671,1.4417845484221963,60ddc4cc0a3f074060092937
-0.8453608247422738,-2.8719176223926697,-1.3291153072821036,-5.165661325900938,-13.186813186813199,1.3242478369537978,0.14245014245014437,0.5174396320429292,-2.367761509035749,39.231038421482886,-2.877495371991777,7.276903461487651,-2.0576390636798365,-7.862242953459288,-5.14936964924321,50.93120090112138,-0.3710575139146467,-15.771287886177094,-0.2352941176470439,-0.5181557994112965,-1.719251336898408,14.42428498590657,6.243873332480926,-26.038366696685088,,,2.964517011766841,-17.381212587254012,1.924543800973998,10.076248684414189,0.14084507042254044,0.19731771234775647,-4.343636363636375,75.0796829222431,8.982683982683962,-36.817522554635225,-1.1341606753064277,11.83992483949636,-0.19354838709675487,-27.06634292196292,1.4330218068535827,-27.75891528838026,4.378429681070058,69.59949215216326,0.14265335235379636,-6.642316073466745,-2.499999999999994,-33.45688954420847,-2.9411764705882226,-25.308278292866987,-13.923023417574761,34.029355627722296,-3.8365143628301466,10.868643811406436,0.909090909090914,-10.419741687332369,-5.408869520635746,24.475165622864463,20.171919770773638,-20.15355909928997,-8.231707317073173,12.040842930570527,7.465091299677767,5.160703186386577,5.392377945653401,-27.48777817167831,0.9584664536741182,-1.4360508601346407,0.0,197.92531120331958,inf,0.7602685624012635,2.7494080748275382,-24.964831630625035,11.03838352317053,-28.731720576243596,2.3084728564180756,-18.38410810373431,3.895017514508297,-52.25071086296025,-5.3557154276578816,24.483051130039872,1.7711700064640779,-18.915501272194003,4.1666666666666705,27.439024390243894,3.8884812912692452,-16.05677393276982,5.000000000000001,-7.095986351800308,24.999999999999993,-24.053030303030308,-100.0,14.285714285714285,-10.6083535108959,74.78116086811735,inf,0.0,-0.6885196826822404,0.9070294784580506,3.5609646157313444,3.2100108813928148,5f1c55c8ea92af4d99d03137
-0.36809815950919117,-10.601911820901009,-2.8392200225402577,-4.25582600537028,-5.4048474338329395,-10.859156436298331,1.1396011396011418,-4.024530471445049,-0.3889032927145372,50.352961297540624,-6.133250311332496,26.838549630587877,-5.656934306569363,3.8100928307195607,-9.680781320916457,80.41478217171132,-3.2399537635139577,5.301818192306815,1.4117647058823668,-2.689798299038274,-10.352272727272727,98.58268862827065,1.3333333333333264,-27.2400548880308,,,4.205053361306203,-26.220917912117763,11.269349845201223,-52.41371773806415,1.1267605633802766,-1.5230460921843598,-4.866367713004503,106.47082516824211,5.496137849079004,-27.72929521374677,-0.010685228434910968,-0.04403935763512041,-2.035703100532421,2.4010129469040775,-2.6666666666666705,2.129853979151619,14.33756805807625,-60.06739223629576,-13.55206847360913,504.79526823700417,4.002030298297702,23.56269352692508,11.779411764705875,-50.740591439527904,-1.1713030746705742,6.473058421655131,-0.44959075713133223,-4.788265621931168,-1.3093289689034304,-7.494007797103623,2.704110156575503,-41.94917236355867,69.75714285714285,-81.90078115805578,0.8951738453554889,-15.821009652384177,6.345663265306143,-18.38694015410054,-2.175743225466969,23.616330035816187,1.1182108626198046,0.6133133881825037,-24.999999999999993,72.61410788381744,inf,-0.437364694868649,1.3698630136986116,-25.35582789711367,-4.368856295833985,6.537646099483578,3.2332738258229887,35.25985493364505,13.385122673671265,-69.78979564085238,0.7580512770991197,13.443390845564963,0.33777324580967316,8.107680511411322,5.5555555555555545,-2.802738553701328,0.7741027445460914,-12.175617592931218,1.9999999999999927,-20.606985723264806,7.843137254901947,-14.285714285714294,-18.51851851851852,0.0,1.622294298478513,11.722232971244715,inf,0.0,1.4069750037419493,0.22675736961451265,1.1970049833471046,1.033732317736665,5b222aff59f9620001c109cb
-2.2037422037422,10.929904096986943,1.0484963720604878,-18.202543236538045,-20.749568636892597,17.751867585404604,-1.1396011396011418,9.12706017631276,2.2556390977443663,5.814817158904763,-4.3057674988742605,9.603282360210457,-5.518499874150519,11.240063003173764,-5.608193219782021,31.78615668189747,-2.5136154168412297,-8.767283563121083,-1.1764705882352884,1.6616252729812975,-4.545454545454539,75.65318344531885,0.07645909438449786,1.6455954559236134,,,1.3695417052162362,-10.4038277828262,11.046301320311096,-59.35821530463706,-1.1267605633802766,3.4615384615384737,-4.833944954128456,186.67152697864012,5.2602033075405705,65.10361611642361,-2.819373845613703,43.53499406880196,-2.26764611945066,-32.23850154533147,-0.4281345565749376,-32.952380707673086,1.0260723296888272,-15.27048893625231,8.001556218389343,-91.31015876310062,-3.8019287833827935,4.8041377731208295,-7.100840336134446,18.86621807394541,-4.413500118008011,3.0830110105952806,-2.3339598997493645,12.093086249759741,-0.831429876655989,20.428656586256448,2.373860778683396,-13.966573778927174,42.445414847161565,-53.524405672590326,1.2985274431057567,-12.479322670510161,11.530352599054892,-26.566454397260454,-1.8091214386306866,23.93917950476695,25.998402555910538,-21.413612565445046,-24.999999999999993,75.93360995850628,inf,-0.1265285822947872,-9.34675239958997,66.57259755225273,2.1752815275932136,-25.469964664310996,10.418492306989707,20.605251446372925,2.3892926229936773,-30.325079001686557,0.39749022699647646,-4.522851606838435,1.652892561983466,-33.58872659991729,16.130363036303628,20.731707317073145,-5.655172413793119,6.2251277918745425,5.000000000000001,-12.878513064559586,18.181818181818187,-5.952380952380961,-100.0,14.285714285714285,-8.888142662731315,44.91949883254226,inf,-16.666666666666664,-0.5987127675497684,0.340136054421769,0.37562917887463876,0.8161044613710502,60f06a479c4f3ec0a536d40a
-6.573146292585156,23.058671798205264,3.0052264808362437,-23.006530197058133,-3.656510860194711,-24.40957243502917,1.1396011396011418,-14.229589881180585,5.816814764183188,17.231717626829404,-7.81049935979512,44.02328916706116,2.9197080291970763,-6.905390683759824,-6.682027649769585,110.8507582005059,6.015413158270313,-27.34981046016492,2.352941176470594,-7.575654816000429,2.2882231404958704,35.116620517820216,5.696202531645576,-25.247250912689157,,,10.241679062214269,-44.29604040574974,17.755339111786263,-57.679755525460244,1.1267605633802766,-5.400030830892573,-4.245945945945957,206.77894206752234,7.766666666666644,1.6544162835860226,0.5747126436781692,-15.237787123908092,-2.26764611945066,-3.4496843990056196,-0.8641975308641939,-5.873131701401115,2.4933687002652496,31.15144199691126,10.491505641291681,-30.169554840718188,4.002030298297702,-9.207741638553804,8.01707779886148,16.247532223221324,-12.0891749023213,39.207829409431,0.4644717596037736,9.929120249520617,1.8824760765550148,7.445582274808939,3.8121842565000263,-48.09779057101647,90.27220630372493,-85.7363873523989,-2.278095238095228,-47.166289536883866,16.492015968063882,-43.50582274918201,14.411166036638562,-36.78842034427182,1.5974440894568638,-6.970830216903519,0.0,184.64730290456436,inf,3.2707272833655106,1.5655577299412953,-1.7144884791147046,3.406309015877452,-19.406360424028215,3.465475040703525,83.71347088532634,5.066136874575227,-44.743876227646645,19.272908810498055,13.64017110896356,-0.31074524341712917,-22.361632816212644,5.5555555555555545,-17.66969339142475,4.475421863536297,-25.434886303982395,-20.00000000000001,8.611295681063119,18.181818181818187,-6.25,-100.0,14.285714285714285,1.1299435028248481,29.80755523877397,inf,0.0,0.7932944170034383,0.680272108843538,1.0742994515815252,-0.5984766050054473,63ced242b56ce9d796f4398b
-2.233820459290179,5.027093113731844,-13.279742432398853,12.211260654292055,-21.714356496965213,8.152309572512694,-1.5669515669515615,6.554235339210409,-10.039805395842547,85.1408190461259,-5.203538550057525,12.05731478542391,-5.864585955197586,29.18366928911169,-9.512945670628177,112.77424502085292,5.006641086186552,-27.326393975392836,-1.6470588235294108,0.23873146779162638,-5.768270944741526,21.23739776740031,1.3333333333333264,-21.50278824528116,,,-0.09053519232262575,-20.302012598433457,12.723851150367278,-63.92127170472598,-1.5492957746478822,2.4818868506243277,-12.00960698689957,426.1994815210089,-1.6666666666666856,41.56198529954015,-4.5045870159209915,31.190253977233944,-6.152311273694702,-10.637035404415988,-4.10256410256412,-14.146807094716976,5.464190981432354,1.0727822556845572,7.53469070159513,503.7422434367553,-1.6320474777448104,-38.01956095295215,-4.653979238754306,60.87940711339888,-1.167392164622081,12.36865162182542,4.784930524190347,-12.233922906283789,5.169007562895506,-24.85682251169629,2.373860778683396,45.800338138102006,32.65693430656934,-42.422754599662646,-0.5219098616689092,8.03822043282392,-6.015608064166464,23.204236006051417,0.30414643674313874,11.726376485773901,-1.2779552715655058,2.486910994764402,-24.999999999999993,77.59336099585066,inf,-0.3858024691357903,3.903022396173075,-24.032608140764175,-1.7124356373849177,2.393585213373182,0.0061016535481196715,25.812194036493075,8.560483276852816,-59.37862154488129,-3.204708960104647,32.22209065570666,-1.7161121279976488,63.56061598657716,13.242574257425755,18.201066818681515,-1.1494252873563238,-12.521591238988186,10.000000000000002,-6.1794019933554845,18.181818181818187,-35.28708133971292,-100.0,14.285714285714285,-3.3110762464792254,4.346088693914805,inf,-12.5,0.26942074539738253,-0.5668934240362817,0.8639471114116077,-0.217627856365615,6116920ff5bcc6aa24f00927
-3.3062880324543484,7.555616382048283,-4.269845542258485,-5.840811444331684,-7.504975998126692,4.394492944368592,0.9971509971510106,-3.5214641625143943,2.410042964554256,19.03205866030196,-4.264959723820462,8.921088425983138,1.7987486965589075,3.360618969081898,-4.700205522294699,94.56074892299229,3.1105990783410182,-15.577305200842748,1.4117647058823668,-2.689798299038274,-4.147727272727271,17.847966629778337,6.396177382848521,-37.464283362991004,,,4.994485583740338,-28.30800125398562,4.038590653005227,-8.051788220937814,29.991891927236576,8.186372745491001,-4.437837837837864,181.7253641222574,5.338680926916198,-26.97829346837447,-4.5045870159209915,18.964081386991396,-3.4838709677419435,-8.909825229773274,-4.938271604938272,-7.470830517663564,4.059229590302271,23.976604579907047,0.9985734664764746,561.9483241672732,1.038575667655784,-5.819339381490753,1.029411764705888,-43.41478288732471,-1.0263929618768213,10.155034939466773,-3.912323180833424,15.697764754489258,-3.2620320855614913,17.566955620319803,4.456980432006263,-1.8163228483792409,59.771428571428544,-72.9007909654388,1.4632545931758583,-28.826040884716384,14.114627887082978,-33.43772062531521,2.0961975950601217,-12.223039296118854,1.5974440894568638,-2.3934181002243955,0.0,197.92531120331958,inf,7.291666666666672,1.956947162426613,-7.347314068667083,-2.119786906805156,-0.9611307420493885,0.0,14.394950843548985,6.20816010147278,-41.09224271428894,-3.416283366749228,9.855161611914328,0.5400671434826706,79.95012455844885,11.111111111111109,18.613607188703448,-3.177822853279249,-10.324144764279781,1.9999999999999927,-20.606985723264806,26.38888888888888,-33.01435406698563,0.0,-2.85714285714286,1.1163251425362988,11.22835004257926,inf,-12.5,-0.5987127675497684,-0.340136054421769,2.732076227681317,1.8498367791077275,5d9b4e21b56c51035c35cb3d
2.375000000000009,-6.124626692024838,-2.5179211469534146,-2.082285789255101,-16.40211640211643,1.058333128795427,0.14245014245014437,3.578957454963535,-2.870227351060163,17.24687196193034,-3.607269451420799,14.9791274535269,-0.35192909280501367,26.37532757940321,-4.217674917344287,84.2457563965449,3.318903318903322,-17.182433910881223,-0.7058823529411662,1.5381902527027096,-4.943181818181807,33.8661532670584,0.9650332121819702,-8.549350486298149,,,2.020228148684642,-17.564575761131678,-3.2774722876843807,24.5981039953478,0.14084507042254044,1.3604131339602281,-3.7123287671232865,77.32536922393949,-1.8518518518518674,16.053737800830785,-0.5724229518706694,14.590747330960859,-10.752688172043003,26.173866753128134,-12.000000000000018,24.030309025645515,4.378429681070058,79.61926823815429,9.402152768771902,471.8688388502656,0.1483679525222566,87.24716082198505,-2.9411764705882226,2.5763072756777157,-19.376589350389146,48.93978500165003,-7.451140584908787,28.660485697334657,-1.2366641622839978,5.126076470593018,1.232999554475209,-30.7562075258496,61.15273775216137,-69.94686850260877,-1.0188034188034276,-8.851474707277951,7.465091299677767,-30.967022012689245,6.772227601526461,-22.204472238525764,1.277955271565491,0.37397157816004345,-24.999999999999993,72.61410788381744,inf,9.394290123456784,-4.256360078277894,-41.75590326712364,7.524389065971215,-49.948174322732584,7.120500782472629,29.323947080956437,5.193432457191184,-58.812569640215095,-4.812674450603456,60.02172000289453,-4.079652517705116,41.34565352765199,0.0,2.84552845528455,2.4211298606016016,-13.286330016039841,-5.000000000000001,14.61794019933554,-6.862745098039233,-14.285714285714294,-100.0,14.285714285714285,-5.190677966101707,49.37728937728929,inf,0.0,0.13471037269869957,0.5668934240362817,2.9875040693162216,2.094668117519041,5fdb9ccbe6b281016f79a732
3.4782608695652235,-18.443070754161447,7.401265435248494,-20.73844771991393,-16.40211640211643,10.832713158980571,-7.419278252611582,129.067650440782,-8.030169738178145,59.60983056499241,-9.635740971357395,61.1024156989047,2.830067870405941,4.074497542943678,-9.013736687760462,117.5387019426942,0.98999361294444,-18.0235023245163,1.6470588235294108,-0.6253136741586779,2.773152649489549,-38.90085625049759,-3.184713375796188,14.829431836922776,,,4.205053361306203,-20.438478930495542,10.201047921817976,-52.86111447189887,1.1267605633802766,1.1908432249113812,-4.245945945945957,189.1362153173062,3.312937062937039,-6.466481476929181,-7.6309067688378045,124.25320823897346,-3.2258064516129012,-18.205471024408784,-5.333333333333325,-13.729222926532229,8.296610795244783,-23.104351147641594,10.491505641291681,-75.39234201514998,-4.0312658319461425,-0.5126146406545714,-1.942041522491342,-9.253516904917012,4.335729190818461,0.7196999034890844,1.3816592763961295,12.129127743509871,2.953422195596813,12.812478388312718,-1.2048192771084563,85.39390415856391,69.75714285714285,-85.76360284021813,-1.2269938650306629,83.24079749591479,21.61089661089662,-46.53995004046019,1.2593435164120923,12.428510527696723,6.760693861608244,-6.36873597606585,-24.999999999999993,146.8879668049793,inf,-48.40303376045873,1.956947162426613,-35.91306407770113,-3.183702266513784,4.058892815076545,6.1793582636761695,-0.795012277838615,10.487498406570403,-73.19605204673735,-3.731916427642205,25.84572206427919,2.9581562692169947,4.799339853237117,16.666666666666664,18.613607188703448,3.7356321839080517,-17.00811582238537,1.9999999999999927,-25.29406482894856,12.74509803921567,-14.285714285714294,33.33333333333333,-8.571428571428566,-3.7858990821775684,16.955218694349135,inf,-22.72727272727273,-0.16464601107618468,2.040816326530614,2.429068690055803,0.5984766050054352,60febbf6684ed23d1eec2db6
0.2783725910064318,-8.929744674882237,-8.77479398732867,18.681230794069357,-21.8502690724913,12.626965937261344,-11.46723646723647,141.60118819471072,-3.7593984962405966,28.46240119109917,-2.9913101604277887,30.561467477752647,-5.62171852990141,-3.597724060939036,-7.587689195535169,113.7474980779225,-1.2012987012987058,-10.0931998010193,-4.47058823529411,6.004910272235266,-2.285640495867771,1.734455296511005,2.3986269040978385,-15.115714071097905,,,-2.201298533329907,-2.6127912276648213,8.394675499938655,-40.77729165609645,-3.2394366197183047,5.929551410513339,-5.2448598130841315,241.53472579077072,7.405303030303003,-38.618205953932176,-12.462538097927583,141.87911422172022,-1.62953109411372,-21.71351234921804,1.5384615384615306,-26.833328622707082,11.064377528233384,44.3530953478849,8.553606892114928,-31.77669399190618,5.11869436201781,39.97687102911321,-0.21139705882351603,45.84793326924865,-13.613821788513835,33.01998782852448,-8.19153146022954,21.92735114926501,-5.999382620774799,24.65662469008144,-1.412550868615498,18.817747479310835,24.26666666666665,-26.389093209368042,-7.090307328605203,15.564591387198426,0.792422232050723,0.12039545438552782,2.995866386633322,0.3860121238637586,22.60383386581469,-23.38070306656696,2.6508972267536848,137.05240510219772,inf,-2.125021941372642,-11.471437890224598,33.55938600400707,7.7604988355495506,-28.746942103832545,6.765407338432181,-54.88620354386181,6.438780020627662,-53.569333747369186,-1.5077211587131778,25.962345972975353,-4.589528118939894,11.411017428348933,-16.666666666666664,-3.6264441591784378,-7.310344827586217,6.5873724757411285,-5.000000000000001,8.943521594684361,30.0,-35.79545454545455,-100.0,14.285714285714285,-5.3716383517191835,74.3665030621551,inf,0.0,-2.3499476126328296,-1.8140589569161012,1.5801467457992517,1.904243743199125,654ce65838678c566569c723
-2.05702647657841,14.01479214827871,-0.876129879311212,-7.385677276940231,-8.069499618795401,-2.5328584349192025,-7.54985754985756,40.432157914909915,-6.397349305467055,48.52800703255352,-2.6141260436304785,39.920429488259614,1.057135665743753,-8.828606408920283,-6.886672325976219,99.9845777442756,1.7837296007866112,-8.87122395003451,2.117647058823533,-2.295077519905592,-3.3522727272727217,19.837363385638504,9.76127771642171,-27.29468444612795,,,4.994485583740338,-28.508385630059795,8.256193246936432,-50.62246558661799,0.9859154929577517,0.9935255125635929,-1.254377880184325,24.813140615929385,-0.959595959595983,-17.295164581233593,-8.15772669220945,38.02816080396153,3.0967741935484026,-24.007215038099353,5.92592592592592,-28.028551533822725,-4.027172709148633,59.65558834273333,0.9985734664764746,-41.18128048147767,-1.6320474777447982,-10.942918703764528,-2.084775086505175,-6.147477441161039,-3.772058256916074,6.560963939994199,-3.912323180833424,12.565390689148145,-4.314103514756035,31.89577423741497,0.43940426154447065,-13.275549295695857,59.771428571428544,-70.69504923306266,-6.110326797385604,-6.808859875578577,24.36890418818132,-57.764615510912506,3.4909543928068576,-12.707872766341618,1.1182108626198046,2.902019446522057,0.0,-13.27800829875522,inf,-48.057457141185424,-8.638523902711771,57.78818417355973,4.608707957922555,30.815438977983224,3.145655826780996,-28.28822268074605,1.1345218800648473,-26.463383200293865,-1.1894803094401636,14.070000463522378,-1.4028056112224467,31.997912890360418,-16.666666666666664,2.84552845528455,-0.9655172413793258,-14.176013236061102,-20.666666666666668,15.803178593876261,-16.66666666666668,3.0303030303030276,33.33333333333333,0.0,-1.1083449851652387,43.393707741533824,inf,-25.0,1.3321359077982367,-1.1337868480725635,1.4474244359302013,1.3601741022850877,64f9f86e6bf2358fd13945f1
-0.019920318725108535,-24.556731682371353,4.985286049179523,10.458788634744746,10.904661629299301,-15.079660951800522,3.9886039886039892,-28.372939823687222,-1.7391304347826104,28.309191592290983,-7.467532467532467,56.34532223167425,-3.8438898045679295,17.17477309750988,-8.319185059422738,79.08950169872989,3.520698051948041,-16.600846342221264,5.882352941176476,-12.560530634944323,-5.791276737967908,5.40687689049531,16.217823464446504,-86.48893202204606,,,11.821369553826926,-61.085913776300636,17.053152683689436,-66.83334439140907,3.943661971830991,-10.75843995683674,-7.121030042918472,291.92428445826096,12.529614219372586,73.07701762580179,4.214559386973179,8.00172543944792,11.807077983087993,-43.547851457913005,17.333333333333325,-50.33007330248901,2.389735364875709,-33.17974876298579,-4.136947218259633,364.2212306734468,-1.2086560034739715,6.529447608159396,0.9126297577854794,-60.59619419723609,12.134712678396129,-24.658070709196174,10.68279836647457,-42.756967192451654,6.983870967741936,-34.193224853259274,3.2355533173863638,-54.84928548550212,45.22160664819943,-57.11127211564866,0.598802395209581,-71.98257828135178,23.054163185742137,-59.05621034608127,4.143646408839784,2.6746017843229697,4.313099041533532,-12.183994016454767,0.0,16.59751037344399,inf,-41.45858931601429,-5.294111556342485,-37.758697234540115,8.137176281900105,-24.423484642565903,4.454678653901502,-37.82821539830892,8.41219218905214,-26.043258624223935,2.038369304556358,-16.477888790323103,4.483472401306178,-64.09156210149048,22.112211221122113,-36.87419768934532,6.68543279380717,-39.23255509244947,1.9999999999999927,-10.04040585435935,17.64705882352939,-21.428571428571427,-100.0,14.285714285714285,2.935835351089584,73.79750684098504,inf,0.0,2.2601406975003746,-0.22675736961451265,4.78801993338847,1.6322089227421126,6507355f07adea6bb9abb279
-2.17391304347825,1.1542924186819326,1.490052826795555,-15.169190204445679,0.9750812567713852,-5.399119873038416,-16.22835853605084,167.31506324262176,-7.04967547072811,55.91921522077512,-1.4328063241106546,2.967462658524814,-8.667883211678843,38.82823540522032,-3.88301659455611,54.55371293826585,-4.2780748663101695,10.69432975707857,-2.1176470588235157,3.841406345373905,-1.2045454545454688,64.96952372102274,5.4712140964716625,-21.084711384680283,,,0.9648464781809946,-2.1237259861465714,5.087719298245612,-7.761546257231721,-0.7042253521126709,1.33960228148605,-5.505454545454567,176.35082455933187,7.999381570810127,-32.311512082401386,-18.245555943041865,177.87321520622567,-4.946236559139769,13.496559957234094,-3.952802359882017,6.1540896043727065,2.8275862068965387,32.2882060868457,-4.957357055830719,76.88077202448913,-0.7418397626112708,-43.00756613708721,2.518382352941178,-47.77409118629003,-7.621021349808396,19.20690689542405,-2.8400015582998765,11.323432892046412,-3.4762911507097676,22.10287360693197,3.0854068529651766,5.718276163936813,41.82608695652173,-55.980971225138276,-0.48250591016549826,-9.847431956159157,11.02185555073094,-29.001348673023013,3.069680911038463,-4.344122487965679,-0.3194888178913877,1.6230366492146364,0.0,-3.3195020746887653,inf,-44.245143642852966,-10.054980896468171,-8.536944210705705,-5.443363528465059,16.5639213554408,4.050442281401883,-24.189828862726095,4.178704812909604,-50.38430235980118,-5.1214473965382155,33.76305515205223,3.0327960809244057,-29.616334525265064,0.0,10.670731707317062,1.8464844561222757,8.452375956886844,1.9999999999999927,12.325042650624015,-27.7777777777778,3.962703962703973,-100.0,14.285714285714285,-1.2797419725192682,116.18659601268295,inf,0.0,-0.6885196826822404,-1.9274376417233576,0.8639471114115946,1.3329706202393887,5eceef5fa487421604c337ba
0.8695652173913289,-3.5974014997847825,-10.01654259718775,7.203094543624509,1.4405521447774796,-22.163238454587418,0.2849002849002755,-3.047144499808331,-6.171951618175869,42.796223921880404,-8.163265306122444,50.94840103517723,2.874087591240868,-26.87247253729432,-12.58863477479277,111.45939369730384,-1.3583713583713537,6.29239814498908,0.0,-1.546328825468286,-7.456696117182041,89.1956764077238,1.9746835443037971,-17.3467537370585,,,1.2645227549906923,-10.120347397153516,4.91139762157071,-2.3298975241619893,0.2816901408450652,-1.1561584707877244,-3.5178082191780855,72.764095350434,11.60050340015896,32.65567000172068,-0.19157088122606084,-2.7300998831247676,0.6318589956767552,-7.553430854442842,1.5384615384615306,-8.82155548304046,-9.153605015673987,85.59336961404583,4.704188207997341,435.04078032582845,6.030956772796546,-24.185944915643216,0.29411764705881976,-42.71967089418799,5.2631578947368505,-6.987127098315591,-4.907071768006038,19.697522678193042,-7.740641711229938,47.102349077017216,1.6833113619352187,-26.65777107655755,40.40172166427545,-53.15448344513752,-2.0397293167430677,-13.698354494485068,4.761904761904791,-7.434354806553362,0.0,-9.991090248251314,0.6389776357827455,-0.9573672400897548,-50.0,158.50622406639008,inf,-36.98986308583465,6.588388780169592,-30.59263828876816,6.461895102868742,-25.188910029899446,4.681069958847758,-6.299308168467036,6.691363741606862,-57.278607540728785,-2.926929979195465,46.8535133713847,4.226634580542028,16.68675394001238,0.0,8.93506632434745,0.5747126436781619,-2.7437251599057975,-9.333333333333337,6.904911556074344,16.666666666666664,-19.696969696969692,33.33333333333333,-8.571428571428566,-13.317191283292997,80.93008440834524,inf,0.0,0.32929202215236936,-0.5668934240362817,3.696191120126344,1.4417845484221963,5f600669b846780f0fe45709
-6.524390243902451,23.646044874030895,5.998540754638318,-17.610738513162065,-24.97625830959166,24.67102201182859,-0.2849002849002755,5.088156381755436,-1.2599065230644237,17.098175791442237,-1.685556043082678,38.49253370835925,-2.804456396465617,-1.4027312617836023,-5.931663837011877,86.07246822666339,4.413383226942555,-39.67799360945943,3.2048681541582336,-4.439397668105111,-5.797872340425521,133.12734988905163,-2.2099678322262615,16.59499243259866,,,4.356569251326274,-28.982586432771402,9.913175796634437,-41.468876720669066,-0.2816901408450652,1.9315554185293669,-3.661467889908275,107.47421079244344,3.9215686274509687,-46.0901202094448,-0.010685228434910968,23.7679283942629,5.154639175257737,-36.81090215754411,4.358974358974348,-32.57467413172452,0.9584287085579426,-15.46996172632758,8.935287251977728,475.8509909722952,2.4793065750429553,75.20248163703896,-0.29411764705881976,-8.656599171033767,-13.54215183977642,39.03979363331614,-1.5037593984962359,11.688123734049704,1.413636363636371,-3.756842430408146,-3.306844398872107,-20.959962229486155,61.85238784370474,-71.72261778666983,-6.097560975609775,-30.585792194714585,20.85960716097705,-36.31007751937984,-4.440738038152809,27.90800785315349,26.59744408945688,-19.644727000747956,0.0,-4.979253112033219,inf,2.488425925925917,3.150772950119847,-62.41340192348397,-13.608580325221991,46.79623085983514,5.190401669274925,50.84759477282843,8.739278495074034,-46.674419690244385,-4.966553073330809,27.740122454587883,5.76970015583634,-15.154567880666825,11.111111111111109,16.142490372272135,0.21111893033074297,-14.391904216682342,-20.00000000000001,15.299991020921219,0.0,0.0,33.33333333333333,0.0,-3.1734583483591825,29.71845545758586,inf,0.0,-0.41909893728484127,-0.4535147392290253,2.774647534620472,1.30576713819369,605b98c83da1ded576bcf096
-0.9433962264150935,9.011842858875719,-6.309247878878099,15.240751003668057,-23.96242396242397,25.197479413839137,-16.951566951566953,175.43599080107327,-3.9607082221683214,63.03959792240732,-6.309599491417658,50.804744376687616,-3.788069468915192,30.33859146758947,-7.841680814940574,124.93718350148824,-4.091263927329509,-3.6570840248942313,-3.2941176470588216,6.276196031089359,-1.6111111111111167,17.02361068803098,-1.603925287593283,22.73382390665366,,,-2.7944692532479998,11.940971555545197,8.33785494664495,-57.658211792071825,-1.5492957746478822,4.420379219978425,-4.1500000000000155,125.67051116795191,9.412878787878782,-0.07006071929024767,-19.19618901347161,189.75717940335716,-6.295020357031017,-12.276676036865709,-4.4648318042813555,-16.53830638426889,2.103448275862072,10.577308111412902,7.53469070159513,477.16758327280377,-6.712745168994708,18.55977862565409,-10.220588235294102,14.57151126133098,-15.161036920659859,43.36336061335459,-10.084489574451599,41.01771385383716,-6.809090909090902,38.36627937372319,-4.547090001481541,-23.96570504467303,11.75872093023255,-19.637322976736886,-7.880000000000005,-28.953499218871215,19.717948717948733,-49.53964512308108,-2.0880727981800398,0.5550884727717589,-0.7987220447284468,4.057591623036625,-24.999999999999993,70.95435684647306,inf,-1.5432098765432098,-7.7473363774733714,49.775409989336865,-0.5826935182744079,7.110627888013058,-1.9804526748971212,6.064651859044351,9.987145811211084,-32.33741483344194,-4.326973204045473,15.687709417444998,0.9415137292375061,-10.230770810429561,-4.761904761904764,1.7276422764227652,-8.045977011494266,25.589118615009255,-10.000000000000002,-4.580407650175106,-16.66666666666668,3.0303030303030276,-100.0,14.285714285714285,-5.2680733310273276,78.48702022615063,inf,-19.999999999999996,-0.5987127675497684,-1.9274376417233576,1.5626173841184416,1.6322089227421126,60a2541c0e5a829853aad745
-2.84848484848485,16.192645390063518,1.0484963720604878,-11.895011373460733,-26.00398079850136,24.617301868766305,1.5669515669515615,-1.4517056343426982,4.326946398253698,4.949124030643379,-1.2162426854050645,23.50299569813173,-3.377458864283065,1.8071252946949827,-6.192568218017599,104.59984548215147,1.7045454545454461,-20.820273769400078,0.9411764705882446,-0.6334522469242813,-0.9750639386189188,-6.608592251457296,-7.473998226235587,22.72859518909369,,,0.9905248643246447,-14.160207702695402,11.776719856592909,-65.52032149078474,29.27171524065909,12.02173577925081,-4.910714285714295,211.75896528017475,10.621521335807046,-53.291624671206485,1.5325670498084336,5.413566267658821,2.0000000000000067,-15.99338275142895,2.8037383177570043,-19.216040453145116,3.145500420521457,-26.025610299313318,1.5691868758915726,-35.860952578603325,-8.360361603754038,6.688939178782799,-9.892686804451511,11.429294965218517,3.878116343490313,-4.290738102104726,2.6970155764838735,-0.15685651487010716,0.3208556149732661,19.396631033537165,-0.9262102641363661,15.612522143787459,-1.5492957746478975,0.5636793378054924,-5.166859344894022,12.282809376774626,3.3671456748380124,-2.037188192660913,0.4063960900977636,4.07691936743996,2.076677316293923,-1.394913986537047,0.0,-4.979253112033219,inf,-46.358829208355274,1.956947162426613,-33.38997555923806,2.0283975659229214,-21.564193168433437,6.755250811858896,-35.939574840699926,13.921645336164975,-67.61976087402148,-1.931086709579699,-7.697134099325815,-0.9076868886661247,46.31167870312278,18.193069306930692,14.125167962864927,2.298850574712633,-12.230174654238915,1.9999999999999927,-8.844392565322812,12.74509803921567,-35.064935064935064,22.222222222222225,0.0,-7.1255620892424725,74.77490625316709,inf,0.0,1.2423289926657648,0.340136054421769,2.3639596323842262,2.93797606093579,61684bae4ac887b438246ff6
-2.651821862348172,26.08509172909778,1.579996932044784,-12.489722014927748,12.535612535612534,-46.44471423694889,-14.420337497260574,148.54350325795326,-0.8771929824561495,14.610801912675333,-0.7133377571333749,7.491378571801594,-4.480241631009323,-1.3969975682394011,-2.8278862478777556,51.77466003925755,1.2358609132802736,-15.639220270453164,2.8235294117647163,-8.085672042646122,3.119834710743793,5.500293413116068,5.533211972397447,-24.168779658689434,,,9.564558058925456,-52.930604351263746,15.18889973669418,-34.97599096620263,1.4084507042253573,-5.780792353938654,-5.100892857142865,248.83033657523254,5.811051693404642,-42.52316920278286,-14.24992631889183,149.19659225709057,3.030303030303032,-14.81414355120677,2.8037383177570043,-14.423560668155217,7.172413793103447,31.032431213203925,1.4265335235378012,39.87547992113752,4.306575042948632,9.91841141490697,4.793198529411772,5.385179902219157,-4.192880159582618,22.381527002578437,-5.293536872484223,20.137959087764955,-8.931085043988258,43.837498446068125,-0.8140241747366976,20.94384635432318,59.0896159317212,-55.427834824055566,-3.8865248226950215,21.014269836538134,21.24679213002567,-59.277509997771816,3.9521907991904195,-11.46307121284325,1.4376996805111775,-5.587135377711308,-24.999999999999993,89.2116182572614,inf,-41.50430050903986,10.885287382684897,-33.28112927677489,1.7565372224720832,-11.252514270182107,3.8806095025812475,84.36213864513167,2.8542182035315236,-26.02621009070225,1.8143061308528914,38.510490628741806,-0.0643821579811535,-3.056909891875949,16.666666666666664,-10.569105691056938,-0.1379310344827484,-21.454390996464088,10.000000000000002,10.963455149501652,-16.66666666666668,3.0303030303030276,-100.0,14.285714285714285,-3.8553354022439805,63.48833774920727,inf,-25.0,-0.5388414907947983,-0.4535147392290253,2.2086995717828586,1.1153427638737738,5c8bafb53b6f3d00013d7c30
0.24691358024692767,0.30244781888014377,-11.196203776553878,45.6646212797591,-21.97530864197532,21.790279340112864,0.7122507122507218,82.54120352625532,0.751879699248122,45.27393160261384,-3.571428571428561,23.320242999257694,7.0559610705596025,-10.109513546694195,-7.6246334310850425,96.6705376662758,3.667953667953683,-28.711753146272645,-0.2352941176470439,-0.13157359304420488,-4.147727272727271,69.61538231609389,-0.37278276186965764,0.1916786181282193,,,2.7238159290203887,-9.509236785883981,8.620079610791684,-38.6130050776082,0.7042253521126709,-2.1149992292276925,-4.198190045248875,133.76511116112218,7.284848484848465,-17.008776026942783,-1.1341606753064277,105.0145583953414,2.223614155966161,-26.856458356197177,3.99999999999999,-28.42953716812567,2.516429151591228,30.50545874532262,-7.165587622078337,86.09193732489396,3.545213181321264,-8.86422221414912,7.547438330170786,-21.93866476479899,2.026974653127673,3.101277238672174,-0.854700854700848,2.2393994098521763,-0.8223684210526226,-5.4286410517325425,-6.801883151052859,40.946786685644994,49.78571428571426,-61.81801910478208,-7.8971354166666785,40.16354121944376,19.405656999641987,-41.215576587036345,4.040404040404051,-23.337072239049572,1.277955271565491,-4.775617053103972,-24.999999999999993,87.55186721991703,inf,5.574845679012337,-4.256360078277894,-9.52814014462557,4.401150997688577,-53.46760895170791,4.700951892980877,-16.57893468715541,9.963032433121489,-50.48902906572007,-6.576932002784884,47.07823402682411,4.743898913943832,-40.217555727360434,16.666666666666664,-18.453520094466402,3.9069624653501824,-3.7505076344482595,1.9999999999999927,-5.755589476519717,21.657754010695168,-30.451127819548862,33.33333333333333,0.0,-8.05430646835006,99.76023976023973,inf,0.0,0.9429726088908803,0.4535147392290253,-0.34557884456457777,0.5984766050054352,60513ec07ee46769ed029be4
-2.17391304347825,7.745703946900435,-0.14030946761080793,-15.982890018982406,-16.754478398314017,7.686055779106472,-0.7122507122507086,4.556343426600253,-2.9856900315304387,28.078656949081005,-3.9813603662524373,47.32510171015502,-2.804456396465617,9.34463882789811,-6.409168081494054,101.48324785994384,-0.6388772517804713,1.2826268951873951,-0.7058823529411662,0.37844363360146144,-1.454028925619835,22.1216013804162,1.3677682439894676,0.39213540303421646,,,1.9012001407331134,-24.41991519580826,7.232366630862865,-47.62632550551669,-0.7042253521126709,1.7273007553568631,-7.953571428571436,195.85932688244844,-0.7575757575757639,6.7270581872709565,-2.2576361221779444,31.00399007872323,-8.424678985280293,8.40790557608055,-5.333333333333325,0.6710586832686258,1.0260723296888272,-25.61426851689412,-8.482387797651695,72.79111756770801,-0.7418397626112708,-41.39319101525098,2.518382352941178,-46.55183106452916,-7.621021349808396,18.52577528926032,-3.759398496240597,9.196132701468468,-1.3272727272727112,7.550237020396958,-5.499713853762183,-10.469242378255714,62.55813953488371,-71.47179396649797,-8.7920792079208,-11.85180483158561,8.443529156730985,-11.406830149292235,2.0285730230481844,-2.319092983266196,1.4376996805111775,-1.5818997756170599,-24.999999999999993,77.59336099585066,inf,6.905864197530867,-4.442270058708424,-26.086426572459914,0.6814504182145623,-10.692579505300353,0.7071286971248799,-7.367398956184043,0.3975091700076751,-27.647850362585746,-1.1990407673860928,-2.4623702846782924,2.361337873769638,-17.194243210169073,16.955445544554454,20.731707317073145,1.247248716067499,-15.667810492079044,-9.333333333333337,-7.317949178414311,-16.66666666666668,3.0303030303030276,-100.0,14.285714285714285,-5.2680733310273276,47.8449087144739,inf,0.0,0.08980691513245531,-0.22675736961451265,3.8163924573661174,3.0739934711643087,6511fd9e06231927b6398700
2.364016736401693,-16.97628971745304,0.26728110599077115,-1.4165109463186487,0.5417118093174326,-14.325541288329443,-8.72507122507124,124.91376006132624,-10.75377519428826,90.89298312411114,-2.877697841726606,16.95294272153083,2.1571949947862326,-24.084885646541398,-7.6175461695713915,85.81985999974226,-1.5419343737331686,-3.1758584449265492,-1.4117647058823495,0.37030506083583126,-5.196552508817834,80.62138900766197,12.513687530112557,-61.593729219179934,,,-0.34662045060658553,-5.992634078737582,2.4384490638360607,-18.29786292929724,-0.2816901408450652,-0.3946354246955605,-2.3750000000000067,136.60008286118767,10.918560606060602,-36.461073281054176,-11.947611851444803,144.0879138499829,-1.1817310763334399,-16.067963618794224,-1.3084112149532612,-14.817428974462391,4.999999999999993,11.299667008931905,8.935287251977728,-63.499429282971874,-2.9339762611275857,-35.80601231764961,-6.268907563025203,-13.974593527447935,0.2971768202080284,-3.250073940098682,-1.5037593984962359,14.820497799390859,-0.7444880700694618,35.97027850486382,3.167388080993837,-30.68837165787901,51.517341040462426,-59.09175051979132,-3.507301587301577,-31.673376279620634,13.091630591630624,-23.622770291665233,3.4655951783023635,-25.05083242163606,0.15974440894568637,0.3328347045624495,11.561382598331349,120.33195020746892,inf,-43.85934117371716,-1.6307893020221902,-39.84830781708612,1.9701102795458363,-14.244269276071408,8.477096648713168,-39.276611239228075,7.358184764991907,-58.696071327816945,-4.966553073330809,60.091932303418524,5.877573834599288,-72.77418115799307,16.82539682539682,-10.569105691056938,-1.4367816091954044,2.064794698039514,12.372881355932202,-7.946484690670731,-6.862745098039233,-14.492753623188412,-100.0,14.285714285714285,0.44243317727947407,17.211931678334796,inf,-25.0,-0.13471037269869957,0.9070294784580506,0.8038464427916817,1.8226332970620165,6505e1d7baa4d89f7a2f3b53
-2.17391304347825,12.715729573110007,-0.14030946761080793,22.02584582250899,2.4175824175823983,-6.406009043179589,-0.7122507122507086,11.699885013415111,-3.5172677456352797,56.480292459754665,-5.0850228907782675,40.51370222385503,1.459854014598531,-3.4567426549699207,-9.245253897206366,101.64545670278875,-0.8222755505364179,-8.161904388369615,-0.9411764705882273,3.3395276914938417,1.4566115702479212,-13.204674336356081,3.304731968396902,8.500075897785935,,,2.8517409799905478,-10.8191642592912,4.0208388992786555,-22.009655651522323,-0.7042253521126709,4.441190072452604,-3.61013824884793,78.60803078782693,7.999381570810127,-2.6795152289880675,-1.9157088122605286,15.894153616573577,-2.387096774193547,-3.347110091262664,-2.2222222222222197,-4.8082047118252955,-3.630590778194699,57.20511257468299,5.754230210083292,396.4872885752835,4.93624187986207,46.772584869353196,5.981973434535099,-45.39675648857337,-2.0511412659816397,0.7961265830449349,-6.498665187840954,20.717845029424794,-6.673178061607819,34.63653413953292,-7.949353870251942,24.89992849648813,72.96943231441048,-89.42347299046726,-8.247011952191235,33.03336735747832,11.02185555073094,-42.10348426743599,4.913044877797552,-26.42024996979659,25.000000000000018,-13.152580403889322,-24.999999999999993,60.99585062240666,inf,-48.754095722895094,-10.054980896468171,88.57831741328283,0.40567951318459206,1.3262661955241435,5.643066993272379,6.182727326843067,1.6310907272664572,-53.92471448780321,-4.572236250734527,23.901361383084982,1.6926428691134472,-38.631977145918114,-16.666666666666664,3.0808729139922897,1.247248716067499,-4.1617889235338605,-20.666666666666668,2.1819161354044945,12.74509803921567,-16.666666666666664,-100.0,14.285714285714285,-7.255456407998781,76.07522911870733,inf,0.0,-0.942972608890897,-1.4739229024943323,2.296346380186844,1.9586507072905348,60b7bb77c573c1a28d072811
1.911764705882364,-23.075371952271954,-7.648556876061119,36.634652317136,-8.754908754908767,-0.5682757547564216,16.463613445268532,130.03066308930627,-2.367761509035749,6.724133630733949,-0.7352941176470444,0.4039106402875285,1.0948905109489089,-17.737012340932175,-6.14779733714592,43.534117024821875,-5.756405756405757,6.15467673157009,-0.7058823529411662,1.5381902527027096,-6.958698372966208,95.95198381857881,2.616033755274254,-27.20667524955375,,,4.615384615384606,-30.045676164784616,1.0118043844856615,-12.789328046272269,32.38890553724235,1.550793895483285,-5.699090909090927,118.3537942318902,-4.804407713498636,72.90248039528974,16.679858119753852,121.90742881246139,-6.940371456500497,1.776095199886705,-5.4205607476635596,-4.399664946003345,14.458355437665787,-48.42440470006208,8.312799896252125,-78.03092248625106,5.529957980784929,1.6625079519446067,13.458417849898611,-21.633745749222246,-10.26042073981387,13.259320865922078,-8.152229889792974,26.530934672033712,-6.518663455749553,38.92934066148612,4.4593042890915005,-8.06920470720324,52.3982558139535,-60.40833039111844,-0.682742316784874,-34.323403022085756,-1.6436483959142365,14.921108491948996,-0.2762430939226543,5.079362731662383,-1.4376996805111923,10.736724008975305,-24.999999999999993,62.655601659751035,inf,5.536265432098767,-1.6307893020221902,5.4217078247721355,0.25001179300910903,8.321101748663606,8.713813436194824,-14.403042440425596,4.0095835388626595,-58.48012323654233,-4.2552004907701795,12.72040932854989,-4.010112297799862,59.59814462431886,0.0,-15.982028241335055,0.5747126436781619,-18.835439005445718,11.652542372881356,-24.67852257181944,26.38888888888888,-30.79289131920711,-100.0,14.285714285714285,-6.721760185282659,74.35613661700616,inf,0.0,-0.3891632989073562,-0.22675736961451265,3.5234016978439175,3.618063112078346,5d4dbe7df20feb00010b596d
3.6480686695278868,-20.151066362659655,-3.4010340564235184,-0.25115840072189066,-3.5409035409035545,-3.871915164480818,18.32838745967606,-32.26811038712145,-2.9001074113856036,35.76254035217736,-13.572343149807919,81.63124062060703,-7.2489302793858625,38.21817041211763,-9.973220380515642,101.35211170813628,4.413383226942555,-28.213352304915418,-3.5294117647058822,7.304369057146348,-1.2896405919661835,31.71633569645063,9.756840227935086,-36.53932811586804,,,0.7089963762407437,-3.443464180594893,0.7690459024272955,8.964742951777612,-2.3943661971830936,7.888854632341599,-2.7433962264150966,25.40773340914535,10.886524822695025,-24.352860198136675,17.12679413978699,-24.21706727756547,0.8145975887911371,-19.88372786683235,1.0062893081760953,-19.895269931730176,15.05747126436783,88.80526903352347,-2.4251069900142634,-1.3381757808444523,-2.5222551928783257,-25.19184084352552,-2.4999999999999996,-19.06260659245256,-14.39441978440076,29.431656248443545,-3.6011080332410073,3.7790182832343246,0.6864564007421321,-12.91115905461565,1.7109555742830973,46.365015403326524,54.87444608567207,-68.51787150366798,-2.7150537634408547,33.27015640527114,2.615384615384621,-2.4780752676822746,-3.7617809554761137,8.849723779207602,0.15974440894568637,2.6215407629020024,0.0,206.22406639004157,inf,-1.3991281961266122,-5.18590998043054,-13.82202238271335,3.15580923628474,-24.416961130742067,5.879934856485988,-39.7291995065672,0.8835677314790725,-36.97461595133863,-1.7903485430833432,24.33155721978589,2.2112183044480305,-54.79142931434584,11.111111111111109,18.613607188703448,0.9991017250545379,-2.184805611958253,-20.666666666666668,16.79985633474005,4.166666666666638,-29.505582137161095,0.0,0.0,0.0652759206389386,46.178053830227675,inf,0.0,0.01496781918874255,0.22675736961451265,1.0016778103322568,1.5505984766050038,5f913cbf314c3d000982e130
-3.713692946058087,10.071091495131533,-7.648556876061119,13.886482229280572,0.9750812567713852,-12.307238465104362,-9.769705603038943,137.1023380605597,-0.5481445549357171,49.25257267500739,-5.0850228907782675,34.11957072919508,-2.100140863106683,-10.213596948325902,-9.264348100047252,86.71935736037554,1.4637296405252391,-35.011358833584985,-1.1764705882352884,1.2750430666142327,-10.469052224371367,57.661455505082934,6.380956495442171,-20.648292634127014,,,-0.8306053020091304,-8.927855052227873,7.067111271329009,-47.023465236662325,-1.4084507042253573,4.229998458455369,-7.089592760181014,202.03285565408277,9.580176767676738,-0.8210624646625468,-12.977464344410361,155.97187804711433,-3.6168132942326374,-31.540222106960492,-1.761006289308175,-32.165697562379385,11.94780987884437,22.366334222157807,-1.4265335235378012,-18.61575178997613,9.446907372199211,33.1523577121916,12.789046653144034,43.82978283564338,-6.929561928774016,18.24274453626426,-4.770591991243283,16.37673622612093,0.5922865013774278,-4.273513026733992,0.6671580127044373,2.037189596510944,32.463556851311935,-44.43473922168609,-5.888888888888892,0.021149310982633805,9.272608125819136,-16.479423940705313,-4.5181682957926,33.20260356411641,-0.6389776357827605,3.8182498130142,-24.999999999999993,70.95435684647306,inf,-36.29870984728805,-0.7827788649706602,-27.33456311492668,-1.3241561638215826,31.98912748029357,7.0173446339760135,-41.25018779462498,5.97514856834145,-24.42811303177727,-4.089571152442602,14.658222367530316,1.4024338832523093,-24.73357970251178,24.324324324324316,-16.15853658536587,-2.8735632183907946,-2.196333193174088,1.9999999999999927,-16.620274759809647,37.878787878787875,-28.229665071770338,-33.333333333333336,2.85714285714286,-4.685925586151923,12.91024430231811,inf,0.0,-2.3948510701990906,-2.1541950113378703,1.2420804848120393,0.24483133841131385,61183bece4c3e63512e3eb5d
0.8523908523908679,0.43983876937934474,-0.5889984431759232,-17.816586608147066,-17.162121069132944,-1.5957314700704501,-0.14245014245014437,8.667113836719032,-0.13190871916633573,34.24365945256433,0.5598262032085713,26.691766491983476,-1.0688216892596494,-7.951958393621459,-1.9113861657264843,39.06109736664642,5.9018759018759015,-16.2854957121277,1.6470588235294108,-1.3984780868928075,3.3905919661733517,12.29593358281464,-2.8322255619999037,-1.0973461962988114,,,9.620092982311363,-43.71926891336329,14.069575648523019,-55.75669111151882,-0.14084507042254044,3.291968552489595,-4.730909090909106,91.8631465610343,12.10245468981484,-62.124191843457375,-0.19157088122606084,15.23778712390817,2.962475312705723,-13.194243634586819,3.7735849056603654,-14.824983105981365,7.172413793103447,-16.890535787662138,-0.14265335235377138,-33.21697623741831,-5.30144025475861,3.6923496190000766,-6.130252100840329,7.036393893350611,5.7330827067669325,-10.736707065217791,2.0315085808107636,-6.67734290840492,2.3272727272727405,-5.6622975530287345,3.712701417993367,5.44629551666289,86.68765156380297,-77.11557510493903,0.1182033096926743,-6.337392927672101,31.12712975098298,-78.91668718995184,0.0,-1.687096852221532,8.46070491035996,-9.334330590875087,-24.999999999999993,145.2282157676349,inf,3.819444444444447,-7.7473363774733714,17.42876989145908,2.9482522760507757,-39.18854761257586,4.967176797378348,-15.511024285356129,10.328569323707098,-54.84026132966384,2.0991426037252485,-16.336945436383846,6.778854581423875,-73.62354454038336,16.666666666666664,-16.548583682831843,5.649303008070414,-27.550720678519415,0.0,32.89036544850498,16.421568627450963,-24.39182194616977,22.222222222222225,0.0,-9.548373513001367,108.2367715439704,inf,0.0,-0.22451728783115488,-1.8140589569161012,-0.9490897252898657,-0.9793253536452674,608ab7f46594ee2bcc835f69
-2.8803245436105436,13.574953378899362,2.237302211731799,-12.509101587765734,-6.756206756206769,-13.705305188300661,11.410256410256386,185.13798390187816,0.4772801569140257,-7.966606568942594,-6.309599491417658,57.064080836834094,1.7735945703675187,3.5913158152132105,-6.409168081494054,81.27224079872516,2.088916374630661,-19.242082478565948,-0.2352941176470439,-0.9047380057783747,-5.791276737967908,67.73716570912532,4.1400342565902015,-20.637366489687416,,,1.3864818024263421,-10.073894031833715,9.136324899350544,-41.850367323256165,1.1267605633802766,-2.2984430399260023,-4.866367713004503,150.61847607002608,12.591540404040376,-43.97109073477728,11.224069240280244,175.50604632455182,1.3998782714546656,0.32868902479541806,6.4306784660766825,-8.959448419972519,-3.035717881763805,3.1812449711450093,3.8206085606724707,25.33319497769042,6.969283823883221,-29.173950099778274,8.01707779886148,-26.300557123218326,-6.646177487514401,28.78124255575145,-4.973582605161543,23.47847963819486,-3.419842799940662,14.579733782752868,-2.565605112464354,21.626136872422975,79.74285714285713,-81.81177915734966,-3.613281249999998,-13.89142235485119,16.317887394120596,-42.730617223140925,2.0961975950601217,-3.7417660289638546,27.5958466453674,16.364996260284208,-50.0,237.7593360995851,inf,-40.48996913580247,1.5655577299412953,52.27168307427037,3.406309015877452,-14.484551961583737,4.708468793853428,-1.7430175832461339,5.066136874575227,-26.002666877743753,-2.075962991982663,19.29521767645559,6.9694407537141885,-26.03813892063226,-5.5555555555555545,33.440308087291385,1.4367816091953902,1.0208791669913535,1.9999999999999927,-7.973421926910321,37.878787878787875,-28.030303030303028,-100.0,14.285714285714285,-8.534691492026386,54.160042855695,inf,0.0,1.7063313875168338,-1.1337868480725635,1.2270553176571002,2.1490750816104387,611e2078cadc8161a119af67
3.271604938271598,-17.589721987950494,0.6308078337975996,-10.273183371578197,-10.58814346485579,-3.7241026073256593,-6.896961063627736,33.83480260636258,-1.7987113646669388,26.041634767236342,-3.299942057407733,34.758601618105324,-5.3223844282238515,19.849035221742177,-7.383666539620933,74.72684218777515,1.6281608062430029,19.69463220735428,1.882352941176472,-2.426651112949797,-5.01934235976789,38.528996318366445,3.1190535285844234,-2.293862670321799,,,2.079722703639513,-18.715668458503142,11.589802264859465,-68.7703549902494,1.6901408450704227,-1.5091721905349127,-4.1022421524663795,159.86091334093905,8.409090909090892,16.330293271712538,-10.917759358479232,61.24237286317368,-6.4516129032258025,16.61471541720306,-5.333333333333325,11.482691018034828,3.4482758620689737,-8.080664706502613,1.7118402282453815,544.6815398983098,4.6111197875995735,-31.06877917837945,5.096507352941193,-57.226580669168094,-9.89702517162471,35.77410907345861,-3.825219614693291,10.61887062328853,-0.8987266804856351,-11.152426552099401,0.5123450053800372,26.232433190994524,38.415841584158414,-47.92806774940176,-3.507301587301577,2.9233173738920084,8.22574955908291,-16.599819395090844,6.052235057759932,-17.744222797101273,1.4376996805111775,-1.0097232610321674,-24.999999999999993,75.93360995850628,inf,-44.52160493827161,-3.6986301369863077,-28.609515090923033,-4.9526850119766275,25.8619189997282,3.145655826780996,17.961386590471648,4.444980861409011,-36.04668862680149,-1.6975892969834692,-8.378210189999939,2.7842650707925727,-20.54478305021712,16.666666666666664,34.14634146341462,1.055594651653744,-10.627299889785144,-9.333333333333337,-9.778216754960942,33.24420677361853,-28.030303030303028,-100.0,14.285714285714285,-0.4642230942640044,31.747962182744732,inf,0.0,2.4846579853315296,-2.040816326530614,3.698695314652202,2.3122959738846562,6234857563ccaf842e470196
-0.879999999999991,15.203101192629134,0.9570497690088591,2.356363124634878,-1.3386410646684799,-5.407593692787128,3.276353276353268,81.99501724798772,1.6644174538911427,11.367077948170676,0.6476017922287934,4.644882260376815,3.886541170444349,-11.618149501000003,-3.641592460413695,50.98831290991789,0.2785027428439459,-8.505123527507127,3.764705882352944,-3.6935556067983994,-0.2548825854452429,-9.012381960291657,4.484868807108731,-10.510867770604113,,,1.2331209555752223,-1.0752071689283536,10.618651892890126,-32.797341898788694,3.2394366197183047,-3.991059041159241,-4.478414096916325,189.1508209387834,15.101010101010063,-64.20020157820998,3.3597411121796394,80.49937243915372,2.295285359801496,-11.521124304660873,5.705705705705688,-19.290710096237564,7.172413793103447,-30.906865630657975,3.281027104136954,535.3952474836577,-1.914308460592008,6.679633498295279,-2.8025210084033487,-26.0059743454578,12.944934590812295,-12.473065483244472,-2.9300826817875354,19.85778127511933,-6.748084983379088,48.29776330087999,-1.6464077054573134,-6.214791203063333,65.96368715083801,-72.78457347691342,-3.5096092337644027,-19.4123543504629,21.264247255436697,-54.09641252975882,3.4158521036974094,2.7346205097462484,2.875399361022355,-3.1637995512341197,-24.999999999999993,75.93360995850628,inf,6.52006172839506,-2.211350293542076,19.191189165532364,0.7527608744647297,-10.332155477031758,9.05059989567032,32.6900513816402,7.575678360432901,-43.057492120127236,-0.25234714189434126,14.711197103077254,7.056820561377294,-47.02565183852781,0.0,-15.532734274711185,-0.41379310344827425,4.638016509108749,5.000000000000001,-11.960132890365452,16.666666666666664,-9.090909090909083,66.66666666666666,-14.285714285714285,-7.051047938158746,78.09543746821005,inf,0.0,2.095494686424173,-1.1337868480725635,1.6202138582124708,2.55712731229597,6107aa76ee9845023fb0cb80
0.8695652173913289,-1.9336684297026867,1.7874837859102186,-7.450028474183604,-9.346312124089899,-6.205973216803847,-8.20275403608738,38.86546569566881,-1.7391304347826104,43.86347602385855,-6.468012802071335,47.17683676140388,-2.4522986297861427,12.466736145541356,-9.476771106652254,99.24534298881967,-8.331101887802916,21.267724083328297,-1.1764705882352884,2.0482074793484024,-4.21588002790048,9.534827536005011,8.388185654008435,-36.68775308656326,,,-2.3278430981384663,3.164740798197733,9.17051920341395,-35.77149592347294,0.2816901408450652,0.3946354246955605,-5.397297297297324,180.70737287657926,9.146567717996268,-73.78745790211168,-9.372980619030898,42.33178571461818,-3.1005324146570583,-22.86002215878273,-2.2222222222222365,-23.745564517165096,0.0,30.80986760596672,9.557774607703296,-70.05582650202359,0.2967359050445254,-47.21253039674186,3.5799632352941346,-50.94731619585108,2.4797570850202497,2.7573553025887194,-2.1783911834380394,18.74227536835988,-3.527212918660274,40.24798777091584,5.449432936545117,55.08211869831581,71.22478386167148,-81.43689194225414,2.1234567901234636,49.040469086757014,22.71645021645023,-65.09174494833997,2.8253377823970314,-11.705429402119195,26.39776357827473,15.69932685115931,-24.999999999999993,155.18672199170132,inf,-45.552483763384245,-2.534494349350132,-46.301707182348956,-1.4288933964390282,33.762073027090736,7.311284879329061,4.4503782821539515,6.691363741606862,-40.96397279541151,-4.57994260329441,10.28987911560729,4.226634580542028,-34.93565854007034,17.161716171617158,20.731707317073145,-0.9657609665443764,1.4824628185376465,-20.666666666666668,12.849061686270982,0.0,-2.3809523809523725,-100.0,14.285714285714285,-0.3464060373623787,45.25677221329386,inf,0.0,2.09549468642419,-0.9070294784580506,2.919890817118787,0.13601741022850636,611c3819eac3c026d338c054
7.960954446854671,-40.99469293951809,-0.8911342084558359,26.12459697838024,-19.617419617419625,14.827361521280343,17.98490883134608,-37.32752012265236,-2.4779339653481465,35.95901002658073,-6.511927788523529,32.68100027604227,-13.351581508515823,55.73959587578794,-10.190222099026364,81.13694372500761,-4.899645808736712,9.931039755213087,-3.2941176470588216,8.209107062924751,-4.575970704487324,-14.26107485031896,2.959231192582869,-23.77071739508729,,,-1.7035753257590422,10.034797909675113,1.4949767581346498,3.5601279614501644,-2.112676056338028,8.28349005703716,-6.201834862385335,147.41972153868363,14.5058763830115,53.52024386046838,14.588834077234884,-29.032537562283554,-13.748825555903544,27.564141388152564,-16.756756756756776,27.649354687030293,17.471264367816108,-52.699419224930026,6.912203345869564,439.95766317318765,-7.27726713468914,-4.3312327173057215,-10.75980392156862,26.86129802474487,2.2727272727272934,-2.2113554713156938,-3.938167096061826,12.053126734008561,-5.104660045836505,21.93731969164312,3.2503690227337714,66.87048508784224,12.576866764275247,-19.38692822957123,-2.6050118203309625,51.82718906824009,4.89722770828762,-8.198442575848205,0.016742005692287627,-1.2627439870325443,10.215732497906254,-14.016454749439053,-24.999999999999993,138.5892116182573,inf,2.2762345679012372,-12.179666387102785,42.796083971597945,2.8994153442310133,20.224517531938034,5.136086654464289,-7.8092156072989125,5.110750945434895,-52.32073162563855,-0.1339617960803843,22.39072973614418,1.7844491257238309,30.888412810387393,0.0,-15.294460957965203,0.5077188501265862,1.3735366796710196,-9.333333333333337,-7.7848612732333695,-1.960784313725511,-16.35610766045549,62.96296296296296,-14.285714285714285,-11.472876204214119,46.32353154092277,inf,0.0,-0.9429726088908803,10.77097505668934,0.9265519745573918,8.813928182807395,62fb804a737937835d963c8b
-5.542168674698787,26.174465585546724,5.25751164224806,-9.413699316211646,-1.0395010395010498,-6.409574949227706,1.282051282051273,52.606362591031086,1.8894009216589902,-15.58826208822294,-8.85899814471242,61.766941287642766,-5.07855994061612,5.523907815698833,-9.453848610667526,109.13303567977113,-3.2399537635139577,-10.879587523903131,0.23529411764706115,-0.25500861332281977,1.8724173553718957,-12.268180611482427,5.290067208180434,-10.253370257327171,,,-1.1408550802339215,-0.51820388062989,5.7871383950725495,-28.081345806842823,1.267605633802817,-1.325728379836603,-2.794545454545476,50.08604973892932,7.927272727272712,-37.85491285429832,0.38314176245212167,62.12660411948674,-3.1005324146570583,4.411469378666092,-0.9009009009009102,-0.8024080721291066,9.920424403183024,-33.39475218138794,-6.823552008451158,95.46414859396099,7.125671665731022,-39.83641484677777,4.641544117647067,-21.246136831116193,1.4294521075749433,-6.366961798529704,3.0487176846225097,-10.539410815708163,6.012021036814426,-14.146263028335404,-4.835589941972929,3.1363948523065934,69.51497860199714,-80.81657496763566,-5.755208333333332,-30.079401769185495,13.773987206823032,-46.971560590601534,7.201852781963291,-29.934960198846312,0.9584664536741182,1.424831712789822,0.0,-8.298755186722003,inf,1.7168209876543203,2.548725637181409,-55.64965334957754,3.986037077220649,-37.54299175500592,3.3807692820042865,72.83047924157518,9.259859535386298,-63.15203029767956,-0.7178310507740076,-16.6650889008252,4.737768521163762,-75.95294516449155,0.0,18.613607188703448,-3.448275862068971,12.24515487030696,13.333333333333321,-17.940199335548197,12.74509803921567,-19.047619047619037,33.33333333333333,-8.571428571428566,-3.1734583483591825,42.963194267542065,inf,-16.666666666666664,1.6015566531956194,-1.700680272108845,-1.9257255903638164,1.3601741022850877,611d0c64d70a6d9fcd11440b
0.4158004158004109,-8.864617199562764,2.0077021822849694,-5.9344603801342775,7.496704511629853,-36.04777561185878,15.800003112247063,-39.814105021080834,-6.397349305467055,65.3190033171165,-4.734249136939001,35.18946127306427,-7.664233576642348,40.5007875396721,-5.182736127245111,85.83844992504966,0.7613143259361216,-29.685643104692065,0.9411764705882446,-32.592421783040706,1.6886892177589823,18.767423386632093,5.533211972397447,-34.883737796158336,,,6.339929869815804,-37.678024705916044,10.995546788606942,-63.30870634824613,-0.2816901408450652,5.033143209495905,-4.295890410958913,78.82238371148166,3.9215686274509687,-45.711546498193336,15.818114875655287,-40.351091952515404,-7.697221335036732,0.5467517984088187,-4.4648318042813555,-6.930504559457959,0.3195962994112705,79.18260444538593,5.3016443461314395,392.48894884300176,4.90644271945092,44.65546233703455,10.161764705882346,-58.901051195386,-19.020897832817337,38.56827478837584,-5.165310536615522,8.456096538848652,0.33277870216306993,-23.116794726761754,1.234567901234565,-45.94267690436575,82.61248185776485,-66.86661468753678,-1.693227091633473,-53.29674627246026,13.091630591630624,-27.99157958929977,2.603381885149841,-14.342195169937783,26.99680511182106,9.727000747943139,-50.0,226.14107883817437,inf,-48.40303376045873,-8.717215957920473,61.97760810921646,0.6814504182145623,-0.38633686690215674,4.371249677155665,-10.106404498927818,0.8888509767124566,-22.578753062139885,-4.966553073330809,54.678356173773516,3.066867772750111,-40.35954050036834,15.099009900990096,-21.052631578947377,-4.551724137931045,-5.919574829218324,-20.666666666666668,12.247463410254094,-9.722222222222257,-35.59072506440928,0.0,0.0,-7.8995157384988035,56.907266646397034,inf,0.0,-1.1076186199670652,-0.9070294784580506,2.3238925199710208,2.5299238302502713,611d06c0bcc92ba3d7669ef6
-0.8453608247422738,2.8876273707848266,-4.895532826296006,-5.4119386474889195,-26.048026048026056,30.29955000118089,10.313390313390281,-38.33365274051361,-0.9372965520762957,21.931738011929248,-5.753739930955108,65.61833255076522,-0.3393520297092976,-14.411470085297145,-8.553064689373198,82.7455427130714,-3.0349329814570454,14.837262104898253,0.4705882352941223,-0.8965994330127446,-4.545454545454539,74.57281936334161,9.76127771642171,-4.3794486555868195,,,5.884548726836419,-15.379382018374466,7.214283601076896,-32.04703194743135,0.14084507042254044,-0.19038076152302516,-3.7123287671232865,169.28384317923638,13.961960025789821,-2.0145529634455985,8.524904214559395,-29.006077324536054,-9.489508299404946,13.453013225596552,-9.333333333333348,9.884992201772418,-1.7998317914213455,54.39101170609564,9.402152768771902,-66.06288263982582,2.936123692019368,-64.14862822007207,0.14705882352941618,-39.64722420333452,-0.14792899408283727,8.294313670237747,-3.8365143628301466,11.916807794487442,-2.3042304230422976,7.648660695809325,4.8949223338989585,-65.3047586589417,30.373027259684353,-34.54515809501393,0.3851851851851714,-56.78980447670089,10.018646012621938,-12.433815337344203,-3.038674033149167,44.31792541980149,0.4792332268370591,2.142857142857134,0.0,-8.298755186722003,inf,9.008487654320978,6.496581382426111,-69.81654801912819,-8.643556205981891,60.61973362326726,7.3410580258608,-0.6600836114498247,7.87682333873584,-39.83836366551592,1.9929448932321698,60.78608819335961,5.115454587862085,-34.57619902510923,15.92409240924092,20.731707317073145,5.0623624358033625,-9.641018087399479,1.9999999999999927,-0.04884618838109373,-16.66666666666668,3.0303030303030276,-100.0,14.285714285714285,-14.843297070558965,86.67535363187537,inf,0.0,-0.6735518634934979,0.11337868480725632,2.3990183557459512,1.3601741022850877,57fe6296035f6e0001d71d05
-2.651821862348172,17.06160134786593,-5.873048270231655,-3.2713964763381758,-19.617419617419625,10.198815470845474,11.723646723646716,-44.90226140283634,-3.4188034188034275,34.21967211278953,-4.435610419499941,32.83767035165152,-2.0165780032166296,35.77251402225347,-8.319185059422738,81.86439367582821,10.025806116309425,-31.554462329688587,2.117647058823533,-3.068241932639735,-4.139264990328812,13.797252867250966,1.4952275613452854,-4.673300084927788,,,0.8184796771622548,-8.394936685275441,14.110402268296983,-53.3093438137872,1.4084507042253573,-2.679204562972116,-6.3176991150442685,230.57409143777323,12.926136363636328,-96.60021141129339,10.606157744500926,-15.766202954815059,-1.290322580645151,-20.51736613768227,2.8037383177570043,-25.23519300292146,6.6607103300598185,9.344190397466233,1.4265335235378012,-2.643976341185023,-3.7490048490989207,-31.24334090890606,-4.6050420168067125,-21.509710895428405,-4.192880159582618,20.92457088261828,-0.7876227070222316,7.678498761167093,-1.631321370309943,14.99798070366637,-1.2252202643171792,-0.042737373864608214,59.0896159317212,-71.371574771488,-4.360465116279066,29.02976117084865,11.072137188208654,-32.57035968523142,-1.9047619047618913,-3.1323100445703562,28.79392971246004,-23.31712789827975,-24.999999999999993,84.23236514522826,inf,2.724021414779699,3.4137856055664217,-8.955752527103751,3.651115618661264,47.998187913382296,5.753650335131243,-11.466565856708195,1.6207455429497566,-4.537751339020269,0.6584698796146939,-20.273585629275185,6.499842037672958,-84.07552120617355,11.111111111111109,20.731707317073145,-4.800540906017598,14.681528689693318,-20.666666666666668,6.20454341384572,26.38888888888888,-39.23620239409713,-100.0,14.285714285714285,-3.817705396530577,109.29447364229969,inf,0.0,2.245172878311632,-1.8140589569161012,1.9733052863548053,1.2241566920565814,65046ab60ee62c5c2a6d8463
-2.6722338204592715,21.277590306659356,2.9609231576186863,-14.859629672966063,-4.899482364271101,-2.037429046573985,-1.709401709401706,18.28286699885011,-1.3678999478895228,46.569104565842764,-2.665899501342526,19.841244320962243,-3.156614163145091,6.699854634004837,-7.3641765704583975,100.22275696779921,6.3274793388429815,-32.82946470146685,-1.882352941176472,5.905890970253541,-5.676767676767685,6.80680951062075,6.964170778802822,-37.950650610602224,,,-0.2664321374065759,4.663085163248142,10.714177499015241,-56.37391386929879,-1.6901408450704227,6.936950824726379,-7.47511312217195,240.89014474376583,2.34699940582292,-26.691904914083565,-2.298850574712637,17.18823320246806,9.677419354838703,-32.86382706429165,12.491909385113264,-36.3335398044084,1.0260723296888272,-13.721022299201138,7.379068862663739,446.60537511673846,-4.380563798219579,-14.809830053291092,-7.65546218487393,9.416312650521379,4.64700270313245,-8.395643720583159,-4.439359267734566,12.343755243278165,-4.504339881224295,16.66859026266114,0.6134969325153129,2.9817632632331064,74.75,-74.69676797693306,-2.1739130434782616,-7.290655556755501,22.72760727165676,-53.204329826783514,3.838924645440578,-10.15291514260579,-0.6389776357827605,6.679132385938663,-24.999999999999993,62.655601659751035,inf,-47.67714001521269,-5.371819960861056,-3.5760890077372474,-3.896603734331927,26.453384071758627,3.718449366444971,7.383582149937324,5.629389519178828,-50.774997919672984,-5.670148266768648,25.725549472869535,-0.18697879660448122,29.397240075165925,23.456790123456788,-12.687205819426625,1.8464844561222757,-2.062054312724223,1.9999999999999927,3.3222591362126166,34.80392156862744,-35.064935064935064,-100.0,14.285714285714285,-2.4818401937046097,38.952641561337174,inf,0.0,-1.0178117048346098,-0.4535147392290253,1.722885833771617,1.278563656147979,55c333b0fdf99b1dbd2131bd
0.434782608695671,-9.595564912599322,-5.627105650709113,7.110899075784764,-13.671310931584921,12.26652110639172,-8.333333333333332,42.43004982752016,-3.5950764006791327,27.47992430421685,-4.849551856594094,56.586650544283955,-1.0688216892596494,-10.553706158324127,-7.856150640530933,104.99543349796572,4.09947195661482,-46.70075690294191,0.23529411764706115,-0.25500861332281977,-10.884759358288768,58.21790104456365,-2.539918921154961,22.52432385746556,,,2.964517011766841,-29.547243678721152,9.355240894113455,-53.22527641936917,0.14084507042254044,1.7481116078310572,-4.343636363636375,151.83621461788178,4.3939393939393865,-46.85710071535686,-12.462538097927583,70.91753743204251,-2.26764611945066,-21.630678757304842,-3.1192660550458777,-18.807063883799984,7.692307692307697,57.48477239316411,0.14265335235379636,543.3379682473811,-5.019179271911401,11.860811773931973,-5.85294117647058,-7.302552017116931,-5.6823474615742855,17.85038310248822,-2.0106011168573152,-3.792179038503147,1.987315010570817,-37.804407148289904,3.602321083172131,23.746516709769182,30.186246418338115,-36.5571427170374,0.7100900665709476,17.030377784033856,4.761904761904791,-6.2442270930818955,-1.3627992633517367,8.023682098578583,0.15974440894568637,2.6215407629020024,-24.999999999999993,70.95435684647306,inf,5.362654320987657,0.3913894324853051,-16.090608059314043,6.036897517627746,-25.687958684425084,6.155451225873777,-39.54767973459559,7.87682333873584,-65.57860490226524,-1.4781485848110765,2.6108497502707224,4.441092676386785,-55.445588941789815,17.367986798679866,16.142490372272135,-3.724137931034497,-5.394876678378988,-5.000000000000001,-11.45838197000989,33.24420677361853,-22.943722943722943,0.0,-2.85714285714286,-9.779117458121272,59.895177286481626,inf,0.0,0.8980691513246528,-0.4535147392290253,0.3530914281421126,1.0065288356909663,6509ee73a973beda35b3a29e
-5.436105476673411,23.55646492724932,-3.995895974652861,-16.524912446796023,-8.069499618795401,-7.604039940000162,0.2849002849002755,6.137408968953632,-1.1231552827478206,39.130123765087646,-7.113060989643243,39.48108690999847,-7.329683698296852,43.66005268252536,-11.950108423406006,133.82169134227584,0.6944926731023018,-21.167013842969915,0.9411764705882446,-1.0200344532913594,-5.738636363636356,2.640641253001109,6.11043357584422,-32.52606536287026,,,3.141736490272476,-23.14648360467391,10.244307893252584,-46.996431493920035,0.2816901408450652,2.3331277940496586,-6.012556053811672,80.73382756562137,9.146567717996268,-55.49669362570382,0.5510524950008475,19.885689636579322,-8.783136378153952,-5.01596334010175,-6.791277258566998,-10.53487876132798,-1.3894417265248122,9.246896855769874,0.28530670470756775,531.3807201411238,-2.3553412462908008,91.12337785199922,-2.7984429065743774,-5.485958220926814,2.4797570850202497,-8.632496186929647,-4.907071768006038,22.890486163043537,-3.527212918660274,46.15110496685519,0.8972058446551825,-59.11536122638549,40.40172166427545,-57.15957347691344,0.7100900665709476,-54.768364178775954,20.128232836251012,-36.00219305961137,-0.41436464088398145,-6.147346293646011,0.6389776357827455,2.4756918474195833,12.097735399284865,128.63070539419095,inf,1.331018518518514,0.7827788649706352,-23.841974786035863,0.6085192697768882,-2.2190812720847957,-0.32142504134608657,106.95068171703682,2.7897513707369144,-57.46512661580524,4.632695227900717,-8.401492129460568,2.8898203925269614,-51.540356908474664,54.8076923076923,-23.983739837398392,0.6603081438004329,-10.698292996859685,-10.000000000000002,4.775074077399646,0.0,-13.636363636363638,0.0,0.0,0.7229819595539185,42.11653958689525,inf,0.0,0.10477473432119785,-0.9070294784580506,2.2287331279894356,-0.1632208922742173,610658bb4a9082015088fa3c
-1.7469879518072127,3.8106805758171505,-3.432387177469794,5.782913847058834,-1.7294651097468032,-10.667894202809308,-6.113485280151949,108.72939823687244,-4.054147465437779,63.15363336998513,-1.449223245109307,40.19823330327472,-0.6732947394915745,14.021916200382488,-5.980388759918224,86.87572749021774,-0.7169913419913471,1.394338506071352,1.6470588235294108,-31.295374427097222,-4.844123335988164,17.275881810290315,4.891792568395256,-23.281327718446136,,,-0.5001237930180908,1.182828385890439,4.226344549899349,-20.89096867442294,2.535211267605634,-6.528441498381371,-6.61484716157207,286.6842400407149,7.070707070707065,-0.9710169866516716,-9.887906865513676,124.39537631913409,-7.035330261136704,4.6749749199556305,-5.714285714285712,1.6128070793003788,-3.228840125391851,40.20311165807654,-5.453747393832967,95.41060496005022,-7.418397626112745,-18.502901664742737,-6.311274509803917,-20.749997415940605,16.52217277888602,-28.3466843697205,9.7692862292718,-28.376905802632812,7.662550215741703,-32.251217571058,3.720808133506357,10.140164599498574,47.26123595505619,-57.03618433957084,-1.6634920634920538,13.94479630472643,2.3077459387854873,-3.3512296379692796,2.7624309392265274,15.41525097444152,3.3546325878594137,-8.459237097980555,15.137067938021453,108.7136929460581,inf,-41.4351851851852,3.913894324853226,-46.15899745267728,2.4363561774961924,-14.212557760260887,8.453830904596018,21.499372901242094,6.739164531813676,-32.96699282134966,-1.412203570476967,12.37501281397059,6.905972265449356,-64.43118019166357,31.944444444444443,-21.159606332905454,0.5807622504537103,3.0280401363683827,10.000000000000002,-24.121037981503104,43.333333333333336,-28.030303030303028,-100.0,14.285714285714285,0.15378574700608483,38.1351981351981,inf,0.0,2.0056877712917176,-1.2471655328798197,1.8280620038565036,2.5027203482045604,5b3f242f9c2ec600014ef9fc
4.780793319415453,-18.760919674300343,16.61292838941183,-24.793051456760555,13.188583209844703,-43.959217468017805,14.656702658388499,-23.284783441931793,2.864419112296873,53.671516086268724,-3.7626217604823355,40.30054484718421,-4.0578992948162895,0.7369482584748919,-4.700205522294699,50.74812627811368,1.7837296007866112,-10.499015215784611,2.352941176470594,-4.869579371430895,-5.01934235976789,63.48248037176255,5.063291139240503,-17.015758895223144,,,8.64384748700171,-34.79401410102112,7.556222771694335,-47.132042530660165,0.7042253521126709,-2.1149992292276925,-4.821621621621641,144.16069310462433,5.023767082590585,-29.934364168244205,12.670883493164666,-20.753953192327693,-4.67289719626167,1.201490714867281,-3.07246376811594,-3.850294585434886,9.060031012331104,-30.980480911339896,0.7132667617689069,580.5478883469973,-1.9213649851631969,20.213141339878106,-2.370242214532866,-32.70902456923729,2.026974653127673,-0.8908194906776787,2.8302253050871715,-9.227104925884444,3.4647802528597094,-13.276183929224288,3.8121842565000263,30.995101675320452,70.48780487804878,-85.15339972931626,-2.892698412698414,20.463411628942936,9.35985172512119,-22.032696525114677,4.991712707182332,-18.466829393275695,1.1182108626198046,-0.531039640987316,12.63408820023838,-21.909738230623415,inf,0.10385583055408838,-3.6986301369863077,9.95449119794148,-5.956601976746055,5.443326991030163,6.409682251232959,-41.97848305235647,5.8699175533789045,-51.24160004546281,-3.3320711851571456,14.37198432942993,6.748433255332306,8.641287575421282,24.999999999999986,-13.334403080872931,4.022988505747133,-16.054204821536704,-9.333333333333337,-9.975756487384412,12.74509803921567,-21.428571428571427,-100.0,14.285714285714285,5.714285714285711,45.660426529991696,inf,0.0,-0.9878760664571248,1.5873015873015885,3.82640923546938,5.195865070729049,5e692a511f156a1e4aa18f70
-0.7739307535641419,1.5901715188259244,0.9451219512195149,-11.000123411740388,3.141928494041165,-18.949562855821565,1.4245014245014305,-9.112686853200474,-6.469956403614076,54.007239722729224,-6.896551724137918,57.32531674099264,-3.984184914841861,0.5139413072146629,-7.856150640530933,102.66776837140978,1.7830817830817975,-20.304049481739643,2.352941176470594,-4.869579371430895,-4.139264990328812,23.124903926905205,6.822291632418198,-8.757230847940585,,,3.603300654440099,-27.846211412200823,2.4822386544874453,-20.898149918885746,1.4084507042253573,-3.4546015107137262,-5.100892857142865,116.38738386988064,5.811051693404642,-60.45133852847916,-0.5724229518706694,14.04872446775895,0.0,-25.767622402684175,0.9174311926605406,-24.432348127269133,7.969430702207787,-15.650849408624032,10.802749319154453,-43.475770467988085,-6.17846545146246,48.41087742367424,-4.6050420168067125,29.866559169793266,-1.4598540145985381,5.825728540036704,-1.6949152542372776,5.539080686687283,1.5484351713859934,-5.369187935251966,2.610360410195625,-6.683208361481848,59.0896159317212,-70.48155476442669,-1.8547341115434663,6.10578800436801,28.95810955961332,-71.96481722548643,7.489257213014143,-35.01432293050875,2.875399361022355,-6.0246821241585655,0.0,4.979253112033219,inf,-43.813629980691594,3.962624629688357,-70.43714605778716,6.684277560262276,-37.819153755549536,3.1578090995993353,-37.209208237245626,4.113934963274595,-25.133597585602924,-3.8142775681734866,26.742475476408607,3.861297990876792,-70.5863025331369,50.467289719626166,24.261874197689323,-1.793103448275874,-14.611991412317565,-9.333333333333337,-13.531471671006567,0.0,-13.636363636363638,-100.0,14.285714285714285,-17.590287487637703,147.1513993253123,inf,0.0,1.691363568328091,-1.8140589569161012,1.7504319735557938,-3.6452665941240565,654d4401d386722f1c6bddf1
-4.662576687116557,18.86183849630479,-5.15257192676548,8.638372782412151,-10.58814346485579,13.11176134660123,-8.72507122507124,124.91376006132624,-3.955541026479233,44.64605884826151,-6.249999999999996,43.01922023981245,4.556027913692132,-15.796460624702787,-12.63090655415287,144.44704837622032,0.7613143259361216,9.66519117557075,-0.9411764705882273,0.24687004055724318,-1.6111111111111167,29.20331021575022,0.35745826149122756,12.042043651412264,,,4.356569251326274,-23.625441410661143,4.556078222537791,-25.88958316258363,-0.2816901408450652,-0.3946354246955605,-4.924545454545465,123.16513280212746,8.491032776747058,-44.912608471201395,-11.947611851444803,144.0879138499829,-8.04822417725643,12.877048810798335,-10.903426791277264,14.283166876931922,7.3821843813721495,11.349314434947614,8.935287251977728,507.74058316903705,-0.2967359050445254,8.216755427807442,-3.369377162629746,-27.09127931615451,-8.03098723139208,30.164855807229422,-6.977340963329833,30.44194938642328,-5.018001800180018,31.38678076448494,2.768499585520854,45.95938333233086,20.690647482014366,-19.45772527558746,-0.09398250881085939,64.67620892526146,10.517974209350916,-5.234117909205025,4.231029428345924,-26.79794799928082,0.31948881789137273,-0.47868362004490334,-24.999999999999993,79.25311203319504,inf,7.128751974723527,-4.814090019569481,-4.730980974521642,-7.581271975818875,40.38977983147597,4.628311147677007,6.84953675607877,6.007444743263229,-14.168143191444885,-1.6239357507282886,1.9408274836415602,-1.5575523390820019,20.996218849180032,0.0,-12.687205819426625,-2.3223082336382888,-1.0197658854570826,-20.666666666666668,2.1819161354044945,0.0,0.0,-100.0,14.285714285714285,-3.1734583483591825,67.90890269151133,inf,0.0,2.3499476126328296,-1.9274376417233576,2.263791851351029,1.1969532100108824,611513d0ab9d61f4053c4c8e
-4.084507042253527,25.41189228539326,-5.396082653526035,4.637944459322048,-3.589743589743616,4.953663961492954,11.880341880341883,3.6364507474128205,-4.957308525551174,46.06462049356141,-8.111163864903776,57.03814573951862,-5.88728012444657,32.66606631522497,-9.923599320882854,128.80835760090363,10.759311490418161,-56.99817655267301,0.9411764705882446,0.9128765785440317,-0.797979797979808,3.804501681284031,7.670383100008372,-50.19227670137967,,,-1.678633325080487,15.60458831630224,4.39177413733008,-11.87933948162346,1.5492957746478822,0.23200246647139722,-4.293273542600901,112.5990147994028,10.621521335807046,-5.73145849209677,8.752423257162931,10.897380346431047,8.558262014483224,-65.67781694550331,13.142857142857128,-68.47398835019308,5.2649285113540865,-17.456202832341678,-6.37550751673433,30.29324478572186,-6.040695209834667,-4.620992354558407,-4.466386554621838,-12.35955636867307,-4.33233739370258,7.801444786146898,-1.8612521150592218,4.9775738140627075,-0.7370606554945831,7.870186843500941,0.8763707938888363,-1.1614308721424162,28.52899575671853,-35.08456415989958,-2.745219638242885,0.1325718348264438,5.873015873015897,-1.7669141188474786,-0.5524861878453086,0.1676352150734889,1.277955271565491,3.234854151084506,0.0,-14.937759336099552,inf,-48.67364402317009,-10.999285558972451,57.737155980931476,3.986037077220649,-32.21110809096675,9.629629629629642,-23.95112675486507,1.782820097244741,-27.793168814984853,-1.3731588986236785,-13.606441847594558,3.6510524483851317,-25.692504771631203,16.666666666666664,-4.878048780487806,-1.4778325123152878,18.50522257495167,0.0,-14.626919278082088,37.878787878787875,-33.33333333333333,-100.0,14.285714285714285,-5.75426166371451,66.92437996785823,inf,-16.666666666666664,3.397694955844941,-1.020408163265307,2.1410863195853325,2.5299238302502713,6162d95040a3fa68f76451be
1.4705882352941169,-13.479807039672634,6.9123212783852015,-29.348799470584336,1.978021978021958,-10.238054380311228,-9.37796771130105,46.45458029896512,-4.417293233082694,19.6567150807959,-9.090909090909074,53.210075533468945,-2.0165780032166296,26.19980252073571,-8.319185059422738,78.8086394698072,-0.5226997399208764,-4.441444842301732,-0.7058823529411662,2.311354665436853,-8.015985891455218,62.32874427168967,0.35745826149122756,9.17341033003744,,,6.434142114384741,-23.288000464023163,16.36010441328233,-71.49862944908669,-0.9859154929577517,3.271157700015417,-10.108370044052876,304.6161992387797,5.357575757575747,-19.89478600752236,-10.402833111996456,51.224999901193804,-9.489508299404946,13.453013225596552,-9.333333333333348,9.884992201772418,9.17771883289125,-25.72107801251792,8.157178057320733,-89.98277472242405,-1.0385756676557718,-34.88739725503059,2.215073529411769,-41.62919780458309,-7.345674170523179,23.846333506392345,0.2855570983207246,3.154358998421855,2.2658517952635626,-8.148072627773724,2.556231003039502,50.411312256503685,73.47445255474453,-80.74105811855166,-1.2269938650306629,66.61782413147732,24.412991002852763,-64.13798684164234,-1.8091214386306866,-2.2595487872461684,-0.47923322683707403,3.5789080029917395,0.0,-8.298755186722003,inf,-1.8598970218243471,-0.1956947162426713,-21.318886267572747,2.533138355582821,-25.55948174322733,5.5501464881851605,-68.93963230649936,9.267717695594522,-68.41353247644163,-3.9360511590727496,36.545010768896944,0.7764929333556837,-15.518973290144958,14.28571428571429,-7.744972186563998,1.8341892883345503,-6.134009980140778,-20.666666666666668,15.803178593876261,-9.722222222222257,-27.591706539074963,-100.0,14.285714285714285,4.019370460048412,15.101420318811584,inf,0.0,-0.26942074539739913,-2.4943310657596394,-0.46327598727868935,1.2241566920565814,65296d538ca4cc9d14c129aa
1.0950413223140623,-9.134243912050103,3.6138142366143473,-2.5299539218136,3.141928494041165,-13.713502141164488,-7.941595441595439,130.05940973553095,-4.05107596577651,40.26256529392061,-2.8409090909090797,30.91235162522726,2.874087591240868,-20.85128485326804,-8.553064689373198,116.58403881093193,-4.168969328543786,22.19825731186406,0.7058823529411834,0.39472077913272174,3.5260695187165716,3.668693506205863,11.529714653507835,-44.86599786273837,,,4.458799432802894,-16.970486352058707,7.736989532655164,-36.55602086203557,0.5633802816901461,1.5646677971327319,-3.128767123287683,137.50283369627948,2.695221445221419,-4.948499225644722,-11.947611851444803,140.01252298656863,-3.1005324146570583,-3.161702191606533,-0.4281345565749376,-8.944297273061277,-5.020048115477143,14.903837071602446,0.5706134094151355,-37.19912835944798,-2.0660237388724023,-8.448916111697061,-2.512975778546699,-4.263698099165946,-0.5891016200294591,5.1378846678697725,0.23343091863448975,-0.25202402284090525,0.4095409540954097,3.5502831253298637,2.29411370884468,-21.04809446482637,29.81428571428568,-31.700220175748324,-3.6302222222222116,-23.373434069240602,4.448715211047071,-6.279937609213222,9.959139042357275,-31.46465130169331,27.39616613418528,-15.5347793567689,-24.999999999999993,69.29460580912867,inf,-38.37216956292786,-3.32681017612525,6.926784975785755,-2.8167902931446376,39.678173416689326,9.629629629629642,-12.643120119755736,5.700796279331975,-36.45504159639222,-4.114478908676342,15.214619684963585,6.492512944908308,-45.78076151156952,17.161716171617158,-28.899229781771513,-1.1963406052076064,1.5159469016090186,5.000000000000001,2.6578073089700727,-33.33333333333336,9.090909090909083,22.222222222222225,0.0,0.30439294361812147,10.32967032967027,inf,-16.666666666666664,1.1974255350995369,0.9070294784580506,2.80219367440461,2.93797606093579,615a10906193d263fd02c670
6.534446764091878,-38.24315844315621,-9.610258989187829,9.06212379277104,-9.971509971509999,-4.196839866273872,1.282051282051273,38.41989267918745,-9.9974512552568,76.13094771497994,-6.133250311332496,50.74844503295448,-3.984184914841861,6.971314174899697,-10.891089108910894,149.58444470215315,6.654060225488806,-34.0890825749025,1.882352941176472,-0.10715787474735454,-11.094346829640939,109.43200376683917,3.847765948528792,-32.91094841781551,,,3.4274037093561494,-12.36857223093116,11.082656305192504,-32.83155688599388,1.267605633802817,1.3881609372591217,-2.156164383561654,77.73416205492451,12.758838383838372,-21.06615206863502,0.5747126436781692,41.0654588590532,-1.290322580645151,-9.896086875543302,-1.3084112149532612,-11.205937444596588,6.448275862068967,-17.75521309127775,1.2838801711840424,-46.49081664418372,-6.316235693090277,9.917689422455272,-7.524509803921566,13.873815208740265,-1.3157894736841995,5.326222513233138,2.1271126534284504,-9.48586540533748,3.856522390295055,-22.469344534760808,0.8972058446551825,1.1373736158723682,39.005681818181806,-46.3615222039151,0.9202453987730057,-6.7795888256138275,18.869404049044782,-35.31528457000789,2.0961975950601217,-13.910136148340374,1.7571884984025503,1.9446522064322846,0.0,211.20331950207475,inf,-38.602553975776715,-13.955602996698898,59.48991022709084,6.2593962534303955,-29.371024734982342,5.632716049382722,-13.112432738600974,9.259859535386298,-52.67022656283299,-2.398081534772199,11.88582883756092,6.750241080038559,-14.541450500706832,18.81188118811881,20.731707317073145,2.744546094299789,-7.660918423011019,13.333333333333321,-27.25150399569007,59.313725490196056,-35.24720893141946,-18.51851851851852,14.285714285714285,-5.309140259355206,64.7398977833761,inf,-16.666666666666664,1.6015566531956356,1.1337868480725635,2.5066987203565914,1.6866158868335102,602bfa74abe14141ae89b2fe
-4.742268041237105,30.989783789655224,-1.8420782947325305,6.6076357936472485,-3.418803418803417,-17.169837621605506,8.903133903133897,19.274626293599102,-2.9001074113856036,31.708977704117626,-2.9150197628458363,32.21807237383968,-1.7479830964272087,-13.075519489498921,-3.5856647228168623,52.68664016562072,0.3548364204102032,-26.927723850966117,11.89542483660131,-50.746778643093236,-1.454028925619835,51.81687910376673,5.596044836551159,-28.852828098113935,,,-2.2783336917608166,-12.388637149509197,3.4819646739939785,-35.97301309146071,-1.1267605633802766,2.6861415137968314,-9.710619469026563,286.47519451190675,2.9768270944741446,-43.070134467415755,6.280777274045565,23.84244280426587,-4.580645161290309,-9.934020015765258,-3.5802469135802464,-12.147249037105167,10.526315789473701,54.080166116485294,6.210723290126801,-9.205769430320498,-1.1869436201780408,34.824492230157915,-1.1764705882352917,48.32346222621888,-4.413500118008011,12.429467681622373,2.339912829358861,-15.137612911187206,2.438016528925623,-31.016113597338247,-1.20424630166045,29.998388412483628,21.741654571843245,-27.836969420579837,-4.448844884488454,12.345449339623201,6.356454301659806,-15.19714081319119,5.102040816326527,-9.22041135844672,-0.47923322683707403,2.434554973821989,11.025029797377833,123.65145228215768,inf,-29.513888888888896,-5.557729941291585,-11.803551567942888,0.3287402951668304,-4.923439340400456,7.1623824342110884,19.893680540147578,3.671340990768799,-54.5490155486685,-1.9184652278177485,-5.127686507665832,5.037833344354273,-57.6531354512753,0.0,-13.02952503209243,-2.6869968780496483,-3.904437082768803,12.132768361581908,-15.282392026578098,54.98846597462514,-37.040043290043286,-100.0,14.285714285714285,-2.4818401937046097,93.1245566028174,inf,0.0,-0.5687771291723001,-1.4739229024943323,0.6060150752510414,1.5505984766050038,5e209e63f814783b253a93ed
