CODE_GENDER_DemographicParityRatio,CODE_GENDER_AverageOddsDifference,NAME_FAMILY_STATUS_DemographicParityRatio,NAME_FAMILY_STATUS_AverageOddsDifference,AGE_DemographicParityRatio,AGE_AverageOddsDifference,CNT_CHILDREN_DemographicParityRatio,CNT_CHILDREN_AverageOddsDifference,AMT_INCOME_TOTAL_DemographicParityRatio,AMT_INCOME_TOTAL_AverageOddsDifference,AMT_CREDIT_DemographicParityRatio,AMT_CREDIT_AverageOddsDifference,AMT_ANNUITY_DemographicParityRatio,AMT_ANNUITY_AverageOddsDifference,AMT_GOODS_PRICE_DemographicParityRatio,AMT_GOODS_PRICE_AverageOddsDifference,REGION_POPULATION_RELATIVE_DemographicParityRatio,REGION_POPULATION_RELATIVE_AverageOddsDifference,YEARS_EMPLOYED_DemographicParityRatio,YEARS_EMPLOYED_AverageOddsDifference,YEARS_REGISTRATION_DemographicParityRatio,YEARS_REGISTRATION_AverageOddsDifference,YEARS_ID_PUBLISH_DemographicParityRatio,YEARS_ID_PUBLISH_AverageOddsDifference,FLAG_MOBIL_DemographicParityRatio,FLAG_MOBIL_AverageOddsDifference,FLAG_EMP_PHONE_DemographicParityRatio,FLAG_EMP_PHONE_AverageOddsDifference,FLAG_WORK_PHONE_DemographicParityRatio,FLAG_WORK_PHONE_AverageOddsDifference,FLAG_CONT_MOBILE_DemographicParityRatio,FLAG_CONT_MOBILE_AverageOddsDifference,FLAG_PHONE_DemographicParityRatio,FLAG_PHONE_AverageOddsDifference,FLAG_EMAIL_DemographicParityRatio,FLAG_EMAIL_AverageOddsDifference,CNT_FAM_MEMBERS_DemographicParityRatio,CNT_FAM_MEMBERS_AverageOddsDifference,REGION_RATING_CLIENT_DemographicParityRatio,REGION_RATING_CLIENT_AverageOddsDifference,REGION_RATING_CLIENT_W_CITY_DemographicParityRatio,REGION_RATING_CLIENT_W_CITY_AverageOddsDifference,HOUR_APPR_PROCESS_START_DemographicParityRatio,HOUR_APPR_PROCESS_START_AverageOddsDifference,REG_REGION_NOT_LIVE_REGION_DemographicParityRatio,REG_REGION_NOT_LIVE_REGION_AverageOddsDifference,REG_REGION_NOT_WORK_REGION_DemographicParityRatio,REG_REGION_NOT_WORK_REGION_AverageOddsDifference,LIVE_REGION_NOT_WORK_REGION_DemographicParityRatio,LIVE_REGION_NOT_WORK_REGION_AverageOddsDifference,REG_CITY_NOT_LIVE_CITY_DemographicParityRatio,REG_CITY_NOT_LIVE_CITY_AverageOddsDifference,REG_CITY_NOT_WORK_CITY_DemographicParityRatio,REG_CITY_NOT_WORK_CITY_AverageOddsDifference,LIVE_CITY_NOT_WORK_CITY_DemographicParityRatio,LIVE_CITY_NOT_WORK_CITY_AverageOddsDifference,OBS_30_CNT_SOCIAL_CIRCLE_DemographicParityRatio,OBS_30_CNT_SOCIAL_CIRCLE_AverageOddsDifference,DEF_30_CNT_SOCIAL_CIRCLE_DemographicParityRatio,DEF_30_CNT_SOCIAL_CIRCLE_AverageOddsDifference,OBS_60_CNT_SOCIAL_CIRCLE_DemographicParityRatio,OBS_60_CNT_SOCIAL_CIRCLE_AverageOddsDifference,DEF_60_CNT_SOCIAL_CIRCLE_DemographicParityRatio,DEF_60_CNT_SOCIAL_CIRCLE_AverageOddsDifference,YEARS_LAST_PHONE_CHANGE_DemographicParityRatio,YEARS_LAST_PHONE_CHANGE_AverageOddsDifference,AMT_REQ_CREDIT_BUREAU_HOUR_DemographicParityRatio,AMT_REQ_CREDIT_BUREAU_HOUR_AverageOddsDifference,AMT_REQ_CREDIT_BUREAU_DAY_DemographicParityRatio,AMT_REQ_CREDIT_BUREAU_DAY_AverageOddsDifference,AMT_REQ_CREDIT_BUREAU_WEEK_DemographicParityRatio,AMT_REQ_CREDIT_BUREAU_WEEK_AverageOddsDifference,AMT_REQ_CREDIT_BUREAU_MON_DemographicParityRatio,AMT_REQ_CREDIT_BUREAU_MON_AverageOddsDifference,AMT_REQ_CREDIT_BUREAU_QRT_DemographicParityRatio,AMT_REQ_CREDIT_BUREAU_QRT_AverageOddsDifference,AMT_REQ_CREDIT_BUREAU_YEAR_DemographicParityRatio,AMT_REQ_CREDIT_BUREAU_YEAR_AverageOddsDifference,NAME_CONTRACT_TYPE_DemographicParityRatio,NAME_CONTRACT_TYPE_AverageOddsDifference,FLAG_OWN_CAR_DemographicParityRatio,FLAG_OWN_CAR_AverageOddsDifference,FLAG_OWN_REALTY_DemographicParityRatio,FLAG_OWN_REALTY_AverageOddsDifference,NAME_TYPE_SUITE_DemographicParityRatio,NAME_TYPE_SUITE_AverageOddsDifference,NAME_INCOME_TYPE_DemographicParityRatio,NAME_INCOME_TYPE_AverageOddsDifference,NAME_EDUCATION_TYPE_DemographicParityRatio,NAME_EDUCATION_TYPE_AverageOddsDifference,NAME_HOUSING_TYPE_DemographicParityRatio,NAME_HOUSING_TYPE_AverageOddsDifference,OCCUPATION_TYPE_DemographicParityRatio,OCCUPATION_TYPE_AverageOddsDifference,WEEKDAY_APPR_PROCESS_START_DemographicParityRatio,WEEKDAY_APPR_PROCESS_START_AverageOddsDifference,ORGANIZATION_TYPE_DemographicParityRatio,ORGANIZATION_TYPE_AverageOddsDifference,consistency,counterfactual_CODE_GENDER,counterfactual_AGE,counterfactual_NAME_FAMILY_STATUS,participant_id
-0.9343950167948786,6.642406350835444,-0.08148839811175747,4.670058880868954,-4.424743042168858,-4.434792680891624,3.6233776511554168,21.846652612750713,-1.7440464403104305,40.60112055226608,-4.621981582846151,31.022387126688084,-0.27888975294022894,10.040790938208575,-6.59499768209902,103.79160206052434,-0.771884570867512,-9.176887777420127,1.4117647058823668,-2.174355357215516,-2.8744755432948432,9.849877682924818,5.037544395508274,-17.606201539799518,,,2.043094545190325,-10.470574185928712,12.274650337453798,-49.99857762790833,6.0570719335167995,0.4096654848157826,-5.227621750581457,177.42407031105026,7.695370275149668,-18.132410662340195,1.1081090707413026,39.579289239254656,-3.6931264129882484,-7.46825290915271,-2.077248509997056,-10.60351060902202,0.4829133931019013,27.02030552649711,-1.944465425207215,234.29525094254836,-2.210133220980357,22.706269136858808,-0.37153593054868295,-12.294696476376574,2.0122720802350957,3.4253472192224814,-0.3674421095930942,6.723266253189967,1.367914508012327,-0.39334022043353967,-1.1906994880450754,-6.2038815170805135,50.44571053274159,-58.48084250323644,-3.238865073089725,-3.1656559964028155,12.577310174258802,-32.8770498852651,1.9183464857823136,-3.190822444571543,2.5825346112885987,-4.918349538768387,4.658323400874053,72.00023905879138,inf,-17.81580034813645,-5.551170701203324,13.493363634295207,-1.1970286613300134,-15.770197215426885,5.919239209483775,-1.1647389854426193,5.644041208118174,-40.12490756921061,-1.1767351036505658,7.5537969975924115,2.8442588378109384,-34.52559760722836,16.09140080674735,-9.542493324942052,-0.857437166392013,1.4304974961364778,0.2777777777777768,1.702732632965181,13.739106753812639,-21.763032289348075,-62.96296296296296,9.523809523809527,-1.2457556998801878,45.335722520326925,inf,-6.944444444444442,0.9255101531706807,-1.4550264550264584,1.7066085693536772,1.9359811389191253,60c442aafa8afba1988e2ba0
0.4663641510550035,7.87244168764388,-5.771495023948526,3.671751631016038,-2.8127129978981933,-9.61864257341822,0.854700854700853,-4.379072441548497,-2.191222867914586,42.14540760691889,-5.205410412182938,44.217864704184535,-4.067675737783729,26.812774669216445,-6.746604414261452,100.5654692875643,1.721559370306228,-12.347499394816817,0.5490196078431426,-2.012488187765911,-3.2196969696969613,-4.701964753060873,3.347035071004023,-2.0684932460406222,,,0.5834142749220627,-13.919141536704153,9.506762736259953,-58.32261567289264,0.8450704225352114,-1.6592158676326956,-2.401483849811446,97.10347897675062,13.110045490364627,23.300310561550823,-0.19869436684932595,3.915680286532372,-1.2800819252432043,-7.072038481748706,0.761904761904756,-11.617169444681432,10.345303210463712,53.139518629564385,3.964034063891406,544.7675971083682,1.0271480975000478,-10.356259726126524,0.14808006535948726,-13.826785326676882,-3.622920912296955,15.237905569673273,-1.9354177607562293,5.124643077879231,1.1507523033730123,-11.947177913348812,-0.9585489466092773,-13.161769455749178,66.87785639289638,-53.12075013403425,-1.9939117199391128,-33.90850827406374,25.418851662853825,-49.45097671291252,5.797700076693892,-11.66650507097079,1.3312034078807098,-2.1852405883819603,4.330552244735797,43.43015214384513,inf,6.204989711934147,-7.896851282369878,42.581627422446914,3.0983195395373127,-5.2314336625290325,5.79286687490782,10.82229607737077,0.1715428272263004,-19.489450543354337,-4.351870781111673,30.367620473433572,3.1575707205959014,-7.572097017818534,11.111111111111109,19.91869918699187,1.6690089503156775,-16.593975091610247,6.666666666666661,-20.936697494837038,20.91750841750842,-27.591706539074963,-44.44444444444445,4.761904761904757,-4.453997557459407,53.8838938838939,inf,0.0,-0.21453874170534312,-1.511715797430093,2.639421030225616,0.7616974972796524,60a3a03bc01ba594c9cca88d
4.848935762308772,-28.34721117308357,5.781964698180031,-17.635260181108777,-0.5241277179992194,-13.496454776046471,-1.9930235955877138,33.579276862143885,-2.5701355932071537,47.341107124210865,-4.342141292710141,28.716740570682457,-4.4318529411934895,1.925497960041756,-5.299442445045183,65.55686792479356,-1.0610155382241506,-10.344259770019605,4.111755046846344,-7.947445489325225,-1.55282228929718,14.409300659250338,8.765677285377174,-34.608691788690024,,,2.768919044962485,-13.580882764106237,8.360856782067726,-37.69724029458716,6.949039132434855,-4.0373053799907614,-4.022420982350793,162.26182379915394,7.383603138224978,-45.27889082819151,-5.486787825936982,53.69711221195267,-6.02011344260012,11.088411691300431,-6.229311880688037,10.18625816115996,5.562459046533206,28.078679194548723,2.5930690807933936,146.78883469959572,7.466889969431207,-32.744336475375746,8.058788844895002,-30.76340007097557,4.1492521091345544,3.1105599732641194,-3.5479227022289854,25.642423142543763,-4.922441417326202,45.027188549447374,2.0133377906109198,-32.7630743080678,53.373083838797,-65.47801184731867,-2.5277786328456178,-31.843348890611246,10.617110478784623,-24.34312782683822,14.557005718195484,-30.14890350793124,6.484172279976382,-7.882074295686886,0.1638855780691284,82.43430152143846,inf,-30.965371638094137,-5.210969540715143,7.370649709752739,0.837340287401705,-17.57255896831867,5.037448106690124,-1.0868809874703411,6.4608264596109395,-47.690295798821886,9.575132513402473,5.310764984499769,0.6680766880619082,-19.643791470674827,13.21354357657989,9.230138354015114,2.529542844550517,-6.2512185437307455,9.489171374764593,-18.116368860554918,11.550554565260441,-18.148826970957586,-27.777777777777796,2.85714285714286,1.960747900506616,61.30792538269905,inf,-6.565656565656564,0.9729082472683654,11.715797430083125,-0.17111995926501752,0.3400435255712659,5fad5482f2e5c201d4a5cd76
2.961738704605789,-11.433283153104755,-3.39388334460595,1.6666320150964118,-0.8429414728319375,-10.988962437713758,6.004273504273489,23.378210042161786,-5.472936030617831,50.3807369139147,-9.170885090719917,48.701146459663455,-2.368529950044155,-6.744341350385998,-7.508874826362098,84.50071353099588,3.058294138144007,-15.465318609222079,1.7647058823529411,-4.038766734940232,-5.036764705882344,14.926798539328285,1.6524674875418237,-7.674452860508942,,,3.3973472448342505,-23.643837709042536,5.7852236327838,-32.26354906988582,14.866350204788596,8.871974718668119,-4.6234725970415935,171.26253460606563,7.478809705700448,-51.28014454632625,1.4498328524980448,36.0883743557814,-2.810603641009263,-12.293616166712738,-1.300260505153483,-15.280222307298978,1.8052791367375902,49.84595616181359,1.6210608222020406,7.365155131264997,3.7893977063116564,-66.79941777611886,4.186580882352928,-58.95919253310188,4.697460182815695,-1.413983719731235,0.3451219329152299,-0.9505895614093582,1.1472218062003965,-9.38807573007567,-2.2558318379902698,-12.32722251050531,54.83761296888986,-62.14512597583464,-3.694036084196469,-29.423278762001555,6.6499123351935765,-13.785496487586357,4.611487820149134,-20.078399476182586,2.316293929712445,-6.331338818249835,-12.500000000000005,47.925311203319524,inf,-41.75205517523844,-2.194576460721278,10.035242219365665,0.7403093863540235,-6.134819244359847,0.6953849592123899,8.407104731290648,7.531607672991846,-31.37772446728406,-6.343286124074248,29.9677751220152,3.0566102402053352,-48.13811656287528,0.0,18.495934959349576,1.953411592076297,-15.445710825977862,7.666666666666658,-13.621262458471767,25.73529411764705,-23.538961038961034,-16.666666666666682,7.142857142857142,1.4237682090506492,52.40681449377098,inf,0.0,-0.0972908247268432,-0.9637188208616851,2.2237247389377974,1.183351468988027,5f047d44d191116edb3cb798
-2.6722338204592715,7.3052478832545065,-0.9554906148139972,-4.615057533665177,-18.452454684338747,3.0137463362630688,8.276353276353248,136.6711383671906,-6.910755148741419,49.17973732781288,-5.409892760081279,33.114593110170844,-3.788069468915192,4.960656744004085,-8.791766579735016,83.9711623951447,6.825055392925885,-38.57880468428475,-3.5294117647058822,8.07753346988052,-1.8698347107438098,-8.998632978541659,0.7221136691869758,-20.232252209164063,,,0.6606637911937513,-8.346029842075765,12.919213110766496,-60.5656270774547,-1.6901408450704227,9.263141667951274,-8.0837837837838,228.8773296480539,14.344532279314876,-3.360456255070323,6.280777274045565,144.51633775477205,-4.87162606978275,-6.680763708412981,-5.911949685534614,-8.528640179243581,1.750663129973487,102.94098591827179,7.379068862663739,-43.47577046798789,9.775576763707322,-59.99211767605988,8.544117647058831,-72.51387639926824,1.8099547511312282,-11.989714720055698,-4.439359267734566,2.8981615116473147,-5.58072362420187,12.35084795295056,2.6233424902070457,-5.926104127824304,53.73900293255133,-50.25039474716567,-1.167871485943767,-26.04858859772593,9.607800175284861,-26.767453588056604,-0.555715212905765,-12.462138791948648,-0.7987220447284468,10.351533283470427,1.1655948553054685,6.587777265508915,inf,-2.527006172839519,-10.999285558972451,60.26024449939453,1.7565372224720832,8.321282957325403,3.5586342902948873,35.7486750010115,4.297647247404128,-54.37954500711374,-5.119104716227031,11.895375439275249,4.544807763453674,-63.72007046887379,-11.111111111111109,-8.774604193410369,-4.011259676284305,3.6398311580097342,0.0,-9.30232558139535,8.333333333333318,-27.272727272727277,0.0,14.285714285714285,-3.1734583483591825,159.91573643747552,inf,0.0,-0.11974255350995704,-1.8140589569161012,2.479152580572545,0.24483133841131385,60ddc4cc0a3f074060092937
1.1232305475338928,-10.670409019669437,1.5693473448143476,-7.703083954738841,-1.6177722067979239,-11.436325988233838,-1.1043538607641092,56.828434118583594,-2.509908727977853,44.280207464733536,-4.402695185774704,35.54741208043962,-2.9733653296543956,9.687260966248939,-7.792043602791409,91.37396078135954,2.935414059610622,-8.13617539332943,2.805429864253411,-4.378656488581466,-0.9745270697156704,4.866499582592396,4.851937796285267,-18.49106347115438,,,5.516044816255147,-28.194785655882104,7.605180107702209,-40.30352766625474,3.9576438595141012,-2.506907305735741,-3.807077314716384,187.2206793573004,6.41660943386973,-18.13258400195155,-3.8283412180925542,75.64372489751192,2.5453303955208018,-19.167377014095248,3.5894336679154724,-20.285121844335347,1.1187727364256774,27.64072315941506,-2.0845499282896376,82.85862980020943,-0.9259386400961682,-31.342068748509107,1.1921273964994077,-39.81200768698063,0.9919336912963986,1.5224948343058327,-0.31747370495596794,4.241185215462305,0.20561641956117338,4.40601056668052,1.10874226069552,1.4060225411613503,58.050279365517255,-64.82073801311475,-1.5993367390817654,-16.50792826561683,13.9841931043923,-31.158978328313058,0.6791173895050968,2.5053421811746803,2.8508232981076307,-5.503710948737154,-16.915742183918574,92.72322114645772,inf,-31.567059867316594,1.1214734149526966,-38.92385429488384,2.3307654792825745,-22.881914678598577,3.310538579492491,30.70973711488026,4.3284354090654755,-35.80580783586197,-1.6856323585730126,10.454269981112514,3.7949688495831158,-50.01972239403823,13.620208174663622,2.3900580600771693,0.004534292167073204,-8.11358264735323,-8.631464580617127,2.4054564496991904,14.49334978746744,-9.567625357099036,-30.769230769230766,2.417582417582422,-6.232859464615053,70.5545157183953,inf,-0.9615384615384581,1.1156782149148547,0.2180359323216458,2.2616729175214623,1.2241566920565814,5f1c55c8ea92af4d99d03137
0.9482216327042641,-3.4233172608873805,-0.2091018718820118,-4.394977608794556,-0.23413422316783264,-14.562727393602046,5.10039343372676,41.99337458248922,-2.386190884961698,35.88781114869937,-4.380312679063825,32.63371505554849,-2.319404079522363,11.611857832933401,-8.741552797001214,92.67037786386472,2.7890379418291085,-12.01276343516277,3.361344537815134,-6.017699458009791,-4.805747144443824,40.92555228232708,3.3079946654975045,-19.86229462516171,,,4.394994481776118,-19.924039586471352,8.092113189931661,-29.231631002978613,8.019627472934081,-3.412539364443181,-5.120809255336461,177.75433955936398,7.7133090261899255,-27.238518997165993,3.5439095651693493,51.27519870863581,0.9924999501086804,-13.632652109636206,2.2188755132943014,-15.211491823515225,7.353556746884625,-12.616471928075828,1.8108055248874588,59.393350034836224,3.257888398902288,-20.888422025903957,5.965844277701585,-18.40773209652869,-2.6367550975160716,9.517278448028362,-2.117197981037834,10.975607938099564,-1.0780076741388689,10.582058558514166,2.31044413126708,6.3986806872782225,61.78857026132448,-63.99769684118206,-1.5171082710571877,0.7255047220278757,20.72865981957065,-49.339274196115504,3.064102152049823,-1.1524592127725286,5.091853035143755,-8.318196388503075,0.3511833815767085,118.4943687018376,inf,-9.98805240017719,-1.5215235052609395,-3.4209773961259557,2.153296221281219,-12.015066205878913,6.517503649327469,-5.615975021041661,5.486196499948425,-42.324985060787604,-1.3390154394445788,19.808912819148418,4.816419593461392,-59.59935527351973,3.3867672481533995,14.75640320312976,2.1257598119691354,-1.4511808308090013,4.796206618240509,-18.669890583511854,17.938842203548063,-19.95529533123519,-90.4761904761905,12.6530612244898,-0.3904163409178372,55.99303991631604,inf,0.0,1.4411871618876395,-0.6478781988986023,2.9805280988513605,1.0006995181097442,5b222aff59f9620001c109cb
-1.6792859095897328,10.820062247289647,-0.9705353769413795,-0.6543172217879298,-0.8042204521979743,-14.090909483997308,-2.051294226507911,66.11473105915427,-2.1200961647889,35.49371172282924,-3.4677244434856545,30.648995374696998,-1.5598924940797876,10.426169290277045,-5.937675106121858,84.29093595508995,1.3480638929245767,-9.788631406562104,1.7254901960784483,-4.292705276658703,-1.6118628518367601,19.454892395766834,6.3507784966036445,-22.43684806056887,,,3.3769683395421106,-19.69789062372215,10.101900359138034,-42.757769599138264,5.076604285609008,-0.5060377164585509,-3.4389844499723403,106.23923623982432,7.18792475881224,-17.270336045625584,-4.0895452150203235,78.08393432585275,-5.280399630219915,-5.934242848297604,-3.466778386122805,-9.667200252146985,2.306232261121603,37.21348990597897,1.4806012877122043,267.7749230396739,1.4919406668819966,7.24523856483332,2.3406277572698877,-29.259270743968006,-1.2492509039868471,7.322601169975118,-0.12872002202231006,1.2276046717193303,1.5197542922183072,-8.105957318620463,0.2612360714211506,8.285639201143645,64.57669222648897,-72.79324892445702,-3.1579439636699047,0.020000665040870745,13.984242918896546,-33.23962362249669,1.4494402751101276,0.022398112183859058,3.7619808306709057,-5.374719521316392,-7.737385776718314,90.86488055598247,inf,-23.458009088604136,-4.721668271570432,3.2405538452948743,0.03722385471650844,-8.565141493763392,4.202739258479861,13.875648992024978,5.4071195827359215,-37.856931683414146,-3.32621099510962,41.48703105727954,0.9937978776048507,-14.807767156156066,7.723913900824053,17.226801241740525,0.6403891754586483,-5.533494502244707,0.46403013182675257,-7.413435870891429,12.062558356675995,-21.454868231184022,-40.49382716049382,4.190476190476211,0.4955729082627985,57.007323596165605,inf,-2.8888888888888853,0.7533802325001082,-2.267573696145127,2.043088840474501,1.0083424011606916,60f06a479c4f3ec0a536d40a
0.36319296980361315,-2.4012654180841992,5.690536025424318,-12.538132636034124,7.698469520592899,-28.77328876532343,5.170544476100021,-4.997923853328235,1.3983646840360784,28.067784486053927,-3.390395886214498,19.495889837546528,-3.2653463641745066,13.135161144894914,-5.0553305608723615,99.5001524776545,2.028646227013921,-13.476818619488698,3.9215686274509847,-9.404572973608422,-3.4019351427439704,55.82371447220568,8.556964823403055,-28.609370584993727,,,5.078811782795505,-26.01069835466819,12.490969748712798,-47.384114618906224,7.136525907464286,-5.1524844560916625,-4.774287325876517,181.37180522601471,4.60406181346351,5.754607209288895,3.837582831721224,2.922992320432307,-5.698970886948599,10.20208763503409,-5.667934289409727,8.671132340333305,0.4285537322093407,46.41752120697773,0.8251615241629621,282.04199093770603,3.665152050341183,14.538003715319736,4.893316701680682,-28.30828518369219,-2.91682057839137,18.311878622398076,-2.1754154961131795,19.73799985588708,-2.2005665231960054,29.81646701479089,0.9974767049574725,-6.769954869851297,51.82535339893505,-55.96231676539433,-3.064882172667599,-12.6686356979267,9.002321559869603,-18.470489470577466,12.30150708323757,-32.99730322112573,4.183307744415558,-8.795811518324616,-6.768970997218904,122.06085753803598,inf,-16.828849979521383,-1.284829000093194,-25.581738364730832,1.9086615352086973,-5.615898039926341,2.910155874658472,23.187776500473642,7.199627235561568,-37.033541636645694,10.544012714530673,-37.20741390620452,3.6460805040832387,-56.30142151564394,12.037037037037033,-15.025751627123524,2.9439225965248745,-13.255985957808958,2.499999999999991,-4.226691808087163,5.9523809523809454,-10.39703928495938,-77.77777777777779,11.9047619047619,1.5829182415978804,22.66148981623398,inf,-2.777777777777757,2.02065559048046,6.424792139077851,1.643168974699339,0.6030105186797364,63ced242b56ce9d796f4398b
-4.630737015035535,21.40116506544083,-2.2933061218392172,-0.7081125785985606,-3.0090270439774986,-12.643559359772945,-0.6449825894270451,31.21246965631786,-0.6071853362219305,20.916781279915174,-2.761231149206821,38.676188677700246,-3.7748312035199447,19.923858414348846,-7.9977311711270245,105.45861502327256,4.092606495540061,-18.041603892410077,2.03921568627453,-14.667114790549817,-3.6481768441995728,17.174899463756528,3.5193396166694866,-16.110918710527017,,,1.2749486882827434,-11.449848455467066,13.303815761693121,-65.91532462824277,9.913089269826706,-0.22609321206516633,-4.578949024543762,188.6405293241793,3.3955660702441453,-2.259150913247705,-2.3306518498165647,36.54963677881086,-2.2150537634408574,-2.4723254290019425,-1.446892832985602,-5.204239906198565,5.931305357422689,24.09765302594225,3.5615809390191266,330.1281865034077,2.4357072205736916,24.951654201218698,6.128167670821626,-31.70640950106982,-0.4907611041394095,13.103289791623741,-3.8939662979935035,18.030940517667727,-3.9963157253303914,22.18699273466291,2.1976761812068135,-7.719208926547587,54.25163159699863,-51.0799767565023,-0.7786109402387884,-10.428075198166727,12.51467010161732,-21.031656678667904,3.031061393432174,-10.79098648319103,18.916400425985085,-5.123410620792818,-28.883591577274537,167.21991701244818,inf,-29.89804575507578,-4.414003044140044,0.9311790741342595,-2.731991392351875,13.162030745069659,5.8315027211796,7.239282005637189,9.152753264641687,-40.35712618553271,-1.681745813532009,18.06288964321115,-0.4079040631106167,-11.721904981171493,10.455628896222944,16.40403382330983,-0.7570628170606751,2.267697394093359,8.888888888888875,-14.76459848552871,6.060606060606045,-9.984459984459981,-100.0,14.285714285714285,0.0944552594185441,35.878903704990584,inf,0.0,1.5067604650002497,-1.2093726379440717,2.166962996352297,1.3329706202393887,6116920ff5bcc6aa24f00927
-4.203187250996013,28.445826211211173,3.910202900219396,-9.069704862184649,1.6627399725991188,-17.629353241894876,3.6701431241500235,-0.41682637025675684,-1.580661179541495,48.02474882646548,-3.9355351208055382,43.69831651333298,-4.4476187627138914,16.896483304463302,-10.79875864346646,123.64156637502633,5.061257333392946,-21.849771257261487,3.058823529411778,-4.088276385931121,-6.783625381970977,33.94617544983174,6.581610059740145,-41.89478048508033,,,6.014545907120008,-34.632875799589705,7.888538500122401,-35.23391732982603,2.535211267605634,-3.0391552335440197,-3.5792406576980755,146.07645693131377,4.890077243018424,-22.892647311880893,2.678803930032435,6.411255330597311,7.097705162221296,-41.47109689700455,8.646963878221166,-40.84233705301509,5.523370006645498,-4.37348791546078,7.22349485586356,-35.0279132510117,8.835994190447808,-29.415737349689525,9.686580882352956,-31.153420777905303,-1.2355323083244873,2.658624518093462,1.0408573102071514,-14.9177723735615,0.2492954259816433,-19.39111915428679,-0.15907458287359177,-46.288165834686644,67.3691853256654,-76.66066577419481,1.0369898500870813,-53.35927147160585,18.57827749308242,-37.44324432091383,4.486528815560835,-15.898910770949037,3.4345047923322642,-4.573672400897563,7.30035756853396,-13.890169560985646,inf,-46.27837750863028,-0.009784735812129818,-23.529209320413813,4.5487470582994,-35.54000181208662,3.274867409392166,-7.500910304648564,6.085971818828013,-12.245515119410761,-2.197768687700967,34.60922370513838,2.53390630358318,-30.409181662705727,13.888888888888895,-1.604621309370998,3.88505747126437,-13.646647866481576,-2.1666666666666776,2.585974678997927,28.78787878787878,-27.92777398040555,-100.0,14.285714285714285,0.5107428039078596,63.52850048502214,inf,0.0,1.4668462804969196,-3.684807256235837,2.038414344026238,0.625680087051134,5d9b4e21b56c51035c35cb3d
1.2583274894810779,-6.712102813016791,-0.10477979759998778,-8.452148208174137,-0.8974595210084664,-16.48320625317604,-2.570037986704642,53.62447297815254,-1.4215240695263194,23.98346489678695,-3.370724201364679,48.61575320467054,-0.8463377800150927,2.7521729012152005,-6.943972835314094,115.77320935396713,-0.5373718024922609,2.372831189196691,9.407418139669675,-13.375453676987782,2.2961437217593175,14.101561864449542,6.046352835254367,-29.23940353178129,,,8.479384682551208,-44.42566635214934,5.1908327614451135,-16.6743292626606,1.7605633802816851,-3.5428549406505394,-4.935226190476204,160.4724363122903,10.86734693877548,-6.733818432114942,-3.978434919326516,61.64722441948509,2.6881720430107507,-13.364703691172327,4.4587155963302605,-16.024291414755233,-4.399456563735459,103.25951624401723,-6.177987490398326,76.13655701981976,0.4951780415430347,-56.74407418965225,3.4880514705882417,-57.09350160728503,7.747666106397218,-7.780907956615726,2.8928795825160734,-12.122649256870075,0.6123442989460337,-9.58958727378047,0.060066922200645995,1.7855985617862884,58.54378569103468,-70.39390127888274,-3.385380932514835,-8.76637048523069,15.802342818471873,-40.60924251486475,0.6137703700264724,2.0571404272705944,27.99520766773161,-22.17277486910997,-12.500000000000005,130.29045643153532,inf,-44.27714147797087,4.886931941726464,-48.83660094447691,1.1154443535559102,-26.18247712240642,3.960208022145808,51.494922522959875,4.555704319639202,-28.545739794727552,-4.863761338581489,30.25025284686929,3.9889132332705546,-40.586993801434865,9.612211221122122,-21.309370988446748,6.44677661169416,-30.26892600017643,-3.6666666666666723,22.734129478315527,19.60784313725489,-19.372294372294366,-100.0,14.285714285714285,-4.3201021597289175,80.3865699517873,inf,0.0,0.24696901661428536,-0.680272108843538,2.6218916685449494,0.9521218715995564,5fdb9ccbe6b281016f79a732
-0.018507419166719778,2.3249631584227908,3.3453196384769623,5.743150098526137,-1.234272973403424,-22.566674338767577,-5.787037037037037,104.92046761211196,-5.803191219941653,59.437914461857474,-0.1707344379757984,12.298829938657047,-0.3096110611031284,14.415550303371605,-7.073288324054089,80.28431713634076,3.877035853153225,-21.42804519923988,7.932773109243714,-26.918307891681188,-2.277021796019722,36.78802292622095,3.418870617549758,-14.768403798685698,,,6.43237201772399,-37.41777100290328,9.492936205259248,-42.507516239109435,2.8873239436619618,-7.973639586866038,-3.7240000000000153,182.44140985801246,7.528846153846129,-48.91467341871738,-6.283423140134227,112.19943691576427,0.9462236546235311,-16.199716389439004,1.9108862785446763,-17.02029337780166,10.520985273922165,13.269280694780836,2.924393723252507,28.595413510428735,5.905434952366095,-45.774075038852914,6.385569852941181,-41.680878993663924,13.4352098706051,-21.38373945860598,1.0839490848147944,1.958050015640339,-3.2881210736721838,29.467545943738223,-0.028484476437341828,25.13381848800137,61.627756696626165,-63.01862667215883,-4.644894867507725,19.05678907385645,15.602688419884428,-37.439339032942826,3.681148501590506,-9.156588126779692,17.01277955271565,-18.296559461480953,0.0,101.45228215767636,inf,7.774331153823646,1.5900195694716137,-37.2557859675267,2.7948583540351484,-17.576243544441397,7.5271458241583575,43.86894035385021,6.498889283167722,-20.05303311677639,-2.4538438630694253,21.841207830164375,1.0526860404128275,-15.793672899361564,19.047619047619037,15.701219512195113,6.789227218749295,-30.813789585487317,5.999999999999997,3.7013558408907064,45.3319964349376,-27.412280701754383,-18.51851851851852,7.142857142857142,-1.7394103512509003,66.1217043825739,inf,0.0,1.3845232749588356,-1.870748299319736,2.668219267272689,0.47606093579977227,60febbf6684ed23d1eec2db6
-1.239368392164454,3.6620351831012665,-0.15027816787669587,-9.06817678867397,-8.702084013797256,0.5912315827092778,-1.1031972143083353,38.2399599676334,-2.3779759428816485,37.593104042038455,-2.863239018594052,29.575293580349506,-4.951594435174938,22.809252446556407,-6.842684373753087,78.98037733480353,0.6271460526630275,-7.769947763985131,-1.0457516339869153,-2.474929930405134,-2.6704654697268086,9.775755456492654,3.185156341243308,-11.638713295240999,,,2.144947553528105,-12.919683769141004,7.512431612319537,-41.620122286416915,-0.3599374021909193,2.2957881575116126,-3.3948936264529905,116.97535727658675,4.439897009128992,11.326482951891554,-2.576318820079403,48.550163698008944,-4.294226252714573,-3.413546099303496,-3.069884390321925,-6.925349084915454,5.795720887854995,-6.726294926969424,4.01999446702759,151.5596601063036,0.09707466329361229,-3.665950417047463,-0.9438839933506572,-18.219628975001303,-5.822036229105732,16.640704057481503,-3.2526479494840395,10.334578871665249,-2.194531644248232,8.521004979967737,-0.9526532882781954,17.42897449936015,57.30896318803269,-64.1553296043484,-3.448129044973125,5.383948694487108,15.175861995197224,-33.00816110062146,2.2506869831466907,-7.786104157423154,6.185658501952427,3.808692761572318,-22.427253384321848,112.9396262714228,inf,-15.180951312906732,-3.0225687433776303,-18.307720212705846,0.0075808759056178645,-3.15949382380476,3.9844571556820823,18.426633367998896,5.81018659844851,-48.44178433199177,-3.581245932316025,24.288804411027158,2.1555634456552566,-20.765063358065795,6.2276752366594765,1.1006513573907653,0.818802349359209,-5.542761404822652,-11.666666666666663,7.16933544840519,7.262164124909224,-20.465554447247815,-27.160493827160504,3.492063492063492,-4.555253669358832,57.06569897874236,inf,-2.777777777777779,-0.2378220159989482,-0.6424792139077775,1.634404293858921,0.8614435981138816,654ce65838678c566569c723
-0.47545105807890115,6.822174780640022,0.39365695337120077,-4.0123346650459535,-10.737836654827559,5.392445787633906,2.2253086419752997,28.796473744729795,-2.816603199273384,38.6435505984187,-6.708755173877788,41.49826004456857,-0.4499784119076976,9.75582691747831,-7.6944763696268055,113.87072445140254,-0.810116855485665,-2.3616830309286696,1.1326572008113671,-1.7362094791119407,0.6195184291648466,16.07678973760533,2.975210364646368,-11.634201522862082,,,2.2223594429607414,-11.845454694536903,7.116133740086643,-26.456113099396532,0.7183098591549172,-1.009711731154622,-3.5330118901686642,111.30942893665734,8.336102108799661,-27.715283069888734,0.3966369515552179,43.055113852192385,-2.9345137202638045,-9.372060807780064,-1.6036561003379257,-11.491758545290086,2.9352108299300568,13.327039656418224,1.173912722160403,207.22992632562048,0.9464723197357139,1.1531376932432489,0.6621769011209858,-17.031225774442643,-3.498971488993632,14.517944737955283,-1.95645943652328,11.838874021633488,-0.4094171957485085,9.951786974650622,-0.19638154369743138,8.469555992875403,50.01259206335751,-55.1482385940136,-4.483824744373663,5.517639916816908,12.140396512114247,-25.58997877305939,0.6353124202529281,-1.1548678368237224,7.5521326649065665,-4.1510845175767015,-5.923718712753262,101.41078838174276,inf,-3.5106927622725514,-3.7646072127481154,3.1543051820036054,-4.873886248420452,12.014333605146362,3.2882220799341595,16.65776333316064,4.240969386253113,-39.3518106963311,-3.895861267832331,25.753607552133538,0.6118878895719991,6.896546637615968,10.127887788778878,-1.288011755436088,-3.568455282551293,7.748970428673299,-2.766666666666661,-0.09216126425429966,10.935828877005338,-14.283698757382965,-56.66666666666666,7.999999999999995,-0.07444707148046556,47.51161578560008,inf,-1.6666666666666607,0.9414758269720128,-1.5986394557823131,2.2958455412817167,1.2132752992383018,64f9f86e6bf2358fd13945f1
-3.021567777961462,13.552797284433934,0.008343554594002742,-8.22908317772119,-4.528240675965363,-14.342241087488139,2.373931978523574,28.539031557429418,-2.384093675929961,36.47162338689534,-5.1093493499321925,36.012032735450695,0.40249809437146966,1.7253292875017363,-8.3966827493987,89.50171734148789,-0.08290848913688027,-2.3649413207929193,1.348884381338738,-2.2474733284114126,-1.959215040598432,26.724978773064066,4.835073758243345,-21.278458152731535,,,3.9046309709544764,-22.34951327018869,9.570517249475449,-41.29158541149274,1.0446009389671422,-1.5089152664302996,-5.099956838432536,163.68486389960765,9.16859004792883,-18.457107270745873,1.4277179662000752,40.54130161571802,0.32630914013274187,-11.961352237723382,1.6359762396226978,-14.129289426234978,2.324737326420007,6.453844204719639,1.734435082207823,232.68039846425293,2.0753987317145817,-6.872797994648764,1.300388161087026,-11.33962810216342,-2.0045492110343677,6.9593521397479154,-0.6880989107264723,0.8116271166383906,-0.5745128914560892,3.370533659739882,0.053727645355190715,-16.148816612478345,66.42794438248082,-71.06871052528345,-3.3354647645827793,-20.56606671033297,19.964394233172925,-45.15274015175504,-1.1482884210125337,6.694245863646856,8.336661341853027,0.636686611817501,-16.666666666666675,115.2489626556017,inf,-13.824078035710807,-1.0857133644687458,-9.374652857244241,1.1814077609083493,-11.061641146446794,4.157424131091742,15.2084548253963,5.935818925362815,-40.46667316134611,-2.2801676675615674,15.975356605190191,1.7756113286269477,-6.963012036263329,14.68188485515217,-20.565388586240235,-0.2613815319282734,-4.253377042757653,-2.4423258003766444,-9.952889766843265,11.61678055060407,-14.300867261393568,-86.41975308641976,11.9047619047619,-2.2736721849103203,62.14636683417864,inf,-3.472222222222221,0.5887342214239235,-0.7842025699168574,2.351229976877974,1.0541349292709423,6507355f07adea6bb9abb279
0.463261496690984,2.2907599770502975,0.15100605585340288,-7.372030024587262,-5.827844560238944,-9.33679241656821,3.205128205128202,-17.952280567267128,0.8574167621500897,26.411550436122834,-2.4383551115965996,32.313796217773294,-0.14536681925027156,13.129686029687035,-4.7129501592271446,85.2753631008371,-0.1053709870202932,-10.757866995265285,4.352941176470596,-7.617025894225687,0.07137868042123752,18.428237923293945,3.966887522769555,-10.169216033521634,,,6.289366033879793,-20.790265863202144,11.236339876003312,-48.52217274275404,3.169014084507042,-6.803607214428868,-3.005697785186968,110.20854770339974,5.711503928170575,-24.740037857371167,1.150570133260075,-0.4013792223439615,2.6344086021505495,-21.593963758140482,3.9166595215639135,-22.229175392031184,9.599784731254871,35.306234442626064,12.075149778845166,499.1368683200175,1.4099304178686303,57.67443595485744,6.741752947789142,-39.66014450060476,2.16098070189221,4.431477830628656,3.9027817228196664,-3.8702419392324763,5.841525022364889,-21.701227530413796,-0.6136580277333283,0.9412401515606943,46.220997183361604,-51.76257061315758,-3.4816785881125267,9.931885430176093,17.684175439611007,-31.060238773763054,-0.6879515512112094,-2.34305120411473,3.6741214057507867,-8.365744203440531,7.30035756853396,59.336099585062264,inf,-15.615354938271608,-7.31059547106514,47.367384058382456,-0.178120933208283,12.771224064510319,1.9839401128974137,18.579337205445885,7.015099110539291,-30.102940669073785,-4.1611034470332,24.597437432981383,4.550686551391004,-29.516187392133975,15.580308030803069,-30.42362002567394,-1.7665782493368685,4.804238005890095,-2.5000000000000098,-3.486037532549176,16.666666666666664,-19.372294372294366,-33.333333333333336,2.85714285714286,-3.423394840110215,83.29062242105714,inf,0.0,1.1225864391558076,0.3968253968253909,2.6168832794932335,1.183351468988027,5eceef5fa487421604c337ba
-0.8866159373736738,7.009052854835082,-2.186864987408575,0.7084332605861199,-8.987003658351773,-3.697491641296608,0.36948005698005826,40.635181103871204,-3.774316823816253,59.22999359906549,-6.585745239682761,42.70315772790526,1.1575014835939788,-3.672576730927651,-10.565629502606766,107.1678389728589,2.880807744155187,-9.45955019619313,1.0588235294117752,-6.849852375332886,-0.2034514204686929,22.15260851416125,2.1382166271841894,-12.867963145685357,,,2.57751998959086,-17.784795740149864,9.620685988528404,-47.27087667123301,7.728719789370371,2.513970248188704,-4.0242741573807566,173.94922324836435,10.48863266657747,-31.608292976720236,-2.1066691090045957,59.111331084091056,7.855744725374433,-33.426952413283125,11.399814478023812,-37.53941254806076,2.8595067482180934,27.050929492831482,2.107043561810993,302.6969492580685,5.210539737232545,-26.255957440493145,5.761270910566742,-39.92339555748502,0.2927310212304527,6.3152267359883885,-3.5747159685849814,12.123660802526665,-3.5150631931896443,16.27151656231491,-0.23480467626539261,14.11838081610965,59.17646017733369,-63.903367548840784,-3.891157060828254,13.537274914432698,15.28662124667074,-34.20910735437268,1.1949412682299325,2.6462474969729533,9.071812023838767,-3.0403889304412863,-24.999999999999993,98.65145228215768,inf,-9.15666048651338,-1.5228657699160515,-0.1643422202835095,3.042133324270877,3.8282141886382517,4.642185717501948,-9.503828562254633,5.734109728483293,-35.35634986838125,-2.742582101605288,19.615788574593868,3.148647337444503,-42.63391804797408,12.891914191419145,-0.93313595687579,-0.3472126529845633,-2.404154188113976,2.750000000000009,-5.35350633025053,34.85219845513962,-31.44111918782972,-54.166666666666664,8.928571428571429,-4.831068159786781,70.92414689136001,inf,-2.083333333333315,1.1543930549318813,-1.8565759637188242,2.2271680064107695,1.4791893362350337,5f600669b846780f0fe45709
-2.8853754940711376,23.251561605542904,-1.1618919794511091,-12.148762655308639,-0.32560032560034013,-18.03149019213751,-4.938271604938281,100.11977769260257,-2.1861376129399206,41.550382950075836,3.7337662337662616,-14.927145484697846,-1.6763577879500242,13.408591968567848,-7.216494845360831,43.73961111755386,6.438008090777593,-24.815233893460796,4.94117647058825,-9.994167356184622,0.46529876772843304,44.355699797957335,-3.199937101973429,18.920716859759708,,,5.6293728737402775,-28.584124396497064,10.935481092256003,-51.49654792895253,3.802816901408451,-9.792662247572073,-2.4933333333333416,85.21026540677036,10.81818181818179,-60.1747830575974,-4.7386444006858905,112.36924404184197,5.246008471814927,-20.352382023607813,8.286604361370708,-24.702421176234818,14.429140231399714,8.85090937442479,3.8516405135520646,27.93981529521655,6.8952053724816516,-94.86418118664163,7.3713235294117485,-83.75711908379596,6.884331171768962,-9.376629940642834,-0.9214578735395617,10.113047014362522,-3.262032085561505,28.81373618611633,-1.7363658596233857,43.974659690062225,85.23012552301256,-83.43042642501275,-4.360465116279066,33.38121740243159,15.750381785367237,-39.60305621034611,-0.4143646408839662,10.279602179264126,30.990415335463243,-28.040388930441296,0.0,16.59751037344399,inf,9.202211690363342,-0.5381604696673273,-4.833001510268202,4.291542265879631,-36.228504122497014,8.288051541419767,69.41376380628716,6.927825097417148,-21.75027551647926,0.6755380009717726,-7.27799208666987,1.0338788681559836,-36.314724332904454,11.111111111111109,-2.743902439024414,8.980753288073293,-28.612273262618192,10.000000000000002,-4.9223309688426164,44.83065953654189,-25.0,62.96296296296296,0.0,-5.117466134415291,60.29883160317936,inf,0.0,2.035623409669203,-1.4739229024943323,3.140259935391797,0.3536452665941213,605b98c83da1ded576bcf096
-3.3428151142397713,22.275342710886235,1.7429340137446836,-14.113078495178891,-0.6362357108625907,-12.168046529450983,-2.7035849952516684,76.2828190877731,-4.3850987088852555,53.14073777586595,-2.772493436284841,23.078293562633583,-2.526908326116537,17.835292537239983,-8.613479265791433,72.3611198356248,2.910550762037834,-12.174822541047279,2.117647058823533,-4.227988551740956,-0.40324296236717383,28.385057074838006,2.7435017842771168,-4.52484619690993,,,4.624766392653144,-22.95576239001542,9.856663659458727,-42.43263355228331,1.5845070422535135,-3.3048789887467107,-5.3153509383683035,187.60806617045955,7.485129082015507,-18.15095012168447,-3.5305775620379247,81.66391245195449,-2.5584512194372153,0.07591751067523271,-2.5594449985033028,-0.2663859133433149,4.903538444798931,4.291515622075478,2.6579060327535804,265.54674691294025,3.795096048727156,-21.624375863310995,2.535345480103795,-44.19969094648937,-5.071398197615085,19.122459865569834,-1.8862342192104924,11.367015693334578,-0.7310605728388938,7.343690660755367,-1.7706516139132367,17.948049691599227,63.83786356138826,-70.24892057490881,-3.3331909899928243,6.818794502726113,14.660102692369549,-38.637995637336005,2.7648844177461074,-3.466642687200684,15.0958466453674,-13.190912490650716,-18.75,61.51452282157681,inf,-8.553318449768879,-6.053959358753884,12.493041610096109,-4.082493976590485,-4.483781824771202,8.351107288342043,8.68652251770298,5.642873972216879,-38.29100628969115,-1.5986066061242965,-2.1850084698670225,2.7981948889926107,-25.05250312878442,11.616474147414735,-3.3506649400691457,3.8808323592365648,-9.503563848126785,-10.333333333333334,12.07165304839722,15.530303030303019,-14.096320346320349,-59.25925925925925,10.714285714285714,-5.850488475440656,81.86697360610397,inf,-6.25,1.0739410267924026,-1.7857142857142905,2.136077930533695,1.0473340587595206,60a2541c0e5a829853aad745
-1.0972246282885423,8.480460814858315,-0.4767208916447439,-3.58884071026625,-6.589087977344478,-2.152996272101942,-0.7371272758761661,53.304426983518596,-5.00047992300166,53.849417238164555,-6.142774444140973,33.72739318655588,-0.35749981114957635,4.945206702120135,-8.468997041793253,97.57929643374094,0.05375281422548471,-5.779229200773251,1.2865256447406612,-1.4445385332353966,-1.3894690963713823,14.44422984630739,4.414188042002178,-17.461180759162993,,,0.5267873508511676,-6.304880136598426,9.07798178460265,-42.65732064126439,0.6338028169014085,-0.1588561738862316,-3.892671255072439,124.85657896848083,6.658272957300753,-32.61646058162697,-3.2370315378626926,65.56180585842795,-4.987813168312317,-7.78933582395742,-3.814633692844204,-10.697092173251685,1.7985526378190835,23.23355702822282,0.8179103706967663,394.78385389644177,1.029009745198747,15.77611610005346,-0.07376109718081149,0.2703443000815715,0.984188453601124,5.4628082994107885,-1.2994551855309793,8.962018169769351,-0.8230600442807071,10.101885572849769,0.56130662934913,9.588381588490586,43.920667875596145,-52.15611024479227,-2.4752014546459216,2.6622996485329944,14.27892245999499,-33.26349787144218,4.254146225539228,-16.781863326513907,14.888178913738011,-1.3762154076290214,-17.20152102282188,161.01301162850268,inf,-28.98020156807678,-3.784971135264697,18.030599277618,0.395015294308247,-11.433505481561962,5.827512909627424,-12.22651626604242,5.580537814825473,-41.48541437069602,-3.5471368915969816,22.327360070149677,0.8354815854173043,18.235009818034513,18.287298967992026,-2.9670983874850743,-3.3445556797582743,11.72240464884645,-0.9454802259887063,9.262638053335698,12.572043969102776,-21.142585484690738,-75.1851851851852,12.857142857142861,0.6175785219252139,33.4763670831577,inf,-5.000000000000004,1.1106121838048169,-1.5079365079365181,1.7123682167631233,1.5533188248095675,61684bae4ac887b438246ff6
-0.9574207623413421,2.159594015049077,-2.50197137641316,-2.2815052939273874,-11.774450630588628,2.186003272212317,2.757331962298641,5.8342002956797625,-1.5720549686006877,33.02257357863248,-6.055077863428628,36.70251809869593,-1.241183307008717,15.42627379102357,-8.174460913238962,95.69968145362435,1.697542199825704,-14.970608456969533,0.7505070993914774,-6.211331975243598,-1.881109165938017,21.355225038579277,3.8153344286608095,-13.35515554627433,,,1.1642740476801388,-10.8529990546977,7.587742482955047,-33.76041108535856,1.2173038229376205,-0.39926005857867775,-3.9955280888033475,167.032967032967,4.91679910882841,-2.678286093561859,1.4485371057996854,20.02192291082014,-1.3397248441570773,-9.331522480922573,-0.19047494632531894,-11.833693093845067,3.7191387531660935,14.076098548960431,1.9114135820524119,121.4989549207669,1.2472134716997236,-6.502646298795699,0.37988181231161267,-5.284696904592137,-4.190957969149863,14.706074706442045,-1.3496186761352713,3.9819730696338325,-0.0053436950620824935,-2.4951023645951267,-1.5966676717872579,4.835209903668111,42.741201805250974,-54.134245384925784,-3.5964403961395246,-4.223014869142112,16.037925545811646,-36.55407173600187,1.016227262340351,-9.161254174262172,3.679826563213147,-1.954535740997996,-11.57706945449516,45.93953764078247,inf,-27.031170331920734,-7.4609309019172825,25.633969393777754,-0.5156697555185966,-11.909589821250536,4.034433938867532,26.504200433345886,8.22920920653373,-45.44717172657285,-1.9681695379560498,20.98864390561344,2.270472797055222,-11.115542583015584,10.520643901124801,-1.318989404167226,-1.6234778557130896,0.5489841592450203,-0.35714285714287475,-2.4619094652317366,6.89828961887784,-15.996300746219013,-53.968253968253975,7.346938775510216,-4.470398917234865,51.8975192407633,inf,-3.5714285714285587,1.3471037269869792,-0.4373177842565512,2.417263201576997,1.0123581532722004,5c8bafb53b6f3d00013d7c30
-0.37785754781513714,1.2900805528971853,5.493582501517362,-19.94423868193625,0.32660646351932177,-18.06553826247983,0.1681703070591852,13.249009837741168,-5.450451487980266,53.67987096983051,-2.077407868642463,15.165695740619082,-1.683506086640874,19.25183936806639,-4.6868308537422045,73.7078324120246,2.4520056681412528,-8.900919595092272,2.117647058823533,-10.478035649962976,-2.511139832303007,20.020307238113297,5.44526685212195,-29.38996131969246,,,4.973071368477344,-26.21149111197595,7.148727816393746,-36.187912699311006,10.896372206868636,-1.8000102769641642,-5.212003189192648,181.6770147151979,7.393372823315629,-48.1542483017446,-1.5664036065190026,33.075894854136386,0.43659271376361597,-12.814154645915481,0.7306469948203036,-13.156627993677791,4.578978324582721,17.916929065180472,1.8890762114727981,160.19521981252845,1.066075604355422,-31.545935967520876,2.5186938746086724,-11.307155088357678,1.593984884741191,0.9753732582070218,-0.5456775902885839,4.083556726865989,-0.6114165206569169,6.539492486973571,-2.2856833142524327,-8.89976542103026,48.755531106688046,-56.25087857806024,-3.101230078659676,-30.832536678458556,14.670724916480287,-33.776307919642555,4.059554691917691,-16.13501266467245,2.529286474973365,-5.506108202443301,2.686730234406054,108.85200553250351,inf,-26.335132525890824,-2.487039970732087,-29.064503927863576,1.6239956375114828,2.5700824499411183,3.866494452684241,-1.2054632537994887,6.773472894288211,-40.49432628863575,-3.045561079505607,25.222039141737984,3.717119403713793,-29.21891792119331,13.794921158782541,-4.59408795717869,0.98330596606458,-6.573941733128172,-2.1111111111111036,-7.15033970847925,6.699346405228749,-10.822510822510816,-100.0,14.285714285714285,-3.5675217570927216,58.25311670215443,inf,0.0,0.10228009778975738,-1.2282690854119331,2.4432591257022795,0.7616974972796524,60513ec07ee46769ed029be4
-2.8853754940711376,23.251561605542904,-1.1618919794511091,-12.148762655308639,-0.32560032560034013,-18.03149019213751,-4.938271604938281,100.11977769260257,-2.1861376129399206,41.550382950075836,3.7337662337662616,-14.927145484697846,-1.6763577879500242,13.408591968567848,-7.216494845360831,43.73961111755386,6.438008090777593,-24.815233893460796,4.94117647058825,-9.994167356184622,0.46529876772843304,44.355699797957335,-3.199937101973429,18.920716859759708,,,5.6293728737402775,-28.584124396497064,10.935481092256003,-51.49654792895253,3.802816901408451,-9.792662247572073,-2.4933333333333416,85.21026540677036,10.81818181818179,-60.1747830575974,-4.7386444006858905,112.36924404184197,5.246008471814927,-20.352382023607813,8.286604361370708,-24.702421176234818,14.429140231399714,8.85090937442479,3.8516405135520646,27.93981529521655,6.8952053724816516,-94.86418118664163,7.3713235294117485,-83.75711908379596,6.884331171768962,-9.376629940642834,-0.9214578735395617,10.113047014362522,-3.262032085561505,28.81373618611633,-1.7363658596233857,43.974659690062225,85.23012552301256,-83.43042642501275,-4.360465116279066,33.38121740243159,15.750381785367237,-39.60305621034611,-0.4143646408839662,10.279602179264126,30.990415335463243,-28.040388930441296,0.0,16.59751037344399,inf,9.202211690363342,-0.5381604696673273,-4.833001510268202,4.291542265879631,-36.228504122497014,8.288051541419767,69.41376380628716,6.927825097417148,-21.75027551647926,0.6755380009717726,-7.27799208666987,1.0338788681559836,-36.314724332904454,11.111111111111109,-2.743902439024414,8.980753288073293,-28.612273262618192,10.000000000000002,-4.9223309688426164,44.83065953654189,-25.0,62.96296296296296,0.0,-5.117466134415291,60.29883160317936,inf,0.0,2.035623409669203,-1.4739229024943323,3.140259935391797,0.3536452665941213,6511fd9e06231927b6398700
-1.7552044651633218,10.073118770990357,0.04576036222298302,-3.080739873628647,-1.5036401357596678,-8.448118127854341,-3.113553113553131,60.258446038438365,1.9966554840844233,15.114366745199812,-1.4837767534176993,22.84743031359463,1.4106939060277357,6.4584765948784355,-6.2897379595379554,93.30012955998686,1.0304133927657133,-2.3194632840366576,3.6974789915966477,-6.658127624447488,-1.6770124313426145,47.49364310233048,3.594854813661325,-3.3442740451591866,,,4.541318825524479,-20.814495951314814,12.41996706900595,-54.69842025631326,9.958130914476191,-3.01790393974762,-3.579056395421153,111.06692331026026,5.0023217523217385,-28.807773754798156,-4.240545571772396,76.15793890504634,-1.3635814139111282,-5.874738148463296,-0.6730765000784666,-7.243028303767095,4.20359233688316,13.899162365899087,2.198229730326735,148.86440652841014,3.4613198411976063,-14.534521725268522,4.563424370991002,-36.00037801098305,6.023117190313354,-7.3715748300360175,2.058496793641843,-0.40154608192483343,1.1851348024170558,5.239925352968328,-0.20042103756579732,10.697477715678696,66.4835162799258,-66.52744561105602,-3.512117486358221,-1.6416613212865738,12.697207148609104,-27.068259608667056,0.5926730686078359,-1.068813189139085,7.291191236878134,-9.192221391174263,-8.130427379533451,78.9289190395691,inf,-14.035256128956778,-2.2997753134739427,-17.560993127300726,-0.5510715544849651,-8.050168912359677,2.9441375139748964,17.681284073841468,7.06470999500884,-48.34311739394031,-1.4654554571810536,18.517901679285885,1.4745508543078116,-24.19599774249056,2.7463460631777514,10.842826354129937,2.04227163033698,-7.198441699464664,6.809523809523823,-1.8945343064944602,11.064425770308125,-20.60558489129917,-38.0952380952381,3.673469387755114,-1.1675126677823542,60.8660362204807,inf,0.0,1.2786794106955657,-2.0894071914480112,2.3163799363935254,0.5440696409140374,6505e1d7baa4d89f7a2f3b53
-5.906313645621176,36.315056405898446,-14.405979543666403,47.65647800051778,-16.754478398314017,22.16363433439585,9.843304843304837,-36.82445381372178,-1.3196806883970118,32.75584883878363,-2.630887234976093,30.149943381695206,1.0948905109489089,-11.381044409142904,-4.174041830726445,46.48704695107708,-0.9154779646582978,-3.2825279567342944,-1.1764705882352884,1.2750430666142327,-0.6224173553718992,-3.887147604911794,5.887350267606828,-15.246611916585293,,,-1.246062568786464,13.624982619868964,2.4384490638360607,9.517750813419031,-0.2816901408450652,0.380761523046082,-3.661467889908275,113.24359584640804,3.9215686274509687,-52.03421913026381,6.898688769824924,-5.986021456200831,-6.295020357031017,2.8696671036795083,-4.000000000000005,-2.8015293262177234,7.692307692307697,-53.81996099415579,-8.087347744979699,79.43882951125892,8.494065281899127,-37.1587052864631,12.89849467257109,-31.11724394554879,-10.79063981963772,25.303214503062073,-9.672313210870968,34.57804229720517,-5.018001800180018,28.775611395712534,-6.801883151052859,17.559792305687445,51.517341040462426,-64.10982062296499,-7.8971354166666785,-9.624227904067178,7.9520932239965685,-22.179056867091195,5.598906419092096,-15.319405603431655,0.15974440894568637,-0.23934181002244298,0.0,0.0,inf,3.6458333333333206,-4.814090019569481,52.55543911634686,2.967924570358651,-42.96982875781463,2.430544592143536,-13.755714690294171,4.686068635050379,-51.98828522196584,-2.7529976019184685,38.56814188289022,-0.2497442655583488,-8.630036388478953,14.480198019801993,20.731707317073145,-0.9595471184884088,18.007585729100928,10.000000000000002,-11.960132890365452,6.209150326797364,-26.965140123034857,-100.0,14.285714285714285,-5.939930966977499,62.81399759660624,inf,0.0,1.2572968118545071,-4.195011337868484,2.283825407557567,0.625680087051134,60b7bb77c573c1a28d072811
-0.44346453786782764,8.388712231272718,4.053690520152279,-15.740435810413961,1.6686617667009653,-17.821985617890736,7.496176622171998,5.552893829053268,-2.5044714446130265,42.76705306080868,-2.6550949872203278,22.27758339409388,-0.49527090993542866,0.19699621913501553,-7.303279692566679,95.3711864479578,6.2827587924077495,-21.008482952140273,0.37647058823529783,-17.49567073143161,-0.12101543119078344,9.943326954727983,7.45303527054942,-35.28249361800227,,,3.653812965737995,-27.043605735739966,5.804816564153629,-24.237319314295267,0.22535211267604907,0.23816864498227303,-3.9481469187721716,148.24504200864718,6.776581495068891,-45.90501241426784,6.272956698880608,10.836680805192673,0.95172986827051,-8.45026045449641,2.563569533039924,-11.5667165993047,3.014955697488473,19.649017203046313,8.666192430504623,255.70090277057224,7.734271521561651,21.664371380081665,10.596009137593171,-41.25657643131061,-1.9212722860806104,7.82243273103735,-2.291807251760506,8.242751700516177,-1.7595355553554257,10.29718043019738,2.7627085260413096,-1.17198933461647,59.239580967915785,-60.114734121846936,0.8005658862780238,-18.86590592764616,18.27181110152146,-44.24560156680623,4.155420200897939,-21.65815459854765,21.541533546325883,-18.048616305160827,5.697258641239578,36.95456175400852,inf,-21.011241296588853,-3.32681017612525,10.268816834241566,-4.5903663002027715,10.061465978073777,6.320518083201815,-3.650273967554768,1.788215111638722,-40.738972744671855,-3.0117756758989733,29.11179852608091,4.211179681418793,0.2696177749085747,9.400440044004403,-10.13264869490803,-1.9430917194464035,-7.243643376531546,-6.466666666666673,-15.841537218281426,25.147058823529413,-29.902027796764628,-100.0,14.285714285714285,0.2879613814393287,42.62588456817002,inf,0.0,0.35024696901661556,-1.6780045351473836,1.9262264292690876,1.1479869423286124,5d4dbe7df20feb00010b596d
-0.9403409817069562,9.378274400565518,2.4443050446197647,2.436001056766178,-2.872505689407109,-8.238753289929262,-12.019687340200157,100.80490609428905,-2.9615847768827828,38.99591890844669,-5.808357014040952,41.3718892294795,1.9105448129650906,1.011356085978396,-5.902839198408338,105.0005019950949,-2.044530860320329,1.9643303280468891,0.4705882352941223,-1.8630549489304469,-3.8243464052287583,36.26516742590851,2.673347091476937,-5.58657088175638,,,3.787315920066362,-22.872738963800256,-1.5196115927744163,30.323585314355046,16.45280559656332,4.6246338831509295,2.0355926438241125,33.622222926217596,10.044514017728288,-38.50881290100554,-14.007316837375905,107.50272564101266,-6.668734491315129,6.041581188076909,-4.20420420420421,0.06558476429310624,7.340492466490761,-44.994911390666694,4.590844248476237,247.22797551105177,0.100642927794295,-15.602256879642654,3.4779025810555115,-31.484180388022416,-0.015375096917393858,5.9881450940246825,0.9339958893774293,-5.2340834587928,2.149036272575525,-16.35481205661646,-2.274794386664809,-35.9686052805678,66.47646514188477,-74.31234921148642,-5.276692331042855,-3.806436679925633,8.888888888888909,-20.49136262885694,2.147162230035156,-0.2509197473716626,13.69808306709264,-11.731488406881112,-18.325387365911794,138.5892116182573,inf,2.208719135802483,1.5171776473146446,4.928103090571879,1.863250080736767,-20.67762979070399,-1.0731092593490212,32.52588731188653,2.4632580562610693,-40.214649155387235,-1.1496225134010576,6.213317589398146,-0.6576657445912243,5.611594565069252,8.333333333333323,13.200684638425306,-3.652495480951011,0.13804691025836735,-3.6666666666666723,-7.219179312202575,15.441176470588221,-13.278388278388276,-100.0,14.285714285714285,-5.246247618764405,86.04916822308114,inf,0.0,-0.3068402933692555,-2.4943310657596394,1.9945909398242916,1.3329706202393887,5f913cbf314c3d000982e130
-0.4184702385108982,0.5928303185329293,4.993104888125635,-16.655341266618798,-3.8715160308810206,-16.03886584125839,6.563642339401178,0.8402405136067312,-2.9162636787958798,41.60753386903298,-3.1092683045924994,26.969214180670452,-2.800026825811068,13.840293025467698,-6.302201382541138,99.89202910980961,0.7572773632822628,-9.034670753492483,1.3894523326572026,-1.8484491174492745,-2.9038114506726687,24.992916079317553,4.9247742193669986,-30.377329696434803,,,4.759987579921212,-28.906485945847006,8.90212229926291,-46.95429046832907,0.2816901408450652,0.927720826267923,-4.06433640106434,143.77940409887208,2.0168899148272565,-11.99282799478862,5.0763342304883095,13.355446019734007,-3.26592815091093,-9.581227684576932,-2.342199573346356,-12.536964998763139,0.3313217785655873,12.637217574073247,3.5762359795240983,100.13951437169257,2.787315700981583,-37.933704017246214,1.1017224963989438,-20.17937248700225,-5.464834278908713,19.205752344353737,-3.8459169033574914,16.855974419139205,-3.624237260305611,22.576538743505544,1.8250854181687772,-21.970343681528004,51.95993985907032,-58.86696989868976,-1.0049816119530053,-30.159319869939576,13.364612202505347,-34.896385263108506,1.940804786964807,-12.295870457332752,8.047124600638961,-1.9268885564697227,6.339392133492256,136.25518672199172,inf,-13.49195574425136,-3.071989234710235,-0.32707390132729414,2.980539253608192,-10.341419769864979,5.096879274578382,-10.674484850031003,3.9334873454119195,-39.047915512338875,-2.842675011285988,16.240193828275466,1.7891518346966784,-21.897127274063045,5.09586672953009,1.827262516046205,0.6394217161220866,-11.033412931222463,-3.958333333333338,1.1689862620094946,14.630681818181793,-16.57040875790875,-55.55555555555555,7.500000000000005,-1.8997485618922667,33.93485852181505,inf,-2.500000000000002,-0.0673551863493581,-1.3321995464852652,1.2060826885033187,1.472388465723612,61183bece4c3e63512e3eb5d
-5.208589401787143,27.75469729925648,-0.18892786528653244,-1.3363121138446727,-11.117013260874755,2.7826151717565346,4.300196610615445,13.410310463779233,0.3652074833180989,27.13521488543038,-5.736025725938605,34.947246128700286,-2.6210481211839096,15.466456206385962,-4.431130625133958,64.79291725919283,0.4667541486259066,-6.1744852966958454,-0.8470588235294029,-11.556291041390656,-0.5705974860285958,27.05741747743321,1.4136211781966768,-3.3647229061881454,,,1.785319851384661,-4.642883692195142,8.467467113043272,-35.551474041492575,-0.5070422535211299,2.313704331740405,-4.72844660606316,153.5432373709716,6.122304445194033,-11.21586076353902,2.9962861096885094,18.494768632459444,-0.8399561941148376,-9.47199329150985,1.531006261318372,-14.318257233950305,1.175967064256031,18.62109370949881,5.489268419792815,244.49924250285417,2.36335656287243,15.165206198179208,-1.0651430425111237,-9.627688713862003,-8.414127753136116,25.54419123805513,-4.72175425060276,21.17769304741029,-3.2512611063156047,18.625781103674623,-0.2595429792382048,10.873550367704505,63.646892323240365,-74.16704670275786,-2.0966317018655185,17.54179057188011,13.89496103592094,-40.92974703585126,4.674679147118323,-15.525278589373045,5.151757188498382,-1.265519820493648,-14.999999999999996,40.912863070539416,inf,-25.375325463694352,-2.292240894328305,-29.993825280386233,-2.5914426479485617,13.87695931865545,5.7853994776396185,-3.7618967733855153,3.4505822440964624,-32.998776158843626,-2.08218249938436,20.49584466029825,2.7513882788486264,-37.279046500953335,1.3984493687464092,7.476465554129212,-0.5642944485204201,5.015812879639679,-17.266666666666666,21.28328993445273,-2.779263220439712,-17.58551040873696,-53.33333333333336,6.857142857142863,-2.1957161938741856,36.65406014942722,inf,-3.3333333333333215,-0.37718904355636546,-2.063492063492063,0.287982370470562,0.5930359085962954,608ab7f46594ee2bcc835f69
-2.920635284139568,20.642181687411867,-1.0673238430488678,5.711460815837471,-9.13153564238387,-4.265457475141769,-3.2335370654458977,70.93075252331673,-2.49361272443781,47.53101099454197,-2.425372096488518,23.20494490167892,0.9799207894777231,0.8227838353568875,-6.6138313888053215,75.20968278834941,1.0191905296887647,-1.866613303012174,2.336134453781533,-4.361779798210744,-2.008398352195596,32.158557464339964,2.927005829463887,-5.639551796769917,,,2.24005073975285,-13.700672111140037,10.521901107339989,-52.82022416526353,4.656032616139616,-2.671154274360674,-6.259624708272855,196.3547340202044,8.853103362557139,-45.98987738691286,-4.637781084675497,86.90499195613694,-2.5797618240256592,-9.429280790301258,-2.1237209596397393,-10.398695545243106,2.4592152498118627,12.009975969566232,0.01923391049655286,106.96159477938072,4.667781751765821,-30.397513381595264,5.247709980032734,-39.970231635089505,-4.176164246501783,15.010718549348551,-3.348437153659367,14.106915680099469,-2.0462718765600703,13.986644409295051,0.6385522542707164,4.605405309079945,55.65033817093173,-58.43762531656055,-2.477520957811144,5.607756879153309,15.35086838742341,-33.96690473677423,0.7889612955134786,4.779127488134578,10.751686190983298,-12.238427657275837,-16.666666666666657,59.65882895343477,inf,-9.430879393963028,-6.39699263313092,21.310664779930814,1.6816490802262467,-13.652341115238627,4.719902756662182,-15.029514142556588,3.8447284883086095,-35.63344209666296,-1.7861431974060267,17.254014232606234,1.1341275074137194,-8.966919614302599,5.61754588157228,-3.956282983882478,-0.4463672389183559,-0.5875654863146459,-2.518518518518522,2.489559326768622,8.946245710951594,-20.68342179898243,-36.62551440329218,6.666666666666655,-7.853432894252779,77.0929515277341,inf,-3.70370370370372,0.7849789618985924,-1.8518518518518494,2.4847174572965653,1.1697497279651714,611e2078cadc8161a119af67
-2.8853754940711376,23.251561605542904,-1.1618919794511091,-12.148762655308639,-0.32560032560034013,-18.03149019213751,-4.938271604938281,100.11977769260257,-2.1861376129399206,41.550382950075836,3.7337662337662616,-14.927145484697846,-1.6763577879500242,13.408591968567848,-7.216494845360831,43.73961111755386,6.438008090777593,-24.815233893460796,4.94117647058825,-9.994167356184622,0.46529876772843304,44.355699797957335,-3.199937101973429,18.920716859759708,,,5.6293728737402775,-28.584124396497064,10.935481092256003,-51.49654792895253,3.802816901408451,-9.792662247572073,-2.4933333333333416,85.21026540677036,10.81818181818179,-60.1747830575974,-4.7386444006858905,112.36924404184197,5.246008471814927,-20.352382023607813,8.286604361370708,-24.702421176234818,14.429140231399714,8.85090937442479,3.8516405135520646,27.93981529521655,6.8952053724816516,-94.86418118664163,7.3713235294117485,-83.75711908379596,6.884331171768962,-9.376629940642834,-0.9214578735395617,10.113047014362522,-3.262032085561505,28.81373618611633,-1.7363658596233857,43.974659690062225,85.23012552301256,-83.43042642501275,-4.360465116279066,33.38121740243159,15.750381785367237,-39.60305621034611,-0.4143646408839662,10.279602179264126,30.990415335463243,-28.040388930441296,0.0,16.59751037344399,inf,9.202211690363342,-0.5381604696673273,-4.833001510268202,4.291542265879631,-36.228504122497014,8.288051541419767,69.41376380628716,6.927825097417148,-21.75027551647926,0.6755380009717726,-7.27799208666987,1.0338788681559836,-36.314724332904454,11.111111111111109,-2.743902439024414,8.980753288073293,-28.612273262618192,10.000000000000002,-4.9223309688426164,44.83065953654189,-25.0,62.96296296296296,0.0,-5.117466134415291,60.29883160317936,inf,0.0,2.035623409669203,-1.4739229024943323,3.140259935391797,0.3536452665941213,6234857563ccaf842e470196
-2.434677393971615,13.900845560309772,-1.3939090962277956,-2.1837212175886376,-4.3584397833207555,-12.606729881053253,2.42854389470246,50.444375239555406,-2.751425078843392,30.381083190398613,-3.0568278292490554,33.75162636056464,-0.4403667178692163,8.873814772742152,-7.745593599930824,94.5548112203151,2.3340304836463446,-14.449210191911735,1.323529411764719,-2.159265086879265,-0.5735310080284406,18.89902884574579,1.8509180201779403,0.5115227122435279,,,3.8904308352619146,-20.313582070685584,8.186072925021726,-38.65979699974896,1.0387323943661986,-1.1617465700632048,-3.206004897056597,110.74099974861866,6.118374948075552,-30.460434130632592,-0.30715853944990607,65.56669348703224,-1.245734176615334,-11.151397960320985,-0.1670205958030007,-13.813291051674653,3.693789015171958,1.9600162475893894,2.810448289650942,175.1458441423684,4.025659398195726,-23.33483757977589,4.5422908857378115,-27.66829979224165,1.3443057234515652,5.42239722777025,-1.22344151528512,6.2170715811496535,-1.4312286517505621,7.722038307522405,-1.7171758680538118,12.336799567466603,58.3421596221253,-66.0471158938449,-4.1482830502567,1.8866748158704312,17.5777098485057,-39.672685853006406,1.534954459811189,0.9893870144801562,11.29692492012778,-5.124813014210926,-10.674910607866511,86.82572614107885,inf,-12.80649354923644,1.0019539271822313,-11.55687377789025,-1.2447162957609001,2.3380221074567635,3.1759605347211393,29.677712856026993,5.645350527733041,-46.3010009924682,-2.7079296499717413,17.54882380911622,1.6364613285336886,-17.309564260908537,12.01673738802452,-11.524193014780753,0.279496577148019,-3.8774627202639587,-2.125000000000011,1.1198707012660394,15.407754010695191,-21.39696925881136,-36.5740740740741,8.928571428571429,-5.268739830575244,64.48134244979175,inf,0.0,1.0402634336177237,-1.7715419501133787,2.6682192672727285,1.1459466811751895,6107aa76ee9845023fb0cb80
-0.13965779426155117,1.7067719593571629,-2.5792603394272047,-1.3537349728754522,-3.735623847858215,-12.320446011437973,1.9411206077872698,43.15254886929863,-4.426754186045591,32.99423031307487,-3.182784408052041,21.48639387634646,-1.5474118378148556,11.891885408720631,-6.931983324807006,76.46146610486167,3.735667703409641,-13.532918447072525,1.3176470588235252,-2.8197441775293903,-6.030558558046042,49.07789035951159,2.6319565113508103,-11.418092111379856,,,2.704074884239778,-21.561875723082082,6.638401767909581,-34.766199755681576,1.267605633802817,-2.411284106674893,-3.926352075169428,136.1065362830378,3.587272295605621,-18.137122348140437,0.4284369546081342,53.0374935312425,-1.3489316553430022,-8.615258229965876,-0.07657925451965977,-11.59079436867335,-0.8158098381880575,17.282592974041652,0.709252732851204,290.06562208156134,2.596868989908858,-10.094932839230736,3.3691295066413542,-25.455259594612773,-4.050429071908545,19.6798050039774,-0.794786279077502,3.0148034645268615,0.24014776962934956,-6.422739351822241,0.36993871235133025,7.3232961114117865,55.024481983501786,-64.4288670511161,-1.213971054281997,-13.044974213688999,16.254279468107946,-36.14037927030926,1.0599790684854622,3.858809507412279,6.685303514376992,-7.774869109947664,-14.999999999999996,48.54771784232369,inf,-38.87755251301856,-2.069331842325969,14.747823074350647,2.8600436805320695,-16.42997191265742,5.296492147893635,9.021058509718536,5.22871925699232,-44.4508444098062,-4.047215003453461,20.02297688179023,3.3194101891426118,-26.055070655429468,5.807372793354101,3.1922561350646417,-1.1428985387258386,-11.508213876797434,7.066666666666656,-16.662727844123204,4.901960784313722,-8.441558441558444,-60.00000000000002,8.571428571428566,-2.9498637539787773,52.09878816835333,inf,0.0,0.9998503218080987,-0.45351473922903796,2.5492700272957336,1.1751904243743112,611c3819eac3c026d338c054
6.7628323898756335,-33.964749671368196,1.6612983092718876,30.07203105884807,-14.139810766603494,10.943989495550877,2.744143716365924,21.36754184234063,-2.7322000230793066,42.16886601173307,-7.052442023649849,43.6664903428137,-3.5901197760698493,6.769513389298666,-9.310023714706748,109.38190131402807,2.382983234199366,0.11107478209191324,-1.8039215686274344,4.338989641405443,-3.817438104319057,25.274063443450025,0.3282009351613347,-0.00890681755596376,,,-1.096851656733194,16.965083808656082,4.7934443612546955,-6.748262255925555,4.882116376639072,3.497893222342132,-4.487885119788857,124.80613266045985,10.737630915624182,-36.12900186009176,1.395618038700889,37.47009775684486,-0.74260267808656,-13.598388063020735,-0.8619610164498559,-14.081385061148183,8.615808515890027,19.735630881126063,5.198738503157471,166.40157725433272,1.4479494446841694,-5.904872566613301,-0.716839012644906,-11.937924001088847,-3.37381736543431,15.046563418718712,-3.6263530566317206,17.60001191915804,-4.218765271946865,22.83902049699249,-1.6956858575201885,28.408226566307782,66.32557303370467,-77.10313198776039,-3.5489303054731476,25.94908202139435,21.556438119864357,-50.502114875668,2.590810191629172,-8.097679926117232,11.253640302510153,-8.60633258539019,-41.66666666666668,169.5020746887967,inf,-13.38422208082227,-1.3902349372016776,-18.001314051841682,2.8588479350030345,-22.009513454743125,5.13859484915513,16.41033827771132,3.0638925969474253,-40.025085699324734,-3.565364074545739,18.896236913189302,3.903699645804079,-22.18503642270489,6.481481481481477,7.214283350108765,-2.333872911655414,21.91928594693298,-6.55555555555557,22.656969261620425,29.460041592394514,-24.76551226551226,-23.45679012345681,3.3333333333333472,-6.729236065803349,78.07940500430611,inf,-3.3333333333333215,-0.4066257546275558,12.055933484504894,0.8514261387825397,8.705114254624586,62fb804a737937835d963c8b
2.341833064903974,-19.88855774328964,2.733813110280038,5.37358560800674,-3.2747764845151988,-13.484910599574981,3.5375118708451967,-10.904561134534294,-0.4633126321596254,34.3498677995325,-4.740619363527946,47.03136551097372,-4.032773836389996,2.122422226944053,-7.208790073057431,96.99024187752245,-0.6388079581971515,-4.583038195360692,0.5098039215686325,-1.261252707205782,-0.9067805951323419,11.88731984048948,5.421039940302678,-19.669957649874682,,,3.166561287387638,-21.575868523193268,6.242364244516866,-29.80232930776011,0.09389671361502175,0.6484764400596205,-3.460804462772951,116.39502953558356,7.963420626698666,-13.603251472914016,0.9477288801371756,11.7033372143208,-1.1487182881561782,-15.999051540400261,-1.5493443878786703,-15.19548242379706,4.444871453669411,35.44920474142782,4.3868144268812115,63.969285047213965,2.8530355826369846,14.65557197292534,4.072534615952793,-0.0830344437898269,-8.420927324725179,18.287074789968415,-4.116456316047825,10.888971522815313,-2.9943894688816264,12.355225748022166,0.8616355779328989,10.927897284425722,64.38386973074492,-76.0419220672656,-2.5067725755470778,2.640051268407177,21.17556129348827,-56.27003952198337,1.2144887421202712,5.811210569025032,5.404685835995735,-4.93206182996762,-12.49999999999999,39.903181189488265,inf,-27.065399308602966,-3.03282804750516,-13.914962237560113,1.358148273381301,-8.835251125003749,5.056915296287625,-2.8881417475976408,3.4432069558144716,-39.612808860907634,-3.0626178964707296,14.9184074826499,2.5980352669833633,-36.9827768141479,1.2147048038137118,-16.100861298569953,-1.1813936086848689,-8.125667860133744,2.3888888888888804,-4.69336446080634,13.678051865907648,-21.302629062616376,-53.08641975308643,9.523809523809527,-3.6618715620936397,51.30314573792828,inf,0.0,-0.45651848525669764,-0.3023431594860211,2.1690498251238126,1.7319550235763415,611d0c64d70a6d9fcd11440b
-2.8853754940711376,23.251561605542904,-1.1618919794511091,-12.148762655308639,-0.32560032560034013,-18.03149019213751,-4.938271604938281,100.11977769260257,-2.1861376129399206,41.550382950075836,3.7337662337662616,-14.927145484697846,-1.6763577879500242,13.408591968567848,-7.216494845360831,43.73961111755386,6.438008090777593,-24.815233893460796,4.94117647058825,-9.994167356184622,0.46529876772843304,44.355699797957335,-3.199937101973429,18.920716859759708,,,5.6293728737402775,-28.584124396497064,10.935481092256003,-51.49654792895253,3.802816901408451,-9.792662247572073,-2.4933333333333416,85.21026540677036,10.81818181818179,-60.1747830575974,-4.7386444006858905,112.36924404184197,5.246008471814927,-20.352382023607813,8.286604361370708,-24.702421176234818,14.429140231399714,8.85090937442479,3.8516405135520646,27.93981529521655,6.8952053724816516,-94.86418118664163,7.3713235294117485,-83.75711908379596,6.884331171768962,-9.376629940642834,-0.9214578735395617,10.113047014362522,-3.262032085561505,28.81373618611633,-1.7363658596233857,43.974659690062225,85.23012552301256,-83.43042642501275,-4.360465116279066,33.38121740243159,15.750381785367237,-39.60305621034611,-0.4143646408839662,10.279602179264126,30.990415335463243,-28.040388930441296,0.0,16.59751037344399,inf,9.202211690363342,-0.5381604696673273,-4.833001510268202,4.291542265879631,-36.228504122497014,8.288051541419767,69.41376380628716,6.927825097417148,-21.75027551647926,0.6755380009717726,-7.27799208666987,1.0338788681559836,-36.314724332904454,11.111111111111109,-2.743902439024414,8.980753288073293,-28.612273262618192,10.000000000000002,-4.9223309688426164,44.83065953654189,-25.0,62.96296296296296,0.0,-5.117466134415291,60.29883160317936,inf,0.0,2.035623409669203,-1.4739229024943323,3.140259935391797,0.3536452665941213,611d06c0bcc92ba3d7669ef6
-2.542545160742405,14.810959963332456,1.775427677907773,-11.927266555353423,-4.3363157091015525,-11.756782613322658,-0.7973251028806616,62.8729078829692,-3.0689253630144706,51.32235917658795,-3.5067567337314753,22.519015110284606,0.9688904042219646,2.4996282422275047,-7.101394095595122,74.46848025593341,2.293741765940486,-11.119400319185855,3.099391480730225,-4.919961012360934,-0.9941998992873848,9.852354653373059,3.643603582019831,-10.403116969526714,,,3.359686973463745,-24.429554694509235,7.579338547857923,-40.53889688973191,2.089201877934269,-3.211679769795998,-3.325439744185471,85.39163568286348,4.9023311331391985,-18.24139400345805,-1.3878394468104616,82.38542278340319,-1.3595983254239405,-9.906105231904435,-0.4845692244017364,-11.476965465970878,5.256807077182893,-5.953645835191846,3.054066307823226,147.2447165438764,2.7104803310475827,12.155218521329754,2.8104274798154494,-11.565302627816182,0.0992195085731098,6.201348122504981,-0.6831218563299324,5.677124592018841,1.3248298310537514,-3.9173540182104922,-1.1549949762217955,4.991608710902418,54.539905941604076,-63.872022233337255,-3.080231860267042,-11.62177296973456,10.692907106024204,-24.472815442892504,-4.118507799562584,31.075922171847687,11.428381256656007,-10.420718025430077,-14.352403655145007,75.10373443983408,inf,-19.436993519981282,-0.531989824769118,15.793348701779236,2.9186909538789063,-15.429947751502521,5.56071203010596,22.55161979252698,6.682549618370534,-45.65922011077491,-0.8374253557275992,12.039064398276338,2.870933328352214,-31.572006776936096,7.627429409607626,1.7932722106853576,2.242695858601601,-17.844044741329746,-2.166666666666659,-3.588937774984298,20.788770053475915,-19.508958496372678,-52.46913580246915,9.523809523809527,-5.385477388367974,50.75772536642097,inf,-1.6666666666666607,1.5391907399091753,-1.7384731670445928,2.3748111419962386,1.1606819006166174,57fe6296035f6e0001d71d05
-0.29411764705881815,-4.705965306167363,-3.4010340564235184,-0.16249685498787464,-23.919585891416894,20.73736453609184,-1.5669515669515615,-1.6098121885779697,-8.340096649865389,85.55171135989504,-3.8296767899134334,36.150381912723866,-5.759000371149331,25.402960609525344,-10.891860988877726,112.73652827708831,11.58663731935475,-47.76704003548432,-0.7058823529411662,-2.3276318109680725,-4.943181818181807,62.298266263493844,5.067611353523133,-38.697144863580974,,,2.737243176736728,-13.769099719103876,-2.3678283546704693,30.403229478488086,-1.5492957746478822,-0.6197009403422106,-2.2000000000000113,133.86574595023134,9.412878787878782,-56.444357039258676,-5.06632473935675,37.47438800819585,-2.7602261390089806,-15.16453556493739,-1.2820512820512866,-17.503333838655045,4.3704496788008615,59.51593731980819,-1.5691868758915852,51.80574867697432,3.997914828775383,-80.01192548166931,5.04269449715372,-66.90129926509356,-6.790026039611763,30.7794319342046,-6.444311470718309,24.237682299284284,-4.664031620553357,17.22974713285421,3.9569344183483692,-32.35901445440149,43.07017543859647,-48.82348181711195,-2.7518518518518547,-36.86655154704216,19.902413970210613,-39.59511663089752,2.77934378171159,-28.577840000702558,24.201277955271554,-27.771129394166046,0.0,194.60580912863074,inf,-41.89558832133872,5.1653741151457835,-23.174758044486712,1.910467474880915,-31.118963486454682,5.7142857142856895,-38.71829105473963,4.468626996990047,-24.2010022102206,-5.4343236374355826,52.90475294303224,-0.39277884032282057,-12.821233679632796,0.0,14.583333333333329,-6.206896551724142,15.560250368453357,-5.000000000000001,0.8242794289305806,0.8986928104575131,-19.103360407708227,-100.0,14.285714285714285,1.8846445737414521,8.057971014492724,inf,0.0,-0.9130369705134119,-2.607709750566896,1.0818120351590208,1.0065288356909663,65046ab60ee62c5c2a6d8463
-1.8639220083643802,13.486909830664159,0.2973382804474124,-11.01402409099846,-2.4263076858803414,-16.879997083137653,-1.086666355441963,56.7837293982369,-4.403575653772149,50.18566802983081,-1.619548761382725,17.939651026026013,-3.2682920148109464,11.675439546839117,-7.360462237956145,72.51060249550744,3.4338893564292747,-19.386876459018996,0.9882352941176568,-1.8055423680533706,-1.4130558865338663,14.617274509255967,0.955818270295023,-6.999189727300817,,,3.4093769165128753,-23.198779374016663,7.211505756184955,-39.505511475030204,0.6197183098591622,-0.10104825034686203,-4.399609209070235,143.8096850493153,6.3938210253047245,-30.21202586100948,-1.875535190997479,70.18198356593398,0.06926499101523559,-15.731664368999395,1.7063316994565452,-19.215355562140292,8.000597312442673,8.719999250135343,2.2671593668772942,163.6255681228601,2.9480042083314126,-29.167355902053366,4.402577017524282,-48.669467787114904,-0.41467231883587224,4.811623090525601,-2.1089754657300253,10.050575722040318,-1.3052883027488975,11.045945061561378,0.1071730979516873,11.466022466804189,65.26766973911954,-70.22969503942569,-2.973403586719068,13.22691335790219,17.96938438105169,-44.05115458138365,0.08482572176620737,2.5282495783570327,14.62460063897764,-10.858638743455517,-7.473182359952318,56.76348547717841,inf,-8.168690758293836,-3.7723262821110097,6.990723293979144,2.674647782399736,-23.021074567364312,5.860497214561838,64.92629044864302,5.169673176960165,-28.65953875598474,-2.0869467216372843,12.55857365356775,2.4982765363096746,-31.240083264568103,2.2222222222222183,0.2872272143773954,2.4789047513876694,-12.506577394716151,6.3330508474576135,-5.804501159357519,22.139037433155067,-18.666125541125535,8.14814814814814,3.4285714285714315,-4.185585982199478,66.55416802188002,inf,-1.6666666666666607,0.6496033527914998,-1.417233560090698,2.7100393158540883,1.1262241566920532,55c333b0fdf99b1dbd2131bd
-0.15225649349227022,2.8101004674921906,-1.1931499780944708,-2.4298981336487504,-7.574188437571096,1.3693749662667563,1.548617390796251,37.435102268371715,-2.1395099627646132,31.927266013793272,-3.5063568490924553,29.994923308056183,-0.8463679557217902,2.7297949691165364,-8.138886363733103,95.78384398705052,3.2440829458550366,-21.017559231614502,0.5989304812834394,-2.1251539854960777,-2.5108803036478644,17.778689780031627,4.8200392489640915,-14.223735958128428,,,2.5014595266266584,-13.115435377234434,7.680419207714893,-36.082278706321055,0.8322663252240712,-2.35856328040697,-4.298933128551822,135.10666648065208,7.203742617773249,-26.889013540602928,0.9527545146213274,46.58419076870896,-1.2479633172637423,-11.196312218184568,-0.6084879935005955,-11.855784294740987,4.211850867142487,42.458988798434994,3.9993573310359998,224.83485052873925,2.6906721385206804,6.377932335096627,1.642910506448575,-21.859921425799474,-1.1501740209174263,7.31081901521544,-0.8398969287422062,7.053051467369693,-0.18592862436831786,7.504073680466908,0.47031365760315924,-11.362938084395694,60.003909475479276,-63.13242017681823,-2.619789895710314,-9.516669511937799,17.784017620218723,-40.14389968004998,3.404997958610884,-10.712635665752334,8.528173104850426,-8.488474875909448,-10.06880485426373,84.00603545831767,inf,-13.215953638544475,-4.120870708035995,1.379747915631223,0.4259177906535518,-8.084591498019059,4.468938099455593,16.49209409519813,4.9829706537004785,-36.862490477084044,-3.3439555769340887,29.129273248643823,0.448093800470561,14.130862373898378,12.031203120312028,-3.6425926550085315,2.537030527875189,-5.4332906827323235,-6.848484848484848,3.340380549682881,24.75085075352454,-24.231275002239038,-70.37037037037037,11.688311688311678,-1.3559477128400852,56.90003078421041,inf,0.0,0.5293165149473971,-1.3193156050298942,2.1042063638412776,0.8952418636858269,6509ee73a973beda35b3a29e
0.5973043768946849,-2.9082246832750966,-0.2736413899895846,-4.628941855353998,-7.165714720982224,-7.608900405033722,1.6610640558701002,19.77290149482565,-2.458373659336409,66.4201657898955,-3.0637388314810563,36.862126017898674,-0.7721852977843794,12.973457394056148,-3.626591511237819,81.56492426431832,1.2031197657606474,-11.89106592513269,3.15966386554623,-4.80505211593202,-0.3383782165934745,22.748091583336205,3.913062331859612,-12.761212175119258,,,5.857006416443081,-27.119460544433977,8.425995064053392,-42.44774129975698,2.5150905432595523,-4.1750534035102955,-1.477841435229448,66.63207945787222,5.853678719732862,-42.48963136472664,1.4200360118107906,31.431275831417484,1.8240847752620244,-18.87483969085696,4.0709866703750235,-21.890167434103457,4.653073537096066,48.889340110848636,5.717820264741557,335.1283594479618,-0.38634379712658595,37.573156785605136,-1.789192147447199,-10.056051941071653,-1.4384526628388323,10.681055731640331,2.018024837629009,-0.5351462324277009,2.958899464990307,-6.84443756724402,-3.425413161427393,64.1292943873083,67.76429810161758,-58.528097451761695,-7.0861644324704525,49.149165987668034,20.572582212634487,-43.47798312232047,4.357729415126852,-12.90039431709081,3.0351437699680415,-4.956191900844123,7.061978545887965,87.4585611100134,inf,-6.696023700861771,-7.115167481486026,39.321681587027896,3.8778250430697545,-30.889734529310488,6.6422026785055905,-2.1557663322053946,8.247112742452337,-46.30741231385424,-1.592044193376231,9.097505870018896,0.5719204686335742,10.84239243949977,14.651107967939653,4.981585060211488,1.961815729331242,-13.837820326881529,5.857142857142874,-18.875665413871406,8.19327731092434,-14.772727272727263,-15.873015873015875,6.12244897959184,-1.982329002382977,55.85913051751557,inf,-10.71428571428571,1.2957854897684358,-1.0689990281827044,2.6272577996716073,0.7539250738380311,610658bb4a9082015088fa3c
-0.070283996432925,-17.804239885018987,9.203740703932215,-17.189972091211082,-7.558434163849801,-7.0615128055390874,8.276353276353275,-32.124377155998445,-3.7040270953816594,40.45977728211007,-4.96220779652003,45.88917306290152,-4.803409165427827,30.512468534951353,-10.711079441770394,112.97674322047119,-0.11843177240849208,-6.6032588514206045,0.8627450980392242,-2.0947782012849694,-3.553700691635893,17.588626179324468,2.194328161717161,-11.856928439917084,,,0.2417346854698468,-6.595421795387287,8.825087815822458,-46.872086684906,9.859906275022471,2.0088895740198485,-3.0630979615087166,102.41010582835604,0.8134766468099541,14.598441456279529,6.112255957014858,-13.041408852927146,-2.2913466461853416,-8.867474905155731,-3.285249854866976,-8.054734050890195,-1.8249189008132636,61.965563531319376,4.5000648424328835,302.3068036387541,-1.4690583916899185,-24.93422324060092,-1.0089869281045671,1.1754025103275554,2.2081402699446917,2.3724348307333094,-0.7020085546789853,6.476194330535207,0.20069142741835966,4.788981135832958,0.61079992847588,8.627867658360133,59.2236256189106,-68.19206206765789,-2.0965893683398034,10.29407939661245,23.008304751628195,-46.22317215713411,2.6341752170481536,-7.137691309633243,10.662939297124598,-0.13587634006483323,-41.66666666666668,160.16597510373447,inf,-28.393019961773252,-1.0531274914836697,-24.277847469225396,-1.7738070562311654,2.3609676542538724,5.852028805822649,11.270039694350697,8.030949557046856,-55.19800992197593,-1.0959499780659399,13.767392889743915,2.167739034577992,-31.920861059989143,9.259259259259265,-9.891598915989174,-3.7022766666348303,5.26445146477873,1.3333333333333286,7.805213851725461,15.849673202614364,-15.376984126984125,-45.67901234567902,9.523809523809527,3.5795048317147504,26.343591387069615,inf,0.0,0.7982836900663691,-1.47392290249432,2.1260611524303545,2.085600290170463,5b3f242f9c2ec600014ef9fc
3.106709954217025,-22.14215676362874,2.4586778821886557,5.479717802609757,-11.552309546069226,0.6513720291782119,-2.8412020078686666,48.7320675683075,-2.4968785304971584,45.653804529993046,-5.1807325375638955,43.373407458228904,-3.4897537089843578,15.67519235989508,-7.808450190837777,95.22776817065952,-3.6563286200845257,8.97642981737164,-0.1767603593161334,1.1417393348018101,-2.8213736016188093,34.97645354265127,0.529467740420498,-3.795894694081745,,,2.9848253116651757,-10.140798363616389,8.645655033021498,-39.15168018632586,-0.07042253521126242,1.424442291175759,-5.644218682470211,171.69851681530196,7.8345508785501075,-2.5166547850243255,-4.9825783528902114,64.27176587318941,-3.1492655633687106,-9.427553364853923,-2.2550964175222195,-12.419321904240894,7.818728713699298,13.35664980531208,0.9025905836932491,167.13191716450032,1.3207719842122185,-13.878359104671128,2.9031589858357147,-22.375333897396644,-4.262122827984868,15.392889657827027,-3.118652040326866,13.373074636855714,-2.575922691624235,16.43560021162238,-0.028651589365601342,20.38173777177717,48.91917520888043,-57.96299078946632,-2.791759174680455,13.543319901816265,14.292971550492945,-31.042442153654925,3.9072974307765045,-8.421633411881558,14.11425193975353,1.9620151725611676,-10.186971894687563,56.88946702086399,inf,-9.701534642292936,-2.691753280392269,-13.608386445918935,1.4491727691649774,-20.631072108103904,4.755714504847727,7.1827021832549285,6.176454021554627,-44.15836927877458,-1.6381083096716105,16.553108881283876,2.9894552007019644,-13.644458608626906,12.120776986995763,11.03097773802556,0.4988672384692931,-0.9610658711974618,-2.142857142857154,-6.02460267576546,14.417812579577264,-17.51477757014697,-38.88888888888891,8.571428571428566,-7.7050566060124055,73.13494008242729,inf,-7.738095238095244,0.40947676780635917,7.304826692581791,2.134468091195635,5.912871133219324,5e692a511f156a1e4aa18f70
-2.969813906476652,22.800191265782065,-1.3947880940041635,1.5124971642575864,-11.497392307014112,4.831260201121084,-1.6042599375932713,59.441219952910274,-4.71576155375415,42.47000022481828,-4.6343865777971605,31.243408568185387,-0.007424483386564098,12.563312510001467,-6.622736179411458,87.22148092618056,1.8702032544670475,-16.000185869117576,1.474189675870352,-2.0721802821205695,2.290374465318949,-14.434326098791859,2.3523213594859658,-4.791923076911007,,,1.6760915321979135,-9.048456046834875,5.934678932184594,-22.84879447460487,0.5633802816901304,-0.6507520535576844,-3.5304992223530682,141.64744474799167,5.132360600313226,-33.40122843306316,-5.167972517883222,80.17944183098558,-3.343856839411521,-5.003985963348318,-3.1690264867878875,-6.363606998693623,2.84279580231602,39.99956143180135,6.503398513087537,99.40793667264583,2.025762280548628,-23.84444412319507,-1.0466854673558263,0.46262047254317146,-2.137036234579486,13.874015043782315,-3.0161657591379285,18.117419995592186,-2.9176156268103717,22.94824815529172,-0.910043744043959,-1.4980615104258663,37.11050826255459,-45.32722858768082,-3.5622443682682663,-1.1070877888820032,13.17707688309267,-29.115210183570316,3.668756094482422,-14.245886379864084,4.9463715198539475,-4.1756597927128905,-3.635280095351612,35.72819015419292,inf,-16.968530325066656,-9.054952476449731,42.7888874385201,-0.1927278096682233,-6.348619578301569,6.728343898459031,7.778535275920342,4.8643746079758685,-46.269430036790624,-2.8379070139265608,24.65157761123559,3.1426700437063997,6.6619505062641124,6.992821731152714,-7.8695213643866,0.38439505685528513,-1.2146146216928877,3.904761904761891,-8.965910437084968,7.457983193277299,-13.50529170078043,-53.968253968253975,8.571428571428566,-2.6583635474661724,54.85292814403904,inf,-4.761904761904756,0.8061239763080865,-1.9274376417233576,2.5142113039341396,-0.932690812995479,654d4401d386722f1c6bddf1
0.2487308914748968,-5.278127417786783,-0.9515428224000416,1.0874025717275355,-6.388115982336619,-6.946994099913005,-3.989922971404457,68.1380690771262,-2.011162223447028,29.193036114703087,-5.0438712607857905,32.01896931840472,-0.8237584438366566,-10.44158443459692,-9.627617005629062,96.37905837531832,1.5762610202415341,-9.578696279377006,0.2614379084967288,-3.6481738533110826,-2.4503018879086214,12.582542599674685,1.3217813390643407,-7.149110537063813,,,2.6059594502408148,-16.238280424602202,11.663449269626227,-48.5287830146801,11.419398724822083,0.20656698011408603,-6.465920091079462,227.65129401006328,7.993897575017838,-35.4835009054632,-5.579357043233331,80.14117498196431,-1.2447596014081708,-8.709182574751722,0.057900921880391414,-11.429263951804272,4.252477226066938,23.378255061716526,2.259176866880164,153.3337022817156,-0.6963949649545011,-16.370779007062204,-0.014956768075142334,-24.499295413122297,-3.570825854937889,12.228057549014633,-2.1026409259812486,7.462920742866726,-0.7178504094473144,6.65098348858245,-0.6878336260955544,27.489046670092854,56.68501019878253,-65.42964918991018,-4.276192308869819,27.169554674000178,12.41272071898826,-26.426417833236254,2.4231168929517435,-5.170171924675112,9.948526801561927,-4.719521316379964,-16.666666666666657,70.58552328261871,inf,-17.415883278398653,-1.7578793686035012,-14.308323376729426,1.7940281533409363,-18.809962449538375,5.452642799379228,24.136637923172856,7.516600621889033,-34.761035260922654,-2.8282853414619056,13.435546177742038,3.6547572123085628,-29.394788017000778,7.370737073707372,-4.318806554641429,-0.6969602777722536,-2.1742193419584632,2.3185812931575613,-6.658565542286487,20.364593648907373,-18.625649289264853,-53.49794238683129,7.619047619047629,-2.617011215919497,56.41409728086415,inf,-4.444444444444439,0.9795606113522456,-1.1841773746535564,2.863407318369405,0.29017047515414524,611513d0ab9d61f4053c4c8e
3.292682926829281,-18.929525007982633,1.2394225983076304,-8.91136631388017,9.061244979919676,-16.3055916648567,-5.721747388414055,103.13817554618636,-2.7972473556773245,74.25830381893714,-5.380333951762524,47.99103742367117,3.1822256370854007,-23.18503303619312,-8.094477179666427,119.93119177393794,4.451165273083083,-7.4513035159440255,6.117647058823538,-12.815539248267168,-2.729548299010119,25.10678750468715,3.363237884560229,-25.168285086224255,,,12.654375742027026,-61.567325060167654,8.890235457063707,-38.040144717687355,27.505708201852258,13.316633266533065,-2.3829596412556087,55.65568749071703,1.122334455667777,9.072248580348479,-6.283423140134227,100.64846809643826,3.2884434700908143,-22.811068826563574,3.99999999999999,-21.22939636322527,6.293630225676856,18.84871625319459,12.307189426420411,530.3600705613791,5.981571138528825,108.5144913626211,3.0882352941176388,16.550900803125636,2.3813135143333946,5.716472982547102,0.9739112882878452,5.3337526362097005,-0.25032938076416367,11.863909668392363,3.0409574583455803,37.43846789467445,76.71348314606739,-75.65715595700443,-1.0488888888889136,23.304288307609045,16.771708683473406,-35.129261513562966,3.4158521036974094,-22.821114278235395,3.9936102236421593,-12.849663425579665,15.852205005959474,98.75518672199169,inf,8.275462962962967,3.5225048923678837,-51.701016233231826,4.791214940197253,-42.71269366675721,10.603217204353927,-3.8589959359052046,0.9757549697350592,-8.766599487326253,-4.52417618620759,93.39347029992581,6.890547943956736,-56.34334110504009,0.0,-17.07317073170732,4.152005629838124,-23.0711326954516,-10.000000000000002,-3.0712040944599135,37.25490196078432,-23.809523809523814,-100.0,14.285714285714285,5.060091111814351,17.524214915519195,inf,0.0,0.32929202215236936,-2.267573696145127,1.6577767761001057,0.13601741022850636,6162d95040a3fa68f76451be
-1.0144927023761356,2.829268783839309,2.366377365026463,-5.215065706334508,-6.809809216615675,-0.49706964817634636,4.396337784778009,23.694080928653573,-2.876060863303727,42.142365241978666,-6.173039544057912,43.23639159781674,-1.129454524759938,1.6115079790315054,-8.572939468482797,96.17894040199688,0.7182312267605301,-1.5747181657225218,1.3511059596252395,-12.19281232380458,-1.6214508407849295,16.841670061338007,3.7798235843750465,-16.304411868380736,,,2.9444772451198196,-13.445499675420477,8.4394790087195,-36.09832803753727,1.0529845741113364,-0.7771587130304484,-6.027967614269084,162.6411262052844,6.223759741139231,-33.630549985426086,2.698587046188568,33.0976676899056,-0.9984555465160363,-7.377793612116602,0.21355686152204895,-10.1665063629857,2.2840797851145185,20.77488961523835,4.350649085203273,179.02162795179336,1.3160205337949558,3.640623744068078,1.2173446996173172,-10.94120304948553,-2.521571551470308,8.475083380681522,-3.967666888818242,18.37406811200019,-3.6171028396851814,31.192237381744025,0.20548721039434828,4.943416124025932,46.07025575546969,-57.34734983495577,-3.0357148285045588,-2.7192222290291492,16.685817671759402,-41.49071258521352,3.6176934858133074,-7.862480563621743,6.810056290886965,-0.34405385190726834,-13.76071286679153,83.93427346862114,inf,-24.50766868387985,-2.8126865243582726,1.6076081154986905,0.37229028287285787,-7.055238440397431,5.140835435495504,2.6135698386597865,4.990381301356462,-34.11306212441158,-1.6530819080370525,14.428868699417889,2.0595166349210863,-7.297783742050075,10.200027939301858,-3.1884780442630616,-0.13763995153327763,-0.7676652563320604,0.11487758945385895,-1.856189364495015,13.438149397533142,-22.67551833586485,-89.77072310405647,13.605442176870763,-6.627948690704087,68.98557692233575,inf,-2.6984126984127,1.1988510416889386,-1.295756397797217,2.4550646141811643,1.7060469454375997,65296d538ca4cc9d14c129aa
-2.6490413653242277,9.499924207733667,-2.772362338029995,5.945441511179545,-9.008248219554705,-5.011828202199972,4.540089540089534,32.4227947215682,-1.613335872809977,27.138810694624127,-3.626877104951503,29.818478859654928,-1.1506324574965001,8.933409489569549,-8.542593589185705,91.47100457119124,1.6527655690275491,-11.934101936342095,-1.8081715444798505,2.800665591304705,-1.253795891514699,25.709152627008468,4.988583733531331,-22.562393913979996,,,1.32634864012972,-10.375551940226991,7.605743014077565,-26.97067268225991,-1.187122736418506,3.820057697813206,-4.951215879856128,150.14970321200832,9.305356360879337,-2.368895147724606,3.6533777315478217,35.89470658278772,0.713264547326151,-13.69485122886893,1.877081372179974,-16.194839896261577,1.7533186619971557,50.60216459707219,0.25879968818628646,198.62268933722748,1.573325405903915,-19.00013835732908,3.5831229669287152,-37.13920992751347,1.6490960321054415,-1.4437435429519907,-2.791857190533273,8.280039922992668,-2.765367091920675,11.553987969571425,0.008610848885544455,7.045474763713874,48.45382432980998,-58.35758033647732,-3.1667029552090433,1.7321008844653607,13.740056490592675,-32.06441798476419,3.039136429278341,-19.767615559269032,5.855441542601973,0.027246500694490684,-17.69062930638492,90.98260481386349,inf,-18.775023613096298,-6.040724352930728,15.864034034336626,1.244125627820747,-13.595050414838367,3.8521103423907554,15.465839453661918,4.751731228120206,-34.851319681169215,-3.850527171534232,23.488637969635107,0.8111647615613868,-7.551120695486217,5.883624076693388,0.6989006628301626,-3.0656787370791845,6.742324495977585,-4.523809523809526,-3.89815159250377,10.51587301587302,-23.49486353245752,-39.68253968253971,8.571428571428566,-7.12642072510372,79.51827367976433,inf,-2.3809523809523614,-0.7312848803643573,-1.5873015873015885,2.3299741352480448,1.2202704803357465,615a10906193d263fd02c670
-1.919602089537816,9.067118044215603,1.2171895032706437,-12.079339076159016,-8.45728941165086,-3.7464601684883427,3.3653846153846096,7.257929283250281,-2.950772182432267,44.38194742076919,-5.959158915978052,35.27939797671035,-4.263324229921293,12.212193879788027,-7.6556046554072195,71.42618081594867,0.3894216280373262,-8.159906094074755,0.029411764705882644,-3.8012786602100577,-5.436384678602895,25.29364800746335,0.9019075990862775,-5.601962310362548,,,0.2603446489820623,-4.988384744383,4.5933773425853985,-24.547890574486594,0.6690140845070397,1.4703445352242968,-4.546901427886093,141.19650793990382,1.874988158009533,-7.6724169719020905,1.7639912889947307,18.813798414281006,-4.68181818181818,-0.425615070158063,-4.824924636468999,-1.3984136323809855,3.4839280706128983,8.234167049849187,4.218230064926927,116.84471308498539,1.8505979939877566,-18.919723378333366,1.6320007657146025,-27.64588307647788,-1.0823241621223243,4.847911114272936,-2.660492897230671,13.28947607485684,-2.253854906608815,20.74621605845547,-0.8404616632357287,8.942063117972614,48.857565213958296,-53.65426155309719,-3.9952334114243184,14.360030089109108,16.677349030472964,-46.78411409773775,2.1509850964581134,-3.260947850980108,4.767372204472834,-2.3625654450261915,-6.249999999999995,61.82572614107884,inf,-28.855990543268394,-2.7763266184662228,-4.372077189444327,1.0162249682579731,-2.454516625894691,4.975144828249261,47.09323555385821,4.468663904122575,-33.75008372047713,-2.823046665534067,6.658513062713863,1.8014406776185736,-15.484485799064341,3.766157865786583,-18.961275139067187,1.054476501478936,-5.269716837363924,0.16666666666666607,-1.5690940109544922,11.12967914438502,-20.07978434608869,-39.58333333333336,4.642857142857145,-1.6854948280456865,77.66890213611516,inf,-6.927083333333339,1.6820086813351312,-1.3321995464852652,1.4314601958280442,0.8399075081610441,602bfa74abe14141ae89b2fe
-2.098892590774328,7.565145776106576,2.408670004092358,-2.0749361849442653,-4.931248532174588,-10.862896031454012,0.5264404524720119,26.276407458345545,-2.3773456049450714,46.814877330195706,-5.2755337365572075,32.09700372529875,-2.355031516031684,16.028179073822514,-7.317577704726519,76.12795208756829,0.2616101161482221,-7.5214111308027105,0.6333373105834602,-8.6686539931636,-2.963169950323512,14.048305275920198,4.553591380152336,-24.81756611759941,,,1.1479714247935235,-14.31590286032284,9.087087304097093,-44.87856740601195,5.297613763371846,2.6576682777319522,-5.695224903808539,187.1852769914365,8.2453056713954,-35.742607473432734,-1.1506479727289176,40.455282886237526,-5.316462355532144,3.57625186662204,-5.128209968608919,1.5665134629949566,0.40110421788339323,6.069192948295673,1.2471408510994078,151.91788999505619,1.1081570338464928,-7.764743660557398,0.11294379031523852,-14.136294847871877,-3.739869935799758,10.382205118426382,-3.085932651557584,9.04887497907524,-2.7352267276947675,11.745657081269721,-0.2843057002248507,5.618651003158503,53.893054964092435,-62.8395950589251,-2.772766288092009,3.404733724061868,14.6442767849857,-36.80034534307691,2.2135909860911482,-6.80277869383534,12.721499187875082,3.115623212635818,-14.866841574807243,81.77076270803393,inf,-28.490356121384853,-4.8410630337647875,4.024970845491341,-1.5890426764285894,8.73442804683711,6.258787073004051,-2.4950525372469716,5.071163146013746,-37.177467234998865,-2.768798655804096,24.55626724815394,2.180880138000963,-17.291856146573885,8.789692303024454,-12.467533062374056,-2.0546677038815506,-3.671058944635186,-2.680790960451982,-1.7778575918110913,14.1920939498794,-20.40438052771476,-79.73856209150327,10.756302521008417,-2.5048268272132144,51.49892084867933,inf,-2.6470588235294024,-0.19105980964456268,-0.8670134720554808,2.226818155704938,1.0353325225628862,5e209e63f814783b253a93ed
